row 0:-0.155195
-0.453061
0.220661
-0.676272
0.0934061
-0.0247913
-0.115542
-0.105908
0.0407031
0.0155772
-0.036376
-0.489049
-0.277854
-0.386457
-0.184502
0.091575
-0.165119
0.136285
1.2024
-0.0262226
0.388348
-0.119347
-0.105929
0.088271
0.229671
0.422799
0.124472
-0.0502264
-0.0829128
-0.171102
-0.0522306
0.108797
row 1:-0.442668
0.26906
1.32754
-0.815334
0.614184
-0.302313
-0.121466
0.0882816
-0.36072
-0.405567
-0.315799
0.0569711
-0.128515
0.025144
0.117556
-0.201644
0.77613
-0.0204672
-0.255315
-0.177654
0.651982
-0.335348
0.125618
-0.260299
-0.155518
0.822374
-0.0694833
0.888612
-0.639003
-0.36112
-0.407548
0.803028
row 2:-0.0803274
-0.00921137
-0.0967572
0.0516169
0.17579
0.0624846
-0.236478
-0.00515556
-0.1312
-0.227693
0.0247598
0.176034
0.212537
-0.183928
0.0513828
-0.00982102
-0.107594
0.273429
-0.0490083
0.12105
0.255945
-0.171261
0.0975436
0.00259812
-0.0398638
-0.00881703
-0.0383223
0.0639967
0.262011
-0.104788
-0.043426
0.00870495
row 3:-0.22123
0.269558
-0.114575
-1.00852
0.367383
-0.125148
-0.0536955
-0.159645
0.0703521
-0.296981
-0.0735939
-0.335284
-0.177023
0.0442757
-0.536317
1.12805
-2.47495
0.114532
-0.242689
0.241799
-1.12871
-0.754489
0.699908
-0.0376849
0.189287
0.160203
-0.193213
0.297658
-0.296952
-0.240161
-0.0332881
-0.36041
row 4:-0.0685067
-1.12767
0.0850883
-1.47454
0.0668107
-0.033461
-0.0527498
0.165556
-0.427237
-0.212885
-0.174614
-0.454745
-0.0526272
-0.650157
0.0599627
-0.0198824
-0.332801
-0.352753
-0.0180167
-0.0414938
-1.22258
-0.375559
0.0951418
0.0347952
-0.0044489
-2.17465
-0.0538214
0.126614
-0.304292
-0.346062
-0.483869
0.869495
row 5:0.937302
-0.0101032
-0.205083
-0.385747
0.580227
-0.477414
-0.442041
-0.539935
-0.0299383
0.0400199
-5.17755
-0.282886
-0.707699
-0.246521
2.32541
-0.9109
1.3825
-0.135377
1.172
-0.0384647
2.60457
-0.0483657
2.1838
-0.0693273
1.64253
0.493209
0.679516
1.45551
0.482813
-0.392895
-0.483857
1.99172
row 6:0.273846
0.16981
0.0919512
-4.5812
0.56503
-0.30736
-0.053573
0.210554
0.0970869
-0.370366
-0.113835
-0.13668
-0.0141143
-0.168401
0.00766354
0.0990864
0.29539
-0.318124
0.358432
-0.0227795
-1.22001
-0.00816938
0.10282
0.270251
0.643021
0.000515654
0.219018
0.155103
-0.0533444
-0.42238
-0.247249
-0.102277
row 7:0.533836
0.30779
0.384179
0.914941
-0.410574
-0.0807345
0.29002
0.0874333
-0.477478
-0.341355
-0.115659
-0.434498
0.179016
0.0862082
0.387888
-0.299301
0.000790739
-0.297037
0.459902
-0.169884
-1.2088
-0.11484
0.106741
0.418882
0.313933
-0.156086
0.558251
0.372824
-0.235382
-0.248638
-0.157959
-0.805987
row 8:-0.244541
0.146324
-2.58012
-1.4082
0.247464
0.0290404
0.0957875
0.214768
-0.462468
-0.695455
-0.0374652
-0.39565
0.0432278
-0.352704
0.0230539
0.14927
-0.1012
-0.237745
-0.931464
-0.822805
0.0606893
-0.203821
-0.000161091
0.0999183
-0.06439
-0.12422
0.107324
0.111653
-0.0452054
-0.165077
-0.413993
-0.29667
row 9:-0.121337
0.257854
-0.0665182
-0.0282419
-0.0729462
-0.118405
-0.206012
-0.20254
0.194244
0.0366543
-0.136435
0.221369
0.158676
-0.20036
-0.199025
-0.195742
-0.00833724
-0.0531268
-0.239951
-0.0985341
0.0784829
0.00672341
-0.0990508
0.0175134
0.115324
-0.221657
-0.0232095
0.29917
-0.115675
0.181737
0.0628654
-0.000468821
row 10:-1.02237
0.0658682
0.794944
-0.922128
0.224828
-0.181704
-1.34005
-0.0570948
-0.108781
-0.0502035
-0.140346
-0.29236
-0.0346035
-0.128697
-0.284878
-0.347391
2.7571
-0.185416
-0.142085
0.115869
-0.868039
-0.209409
0.0724841
-0.461897
1.47424
-0.362081
0.131342
-1.00393
-0.776546
-0.414683
-0.034565
-2.26492
row 11:0.0174139
0.243964
0.191789
0.0720665
0.0469613
-0.373569
-0.670002
0.131702
-0.291275
0.00842087
0.0956914
-0.0913928
0.886105
-0.346978
0.0438168
0.0147839
-0.22063
-0.233925
-0.113062
0.0637608
0.948539
0.962853
0.16573
0.00870221
-0.353856
0.206219
0.0505265
0.0125849
-2.52915
-0.168901
-0.312313
0.092096
row 12:-0.205616
0.144585
0.237829
0.0316621
-0.0370021
-0.117305
-0.182492
0.0465819
-0.000523806
-0.237733
-0.170796
0.275626
-0.258126
-0.164183
0.1669
-0.123752
-0.0775737
0.0359885
-0.196295
-0.0248653
-0.0343888
0.0844265
-0.199807
-0.128902
0.133678
0.030097
0.0046642
-0.233655
-0.290439
0.112586
0.0544095
-0.11097
row 13:0.185087
-0.037011
-0.0164947
-0.0616465
0.0606188
-0.0303531
0.116987
0.00929919
-0.122845
-0.153824
0.0866104
0.0828922
0.0216743
0.238199
0.213341
-0.0508445
0.110289
0.230373
-0.0798643
-0.08037
0.00832261
-0.0226521
-0.0611866
-0.0803239
0.0779399
-0.129772
-0.0307219
-0.0895168
0.262248
-0.223022
-0.117543
0.160555
row 14:0.168013
-0.219237
0.382181
1.07215
0.45044
-0.0660428
-0.00115249
-0.0337327
-0.328994
-0.270417
0.234603
-0.192251
-0.391081
-0.371065
-0.101563
-0.100036
-0.448921
-0.204281
-0.426234
0.827444
0.0821203
-0.29436
-0.276188
-0.198433
0.0873919
0.378108
-0.326485
0.00530879
0.0917085
-0.00975295
-0.549976
-0.779877
row 15:0.876551
-0.250598
-0.33293
-0.0381463
-0.799249
-0.236445
0.0617958
-2.27736
-0.0754836
-0.403505
-0.700384
-0.147547
0.572241
-0.224816
0.273691
-0.142312
-0.817724
-0.431658
-0.079381
-0.079242
-0.573304
0.237172
-0.81942
-0.442506
0.0525881
-1.0671
-1.25579
-0.140303
-0.630954
-0.281223
-0.498642
-1.9291
row 16:0.109352
0.0956282
0.172604
0.226225
-0.0203081
-0.208983
-0.00705817
0.31088
0.0397955
0.163173
0.02906
0.230187
0.0891597
-0.221059
-0.174703
0.191031
-0.224983
-0.0719015
0.0119718
0.148573
-0.267187
0.18775
-0.0437168
-0.163209
0.182544
0.0693462
-0.0447779
0.0678523
0.203879
0.228673
0.151428
-0.00548557
row 17:-0.150282
-0.144381
-0.0995749
-0.0733772
0.226761
0.20404
-0.0401284
0.105963
-0.239616
0.035766
0.0898292
-0.122952
-0.223214
-0.0223696
0.366492
-0.075623
-0.070971
-0.186482
-0.117919
0.280034
0.0776509
-0.194897
-0.0891095
0.355243
-0.13182
-0.188033
-0.197872
-0.100392
-0.0642651
-0.00900209
-0.166253
-0.0697679
row 18:0.255434
-1.48573
-0.30147
-3.26382
0.022456
-0.207139
0.0294411
-0.246796
-0.166977
0.16549
0.557232
-0.280912
-0.262589
-0.208809
0.0975884
-0.0012678
0.0731778
-0.315293
-0.0747432
-0.440524
0.0983579
-0.635507
-0.085385
0.167952
0.277974
-3.10762
-0.538303
-0.0211366
-0.271576
-0.0386594
-0.360209
-0.198886
row 19:-0.136974
-1.27071
-0.194103
0.238969
0.00886285
-0.171763
0.138752
-0.196659
-0.0422295
-0.256667
0.200414
-0.136353
0.127578
0.057271
-0.0210514
-0.150179
-0.242176
0.115906
-0.306547
-0.328135
0.15992
-0.38267
-0.0242251
0.105988
-0.15474
-2.25047
-0.749266
0.0768698
-0.306747
-0.165227
-0.426662
0.568706
row 20:-0.127199
0.061125
-0.016061
0.089429
-0.413246
-0.116736
-0.0108241
0.215352
0.0766976
0.166138
-0.0559848
0.27664
0.187976
-0.213687
-0.0998087
-0.0694084
0.247292
-0.156796
0.12472
-0.0107636
0.114549
-0.156216
0.0611029
0.138059
0.0812816
-0.304908
-0.197726
0.118246
-0.149991
-0.254669
-0.190186
0.00727602
row 21:-0.190521
-0.506363
0.252924
-0.549637
0.111692
0.000407467
0.0139114
-0.118241
0.0447476
-0.405718
0.0697509
-0.0575675
-0.23026
0.0164203
-0.155952
-0.0470016
-0.243852
-0.0618053
1.31132
0.0466568
-3.52011
-0.0997708
-0.220518
0.0963279
0.0680809
0.565833
0.0930359
-0.0737998
-0.0837018
-0.0354299
-0.379242
0.166775
row 22:0.0974073
-0.0254449
0.0298489
0.212316
-0.0938389
0.142555
-0.1361
-0.0531163
-0.00314317
-0.138766
-0.0489791
0.250173
0.0756023
0.13046
-0.0812614
0.290384
0.0373756
0.225945
0.0838242
0.0181989
-0.110076
-0.156775
0.00204032
0.104074
-0.0209996
-0.232308
-0.139633
-0.0595449
0.125567
0.0414946
-0.213498
0.251827
row 23:0.620513
0.0798846
0.0802742
-0.143563
-0.116376
-0.217816
0.565634
-0.370626
-0.207664
-0.601326
0.0251728
-0.118833
0.123044
-0.582622
0.320559
-0.0223491
-1.3124
-0.144525
0.171487
0.127984
-1.0915
-1.22404
-0.236527
0.11493
-0.555866
0.251983
-0.0186661
0.39884
-0.127589
-0.28397
-0.186976
-0.297081
row 24:-0.149864
-0.00796155
-0.197797
0.193453
-0.16167
-0.398744
-1.93684
-0.350191
-0.14347
-0.0939755
0.111107
-0.114392
-1.70865
-0.0186126
0.11098
-0.115214
0.479181
-0.454811
-0.79994
0.114491
-1.80717
0.830166
0.190597
0.0712812
-0.297961
0.361277
-0.219099
-0.0876468
0.664695
-0.46354
0.170647
-0.793327
row 25:0.64436
-1.47509
0.546364
0.509122
0.486282
0.0616892
-0.218623
-1.31671
-0.15335
-0.38067
0.0543272
-0.114434
-0.0548719
-0.133598
0.0650722
-0.132571
-0.2589
0.0644971
0.673048
0.0159603
-1.00441
0.143543
-0.534927
-0.0680056
-1.34323
0.718622
0.0604449
-0.321757
0.176477
-0.266201
-0.295519
-1.60781
row 26:0.11685
0.312957
-0.686064
0.332612
0.956937
-0.0933307
-0.554427
-0.52041
0.0813569
0.101212
-0.293893
0.0344924
-0.150051
-0.489383
-0.208947
0.69508
-0.16117
-0.183025
0.549683
-1.14651
1.62469
-0.505873
0.372402
0.400176
-0.62008
0.174351
0.141271
0.25454
0.378019
-0.306273
0.12935
0.238465
row 27:-0.277028
-0.391804
-0.00930914
0.0855459
0.130817
-0.257791
-0.532873
-0.0436313
0.0578873
-0.138088
-0.0436581
0.0790413
0.0879583
-0.181402
0.0821709
0.449464
-0.101766
-0.136601
0.0794657
-0.0262965
-0.130923
-0.074466
0.338577
0.0124693
-0.346174
0.0592842
0.0445447
0.104412
-0.239991
0.119507
-0.00489699
0.153499
row 28:-1.43957
-0.258278
0.423348
-1.1891
0.440625
-0.0401496
-0.161061
-0.282927
-0.234082
-0.316897
0.126332
-0.315504
-0.0888861
-0.0884639
-0.0426155
-1.13506
0.508205
0.0662693
0.326013
0.238004
-1.64728
0.463887
-0.994612
-0.195235
-1.05675
-0.0493499
0.0732954
0.0820716
0.244808
0.00962835
-0.0422263
-0.788515
row 29:-1.0189
0.499746
1.01655
-0.330543
1.20826
-0.0353793
-0.146223
0.980948
-0.340746
-0.579106
-0.0416154
-0.194319
-0.260795
-0.343436
0.0916984
-0.140922
-0.31545
-0.173066
-0.803003
0.228668
0.508203
0.302317
0.194675
-0.749244
-3.37783
-1.08579
0.324759
1.08873
-0.0266115
-0.0943809
0.0591925
1.09802
row 30:-0.326406
0.192723
-0.174052
-0.271404
0.544734
-0.0574019
0.240437
-0.116639
-0.328058
-0.114798
0.0455044
0.0734585
0.325421
-0.205721
-0.25809
0.172129
-0.822471
-0.297983
-0.0561666
0.314587
-0.017448
-0.57915
0.406075
-0.00156986
0.869672
0.221094
-0.339258
-0.0864713
-0.34913
-0.362986
-0.101689
0.0167542
row 31:0.633583
0.386578
0.64941
-0.65915
0.352319
-0.0917642
-0.0189012
-1.15914
-0.207986
-0.336024
-0.345618
-0.341394
0.231854
-0.0982028
0.284386
-0.336308
0.404098
0.20741
0.262858
-0.327762
-0.787025
0.19481
0.627972
-0.00237271
0.457351
0.486677
0.0670399
-0.109698
0.463553
-0.426185
-0.0546073
2.18777
row 32:0.124487
-1.04221
-0.0553395
-0.469985
0.505919
-0.139235
-0.795074
0.460929
-0.213853
-0.410031
-0.766908
0.271011
-3.72286
-0.0309444
-0.415963
0.217499
-0.606598
-0.306605
-0.508025
0.216689
-0.193686
-3.74264
-1.58178
-1.63721
-2.36277
-0.227282
-0.152828
-0.32345
-3.48002
0.0898433
-0.066959
-8.69157
row 33:-1.904
-6.75143
-0.452132
2.33441
-0.621384
-0.108314
0.245196
0.474353
-0.344497
-0.0683485
1.50327
0.105071
-2.6671
0.154691
-1.28474
0.274225
-2.37351
-0.0573661
-1.69799
0.623251
-0.635191
-0.918472
-4.01085
-2.48465
0.354596
-0.616316
-4.0221
-0.943203
-0.789436
-0.0300917
0.0212173
0.881404
row 34:1.14565
-0.0631892
-0.0808374
0.0872788
-0.181799
0.0158985
-8.71218
1.7449
-0.000980998
0.192568
-8.2778
-0.0559768
0.421159
-0.134223
3.62352
-6.95156
-0.174997
-0.46097
2.14397
0.179262
-0.328208
0.464222
0.962686
-0.230345
-1.29335
0.414649
1.17752
0.334209
-7.72719
-0.0844111
-0.0705881
-3.22769
row 35:0.212352
0.1834
0.218664
-0.0438388
0.244015
0.190212
-0.0980991
0.17063
-0.190115
-0.0970542
0.170716
0.209591
0.170186
-0.0556726
-0.13122
-0.0554138
0.0658548
-0.00368151
0.187548
0.180514
-0.042198
0.201877
-0.109459
0.238118
-0.187627
0.159064
-0.118845
0.23896
-0.0204431
0.108879
0.0553372
-0.0791023
row 36:-0.123951
0.33532
0.353998
0.165062
-0.310624
-0.309412
-0.0431661
0.276856
-0.552776
-0.610578
0.0393754
-0.62256
-0.00927302
-0.274017
0.191993
0.362398
0.129031
-0.353207
0.0977624
0.0472338
-2.22045
0.435527
-0.476267
0.239735
-0.802073
-0.182647
0.337741
0.0167406
0.552504
-0.184199
-0.399613
-0.121158
row 37:0.270784
0.205359
0.0304056
-0.200724
0.0324591
-0.0381079
-0.150627
-0.0688391
-0.0341983
0.179653
0.0993604
0.0940575
-0.268993
-0.0580425
0.0168976
-0.0199974
-0.0669806
0.0286936
0.0564954
-0.219242
0.0394173
-0.0985304
0.101237
-0.031342
-0.172788
0.0845152
-0.331299
0.325539
0.14389
-0.173177
-0.0912882
-0.218001
row 38:0.177519
-0.184715
0.0742265
-0.133592
-0.0624701
0.251118
-0.00397946
0.133165
-0.0794708
-0.0824147
-0.127121
-0.131451
0.104592
-0.0789256
0.177653
0.0782819
0.0782556
0.163611
-0.135522
-0.0408577
-0.144826
0.0939953
0.193741
0.00645189
0.026852
0.0979407
0.0513185
0.189202
-0.211252
-0.108458
-0.0888912
-0.0670893
row 39:0.0683195
-0.0268369
-0.246686
0.0143686
-0.266077
0.177706
-0.337034
0.0696017
0.238033
-0.0621216
-0.0278963
0.253749
-0.253057
0.186319
-0.0489291
-0.21567
-0.212357
0.00781875
-0.181389
0.0465181
0.177872
-0.0920181
0.416684
0.259706
0.157352
0.375538
0.118251
-0.1725
0.351152
0.0231795
-0.161053
0.12829
row 40:0.35065
-1.09948
-1.20405
-1.29329
-0.929476
0.0472865
-3.84529
0.213942
-0.410145
0.190934
0.508545
-0.01699
-3.56144
-0.244497
0.5618
-0.613397
-0.145544
-0.174927
-8.95562
0.591865
-0.475143
-2.15197
2.50115
0.0598213
-1.71282
-1.42548
-6.0716
0.466615
-0.419786
-0.302688
-0.324149
-6.69201
row 41:-0.2442
0.322059
-0.197583
-1.52256
0.0569546
-0.165852
-0.518728
0.067725
-0.374574
-0.00763065
0.00914606
-0.0885542
-0.398338
-0.130454
-0.56883
0.977045
-0.69239
-0.324488
-0.443256
0.107646
-0.532376
-0.0691105
0.690189
-0.18645
-1.39824
-0.386637
-0.136943
0.170842
-0.88489
-0.0740035
-0.0287024
-0.730947
row 42:0.0150992
0.253715
-0.317491
-1.02674
0.171513
-0.435711
-0.0526696
-0.372322
-0.141774
-0.323963
-0.075916
0.00416782
-0.418279
-0.423201
-0.647522
-0.416978
-0.361202
-0.295194
-0.332599
0.126444
-1.37748
0.179354
0.929726
-0.0200223
0.094903
0.0532889
-0.0335105
0.336185
-0.279273
-0.387617
-0.53903
0.0662162
row 43:-0.126673
0.291929
-0.116633
0.167773
-0.0385102
0.22907
-0.153339
-0.0630788
-0.223058
-0.0686347
-0.235877
0.0875459
0.18146
-0.119764
-0.00232996
-0.115743
-0.075188
0.112132
0.0379089
0.0787493
0.158265
0.183982
-0.288477
-0.27051
0.169368
-0.206066
0.0925291
0.264472
0.144958
-0.22856
0.00449237
-0.06101
row 44:-0.550159
-0.0415111
-0.676142
0.75348
-0.311601
-0.285118
-0.0337139
0.0748436
-0.489646
-0.107996
-0.0528656
-0.369623
0.231876
-0.431224
0.190323
-0.284222
0.447577
-0.604861
0.216508
-0.498345
-0.591532
0.0408568
0.0201856
0.290264
-0.0636835
0.249239
0.255421
0.0322399
0.0116737
-0.269347
-0.125546
0.155471
row 45:0.268519
0.153485
0.302542
-0.744797
0.0204722
-0.315906
0.0458418
-0.0944612
-0.215309
-0.281901
-0.142025
-0.599448
0.616171
-0.380234
0.340496
0.00888943
0.964402
-0.382196
0.0458515
0.0249622
-1.51316
-1.05721
0.417497
0.00584538
0.0888704
0.570806
-0.36977
0.363547
-0.177426
-0.427786
-0.719172
0.107818
row 46:-0.0460881
-0.251031
0.105684
-0.593598
0.152147
-0.0843517
-0.139369
-0.0393957
-0.236235
-0.299167
-0.00756847
-0.548528
-0.194409
-0.230468
-0.0936981
-0.0324147
-0.12914
-0.591393
1.19147
-0.201351
-1.82629
-0.0528521
0.127817
0.106978
0.133843
0.264929
0.0699987
-0.0236808
-0.0111965
-0.182823
-0.0856634
0.267429
row 47:-0.432585
-1.80979
-10.6151
1.06185
-0.379523
-0.35846
-0.0926582
0.439649
-0.328884
0.151079
-0.609732
-0.309979
-0.0194294
-0.266936
0.553063
-1.89537
0.973928
-0.189787
-8.07072
-3.00106
1.41681
0.450123
0.490977
-0.439432
1.221
-0.313144
-0.617214
-1.4123
-3.28388
-0.0660169
-0.128736
0.388679
row 48:0.555892
-0.162547
0.117242
0.347103
0.535309
-0.328574
-0.102323
0.100136
-0.282719
-0.242531
-0.0661234
-0.185942
0.0895362
-0.529508
-0.054511
-0.0990705
0.00891432
-0.190197
-0.214969
0.485816
-0.853711
-0.416714
0.0558296
-0.0382007
-0.280151
0.261139
-0.291485
-0.326912
-0.0185798
-0.356376
-0.213664
-0.148759
row 49:-0.0463254
-0.0504145
-0.057611
-0.19226
-0.128469
0.221017
-0.23494
0.189696
0.00749124
0.0129772
-0.0921306
-0.0948881
0.137791
-0.125091
0.0812748
0.226184
0.141288
0.0503176
-0.0587678
-0.0260583
-0.0185406
-0.0887343
0.210296
-0.163701
0.00944003
-0.0891695
-0.00731038
-0.105199
0.0356558
0.0102943
-0.181042
-0.100163
row 50:0.0324238
-0.254692
0.0792611
-0.176659
0.396114
-0.191741
-0.36769
-0.0805463
-0.0528498
-0.0531633
0.0504374
0.169471
0.0372715
-0.206146
0.00373122
0.245049
-0.219372
0.180145
-0.138823
0.118881
-0.2109
-0.167812
-0.260382
0.224828
-0.0870447
-0.205104
-0.0751658
-0.0281671
-0.0721477
-0.0671689
0.0980804
-0.117386
row 51:-0.225735
-0.32927
-0.450048
-1.81232
0.149454
-0.487745
0.149565
-0.465746
-0.61121
-0.285893
-5.42167
-0.612674
-8.40403
-0.0618946
-0.537091
-1.54514
-2.11645
-0.281332
-1.35304
-0.514261
-0.445317
0.0525989
-1.29582
-0.0919572
-0.362378
-4.98846
-0.410728
-0.390384
-1.05827
-0.756187
-0.465504
-1.66851
row 52:-0.221786
0.0323618
-0.0596511
0.176681
-0.268519
-0.107681
0.141476
-0.0599073
0.185953
0.0170116
-0.0532011
0.222051
-0.182398
0.215301
0.00829738
-0.153172
-0.219872
0.132262
-0.0285772
-0.292967
-0.243909
-0.128238
-0.272509
0.121246
0.0492776
0.124235
0.364213
0.121774
0.125404
0.135037
-0.178669
0.160215
row 53:0.000760656
0.261053
-0.450117
-1.53691
0.272589
-0.369285
-0.0466573
-0.105617
-0.225199
-0.633063
-0.061714
-0.446531
-0.557543
-0.233144
-0.601648
1.11495
-1.30096
-0.252375
-0.406974
0.166168
-0.251299
-0.655569
0.705359
-0.0608363
-0.142719
-0.225142
-0.024159
0.400353
-0.125197
-0.378049
0.0669238
-0.0149489
row 54:-0.0749321
-0.933336
-0.171558
-1.18616
-0.0577732
-0.165915
-0.0186595
0.243681
-0.2721
-0.2341
0.475285
0.0390756
-0.28084
0.0171615
-0.0120669
0.125616
-0.501613
-0.42697
-0.128008
0.118927
-1.80822
-0.454014
-0.0730368
-0.111669
-0.0322469
-2.95183
-0.0420529
0.162425
-0.219
-0.273613
-0.30867
-0.192988
row 55:-0.01952
0.212055
-0.0359182
0.203005
0.270614
-0.0602021
-0.12584
-0.158964
-0.0663644
-0.0159215
0.0532555
0.207626
0.0621598
-0.0714002
0.346233
-0.189477
0.141388
-0.205045
-0.15166
-0.191078
-0.0586578
0.126421
-0.460159
-0.162415
0.236802
0.0922013
0.229554
-0.128075
-0.195883
-0.021006
-0.194289
-0.124607
row 56:-0.398554
0.618013
-0.247134
-0.362653
-0.530728
-0.0729571
0.347143
-0.00733514
-0.379672
-0.169622
0.0379733
-0.22118
0.010358
-0.117537
0.517174
-0.511621
-0.0212216
-0.304318
-0.186885
-0.495291
-0.681979
0.0419987
-1.00267
-0.214276
-0.221315
0.515232
0.355779
-0.621984
0.477199
-0.118601
-0.311962
-0.37843
row 57:0.309726
-0.199691
0.335129
0.224499
0.159691
-0.163334
-0.281008
-0.0837907
-0.0405026
-0.431913
0.136577
-0.365376
0.044857
-0.392593
0.1192
-0.212449
0.316802
-0.583967
0.0858912
-0.478876
-0.998799
0.0538778
0.352366
0.173501
0.409128
-0.394687
0.145308
0.0123064
0.108697
-0.0877206
-0.554335
0.285293
row 58:-0.264751
0.106908
0.371571
0.0708937
-0.281438
-0.109441
0.843758
0.290158
-0.407716
-0.204348
0.351064
-0.215303
-1.30099
-0.234457
-0.125162
-0.00258282
-0.490027
-0.133466
-0.9104
0.0171264
-1.73928
-1.4954
0.248914
0.149246
-0.568353
0.181516
-0.434319
-0.622243
0.905193
-0.269418
-0.132981
-0.0245927
row 59:-0.0199949
0.0651108
-0.197825
0.143068
0.0647845
-0.145895
0.0547365
-0.275691
-0.147019
-0.180362
0.194848
0.108386
-0.0273135
-0.224631
-0.0284811
-0.0481753
-0.00677912
0.07593
-0.322964
0.223546
-0.258462
-0.098001
-0.239006
-0.187065
0.0827232
-0.00858769
-0.225325
0.03684
-0.0169469
-0.0678514
0.177605
0.0595776
row 60:-0.0256452
-0.0753977
-0.193079
0.180449
-0.161388
-0.151071
0.0678583
0.0203535
0.230359
-0.105144
0.131431
-0.0750315
-0.00844788
-0.0675742
-0.268191
0.0658903
-0.0380768
0.191682
0.0780688
-0.135217
-0.185666
0.272458
-0.00153285
-0.315062
0.230844
0.0252272
0.302045
0.164573
0.0631628
0.130971
-0.121726
-0.0564911
row 61:-0.78878
0.0895357
1.1444
-0.883226
0.596043
-0.2597
-0.229632
0.28577
-0.0572641
-0.18904
0.0805874
-0.219621
-0.856425
-0.128341
-0.133646
-0.246173
0.735076
-0.188492
-0.55468
-0.230145
-0.567554
-0.046984
0.0641066
-0.55788
0.303473
0.519418
0.253023
0.731074
-0.528152
-0.185761
-0.365536
-2.54271
row 62:-1.5534
-0.601805
-0.573444
0.0643876
0.356918
-0.0764271
0.469729
-0.660933
-0.0639029
-0.0203985
0.134325
-0.0217338
0.337765
-0.0788654
-0.256118
-0.191589
-2.28409
-0.393193
-1.37619
-0.625634
-1.80647
0.907087
-0.358112
0.100136
-1.90721
0.363157
-1.62949
-1.06823
-0.0422173
-0.0343803
-0.358027
-0.061694
row 63:-0.679892
-0.143769
-0.140531
-0.189478
0.48611
-0.230215
-0.210264
0.489851
-0.0684762
-0.166671
-0.0930118
-0.493742
1.37326
-0.239056
-0.121782
0.32794
-1.00686
0.0585813
0.116899
-0.25511
0.206649
0.854294
0.123829
-0.174902
0.34195
0.334976
0.192982
-0.00411869
1.39125
-0.20824
-0.435563
0.148283
