row 0:0.807546
6.37572
-0.00285994
1.49483
-3.37792
-0.0142869
-0.67989
0.932161
0.664527
-0.0219246
2.28936
-1.19736
-0.00907906
0.0537667
3.32653
-0.436551
0.0505853
-0.158319
-1.0467
-0.262321
-0.168776
-0.864708
-0.120855
1.88812
-0.891671
2.07886
-1.28947
-0.13206
1.10416
-1.73069
0.365904
-0.902341
-8.61602
1.41235
1.76042
-0.0462845
1.05661
-0.137251
-0.0189157
-0.0687365
-1.64918
-0.633339
-0.00174378
-0.3149
-0.196101
-0.0837024
0.236566
-0.0514637
-3.74664
-0.0113876
-0.192552
-2.29435
-0.168037
-2.84978
2.03566
-0.104428
1.09489
-0.495918
1.57739
-0.0868643
-0.0405155
-4.69842
-0.152215
2.06675
row 1:0.0188048
1.77388
0.0343161
0.962986
0.019592
-0.60916
-1.06539
-0.461447
0.257904
-0.17117
0.714314
-0.116416
-0.0916727
0.0598857
1.34949
0.686756
-0.0936065
-0.172517
-1.70311
0.407055
-0.276609
-1.26813
-0.0632927
-0.981593
5.32935
-0.692424
1.79081
-0.237035
0.74918
-0.434643
-10.2706
0.819036
-1.01902
-1.77816
-3.52681
0.0722016
2.84815
-0.16728
-0.144379
0.365655
0.789699
3.27046
-0.994001
-0.139585
-0.164349
-0.42745
-1.93748
-3.31635
1.0959
-0.17313
-0.217753
-1.48663
-0.247711
-0.919895
1.47846
-0.260329
-0.631944
-0.515081
-1.28752
-0.0924135
-0.0843811
0.342558
-2.39212
-7.67479
row 2:-0.643049
-0.369833
-0.0931549
0.074667
-0.327953
0.399802
0.381881
-0.20766
1.26717
-0.145367
1.0157
0.135081
0.0810342
-0.160008
-2.21733
-2.26942
0.0328624
-0.0195394
0.0963844
-0.543552
0.00878517
-0.813064
-0.068777
-0.837652
0.416472
-2.42057
1.75335
-0.252885
-0.316564
0.243404
-0.870971
0.523426
-0.871358
-12.9414
-0.981749
0.0237918
0.339951
-0.0223036
-0.0426989
0.00395807
-1.01969
-0.0411748
0.760894
-0.10903
1.61521
-0.202314
1.47238
-1.5828
-1.29656
-0.0778949
-0.144172
0.20923
0.0501537
0.473106
-0.111397
-0.0580442
0.757516
2.91078
-0.336337
-0.110322
-0.0743405
-1.93002
0.354176
1.01419
row 3:2.03268
-6.44597
-0.139386
3.38122
-2.66506
-0.855108
0.971515
1.84814
-0.650534
0.0767646
0.606081
-0.331118
0.0226572
0.00186785
-1.01056
3.97217
-0.0431675
-0.225312
-0.726265
-0.331373
-0.245185
-0.455146
-0.116382
2.96512
-0.635376
1.0714
1.17694
-0.402069
-0.0136702
2.67392
0.307851
-0.477872
4.18018
1.25075
0.736076
0.00274658
0.812301
-0.237758
0.0343688
-0.0955286
2.2013
-0.710774
-0.536006
-0.17105
-1.14095
1.67666
-0.0517833
-0.0989639
2.49333
-0.144816
-0.170478
-0.993892
-0.136593
-3.37871
0.91252
-0.208548
1.21626
0.544411
0.635487
-0.164358
-0.0463084
3.9004
-0.102126
1.56092
row 4:-0.291673
0.565636
-0.0372592
0.323755
-0.824885
0.956867
-0.996259
-0.400543
0.190499
0.0616859
-3.42281
-0.24299
-0.0138335
0.00687644
-1.17654
-4.02868
-0.105588
-0.291124
-0.235767
-0.0788014
-0.0902092
-0.304331
-0.0705679
-0.572878
0.0630913
-1.0343
-0.497269
-0.133973
0.33253
-1.30686
0.287865
-1.02716
-0.6734
-7.85407
-5.2151
-0.0373764
0.480797
-0.0652947
-0.017072
0.165747
-10.5871
-0.561349
1.42885
-0.0932044
2.27326
-0.0384506
-0.978104
-0.166103
0.473547
-0.0951717
-0.0556101
-0.381569
-0.297142
0.359865
0.776402
-0.168102
0.436778
-0.485456
0.670284
0.038596
-0.0373716
-1.39236
0.145892
0.34331
row 5:-1.021
-1.39077
-0.186465
1.65996
0.827397
2.86795
1.89426
0.757198
1.31716
-0.0508491
-0.476835
5.10409
-0.0374844
0.0661035
-0.590306
-0.658112
-0.0338001
0.0637589
-1.49607
0.76646
-0.00347193
-0.0892277
-0.189706
-1.31259
1.01351
-0.160615
-2.10479
0.0295137
1.63083
0.870101
1.02328
-0.533669
-0.609212
2.10313
2.58756
-0.0688686
1.21521
0.041517
0.0444252
-0.0454284
-0.159395
0.634516
1.26817
-0.323405
-0.405944
1.9608
0.8488
1.75728
-0.895584
0.0536839
0.19172
0.557034
0.0393974
-1.41487
1.76922
-0.29272
0.282559
0.107329
-3.39162
0.0670825
-0.134175
0.00642951
2.00446
-1.56558
row 6:1.72225
1.34978
-0.00935931
1.20497
-4.39256
-2.72528
-0.996531
0.879673
1.47243
-0.114952
-1.65995
3.15018
0.0176911
0.0128292
-1.83564
-0.923278
0.0563381
-0.0305868
-2.15712
-0.370195
0.00819426
-0.111373
-0.00892468
-1.98897
0.567015
1.17042
0.394124
-0.0910542
-0.118504
-1.048
0.870214
-3.36674
-1.41599
1.55008
7.45402
0.073779
-0.726307
0.0451634
-0.0334707
-0.0284224
-1.77677
-2.17031
-0.610687
-0.237378
0.574158
-0.14178
1.62795
-0.93891
0.423507
-0.139372
-0.0722929
0.221389
0.16639
1.02252
-0.39777
-0.194819
0.385881
-2.04871
-2.92692
-0.0136262
-0.141943
0.969451
0.870011
1.06969
row 7:0.355914
-0.356042
-0.0327667
-0.229104
3.80326
-3.54165
-1.9912
0.747173
0.49192
0.0134944
-0.518808
-1.06093
-0.107139
-0.0980384
0.918746
-0.0423266
0.115749
0.199876
1.35633
3.12385
-0.0449153
0.943487
0.180398
1.88214
0.939149
-3.40366
-1.29201
-0.145652
-0.775358
-0.841742
-1.14511
-4.20937
1.59161
0.615109
2.23929
-0.0582085
-0.503519
-0.00907876
0.0415187
0.0765779
-0.164494
0.640528
0.428909
-0.300306
-0.503239
-1.82833
0.0542029
2.25427
-0.191053
0.00325012
-0.110773
-0.739775
-0.257148
-0.802645
3.3126
0.177185
-1.74717
2.95829
1.08206
-0.0311379
-0.0719991
-0.204191
1.11495
-0.854631
row 8:0.123715
-0.208546
-0.15104
-3.60083
-1.1499
0.406237
1.19354
0.623198
-0.128144
-0.072545
-1.15189
-1.57539
-0.0253479
0.0568123
-1.46452
-0.296624
0.0538997
-0.194349
-0.381004
-0.403798
-0.129278
-1.62454
-0.0209719
-1.19468
3.33067
2.33859
-0.816791
-0.131085
1.58341
-0.906632
1.03773
-0.150219
0.429528
1.06502
2.45196
-0.0577932
0.0557587
-0.0614789
-0.151588
-0.207302
0.411865
-7.35116
4.23427
-0.159402
0.23684
1.50159
2.09839
-1.63597
-0.855013
0.0691495
0.00728125
0.384069
0.0726696
4.86276
0.229732
-0.191899
-0.416587
1.2301
0.847101
0.0490941
0.00656065
0.312357
-1.45595
-3.35051
row 9:3.15554
-2.24781
-0.0716804
1.20544
0.417706
1.02689
-0.507908
0.655523
-1.49154
0.105777
-0.433406
-0.531584
-0.0824243
0.021792
-0.961602
0.176455
0.0670327
0.145613
-0.213369
-0.275738
-0.0706869
6.01186
0.00390207
0.508184
-0.640526
3.15803
0.528444
0.184207
3.7878
-1.34273
-0.793098
-0.221824
0.0458045
0.11434
-0.802474
-0.0627028
0.989566
-0.142055
-0.0380774
-0.270066
-0.593334
-0.327156
-0.840445
-0.218254
1.17353
0.307818
-5.71185
-0.812885
0.741115
-0.0624708
-0.147288
0.184497
-0.0569561
-0.772656
0.867611
-0.325897
1.11996
1.7296
-1.57313
-0.0410309
-0.163392
0.70387
-0.00311553
-0.116557
row 10:-0.306446
-0.837554
-0.0790493
-0.571998
0.272848
-1.66986
0.850107
0.948552
-1.03593
0.0552508
-0.826552
0.315096
-0.083722
-0.0503864
-2.84891
0.298064
-0.0073954
-0.0531397
-0.242915
-0.258246
0.0431325
0.371093
-0.189559
-0.113413
0.360767
0.188967
2.37565
-0.431003
1.20194
2.7483
0.306845
-0.215335
-1.8449
-20.2802
1.18886
-0.0335522
-0.255807
0.0568089
-0.0545039
0.177345
0.41353
-0.57418
-1.09458
-0.0489922
-0.944063
0.961398
0.324706
0.430077
-1.60108
-0.0656272
-0.122315
-0.118205
-0.0272364
0.435549
0.609636
-0.162416
0.206998
-0.318287
0.623344
-0.132055
-0.0659226
-2.9639
-0.0517467
0.402141
row 11:0.107454
-1.19478
0.0527234
-0.385765
-0.544451
7.84367e-05
-0.477187
0.142138
1.72193
-0.158673
-1.5735
-0.308488
-0.112312
-0.0876369
-1.67951
-4.10376
0.0100969
0.249148
0.308322
-0.19974
-0.0164942
0.293444
-0.116411
-0.205282
-0.348099
-0.869596
0.941455
-0.157305
0.526513
0.405367
-0.330402
-0.410485
-0.119636
-2.66945
-6.02714
0.00202437
1.01498
-0.132384
0.0391988
-0.165182
-9.65672
0.343525
-0.966378
-0.0446459
0.297385
0.497994
0.121202
0.821652
-0.291635
-0.105994
0.0232903
0.970105
0.149133
0.784894
0.905716
-0.162955
0.590192
-0.0313263
-0.04374
-0.0623047
-0.13346
-2.35166
0.206047
0.345911
row 12:0.0193193
0.0210668
-0.0799421
-0.105319
-0.0832515
0.0210162
-0.0536928
0.0446908
-0.0312883
0.122297
0.0456526
-0.104441
0.0743541
-0.0989657
-0.0273903
-0.044279
-0.0893953
0.0492055
0.0992653
-0.0417911
0.117597
0.047931
-0.0221108
-0.00248487
-0.113441
-0.0722203
0.109794
0.0647188
0.042079
0.124328
-0.108224
0.0345035
0.0128877
0.0449798
0.0494425
0.0580011
-0.048801
0.102376
0.00177139
0.0714936
0.010975
-0.0511295
0.0525986
0.108975
0.0240186
-0.0812573
0.0749593
-0.00311483
-0.129928
0.0361845
0.0317537
-0.000531952
0.0858797
0.0606672
-0.0962105
0.0809837
-0.0842842
-0.0450619
0.101424
-0.0159416
-0.0507856
0.105516
0.118939
0.0869756
row 13:-0.3917
-1.36534
-0.0319118
1.66149
-3.57564
0.879763
-1.59484
1.12959
2.37028
-0.0611626
-2.65466
0.969322
-0.110067
-0.0367142
-1.83364
-2.75632
-0.0160507
-0.308749
0.0125062
-1.3619
-0.207646
0.303629
-0.0625831
0.706692
0.900599
-2.48181
-0.329108
-0.090528
0.180086
-1.31957
1.27206
-1.21213
-0.222722
-0.25512
0.284534
-0.0655426
0.124578
-0.0745518
-0.125
-0.178923
0.541246
0.828245
-0.497314
-0.214391
1.19469
-1.15534
-0.297816
0.096752
0.254791
0.00419312
0.0280739
-0.21577
-0.103456
-2.37397
3.59739
-0.251837
0.104286
1.89932
3.53114
0.063
-0.103945
0.875154
2.25464
0.439505
row 14:-0.837788
0.889041
0.145264
-1.52812
8.19734
-3.12931
-0.177819
-0.927982
0.59536
-0.0627844
-1.30155
1.9103
0.0286769
-0.102767
2.08726
0.40142
0.0258222
-0.370302
2.05137
4.46441
-0.187504
1.04738
0.0573666
-0.904278
-0.243787
-0.978281
2.84451
-0.208868
-0.50182
1.08338
1.38766
3.67291
1.35709
7.15697
-2.58496
0.0820585
0.340721
-0.134203
0.00360508
0.129833
1.09513
0.710887
0.034307
-0.00618081
-0.229071
1.069
1.62073
-4.8097
-0.195654
-0.0990904
-0.136566
-0.463401
-0.134279
-0.641539
5.20961
-0.141677
-1.75644
1.87767
1.72208
0.0359384
-0.122678
-0.873659
2.69525
-1.41888
row 15:-3.41978
0.840891
-0.108138
-9.40442
-2.62065
0.739888
0.349771
1.18231
0.392358
-0.249141
-0.274731
2.03961
-0.0657623
-0.0900969
1.19919
0.400814
-0.0387239
-0.0656825
-0.483931
-1.18507
-0.0459858
2.24407
0.00489282
1.56906
-1.05376
1.36808
1.30628
-0.147786
-0.128422
0.187233
-0.743585
-1.67037
-2.06935
-0.166093
-1.63893
-0.0357479
0.0101245
-0.123937
-0.112698
-0.125411
0.668649
4.3293
-5.84211
-0.136896
0.223798
-0.728526
1.4855
-2.56388
0.130371
-0.0695773
-0.150008
-1.17758
-0.289854
3.00982
2.41796
-0.167677
0.353114
0.262128
0.322543
-0.091194
-0.197959
0.493168
2.50031
2.22285
row 16:-1.28074
2.29744
-0.098309
0.736123
-1.40865
-0.755288
-0.0547575
0.158859
-0.666602
0.0866948
-1.16605
-0.702153
0.0132777
-0.142873
1.57716
0.282327
-0.0955687
-0.139031
-0.141119
0.0701215
-0.249688
0.930515
-0.127869
0.361
-0.236295
2.08418
0.842843
-0.00726508
0.875051
-0.738604
-0.133019
-0.653925
-1.8965
1.01828
1.15295
-0.140843
0.427285
-0.134118
-0.199661
-0.189391
-0.0223675
-0.821676
-0.538672
-0.110585
0.514324
-0.166621
0.768475
-1.5395
-1.22821
-0.0359132
-0.0695462
-0.149728
-0.163489
-1.15776
0.792347
-0.268081
0.272658
0.66771
0.282214
-0.0276383
-0.163697
-1.85189
0.442528
1.12555
row 17:0.475788
-0.335217
-0.123042
1.16293
-0.665356
0.321354
1.05603
-0.555744
0.574066
0.0141523
0.491594
-0.250056
-0.173185
-0.0867085
1.1137
-0.125934
0.022378
-0.251746
0.774883
-0.888714
-0.264456
-1.59093
-0.0272803
-0.525416
0.45853
-1.08866
0.128411
-0.274941
1.23959
0.0640598
-2.85467
-0.586741
0.586767
-1.99124
-3.34886
-0.0544975
1.45142
-0.0217047
-0.0304358
-0.0410752
0.655689
1.01599
-0.34476
0.0655045
-0.336984
1.54366
0.383974
1.52918
-0.532863
-0.0453642
0.249667
0.152215
-0.182687
0.0387754
1.56749
-0.192031
0.53797
0.753793
-0.180149
0.0664665
-0.154189
0.581983
1.25664
-2.30538
row 18:-2.00537
-1.79234
-0.0496036
0.440308
-0.0432812
0.0862738
0.610159
0.184699
-0.547858
-0.0177211
1.70577
0.0369414
-0.0602889
0.00524044
-0.0214831
0.240887
0.0341927
-0.202469
0.549889
0.00719773
-0.153993
0.676765
-0.143063
0.523271
0.330511
-0.450225
-1.29399
-0.163849
-0.597165
0.673408
1.01556
1.06955
0.841618
-6.41682
-0.445032
0.0979157
0.672625
-0.0779215
-0.16968
0.0571304
0.836056
1.24378
-0.535528
-0.174489
-0.135616
-0.223763
-0.631548
0.578469
-0.271877
-0.163846
0.179677
0.27944
-0.241365
0.35632
0.147423
0.0495795
-0.768741
-0.500179
-0.172512
-0.19417
-0.157486
-0.354483
-0.0798572
-0.90363
row 19:-1.72965
-1.47038
0.0290458
1.00902
-1.6933
-0.650988
0.212706
0.522104
-0.121041
-0.0488072
1.22923
-0.685977
-0.184249
0.0293336
-0.595718
0.627993
-0.0189959
-0.188623
-0.691802
-0.896454
-0.158064
0.994676
-0.0179779
-0.118941
-0.168069
1.16827
0.229426
-0.146513
0.688079
0.851766
0.0583631
-1.17166
1.15038
0.957919
0.576879
-0.0535706
-0.0814621
-0.168151
0.0921098
-0.263279
0.103453
-0.1043
-0.426911
-0.156394
-0.0569615
0.274374
2.20301
-0.0908004
1.21212
0.0394753
-0.204156
0.17867
-0.183819
-2.59069
1.40283
-0.49248
1.21129
0.324428
1.31157
0.0253239
-0.0113544
1.50902
0.675771
1.44042
row 20:0.13342
-0.376133
-0.0548899
0.687403
-0.783341
0.301034
0.260087
-0.364182
1.69394
-0.123583
-2.54219
-0.249268
0.0146247
-0.0691316
-0.384502
-2.71048
0.047714
0.0806786
0.00581407
-0.397001
-0.065038
-0.922505
-0.164995
0.120416
-0.196139
-0.44268
-1.86923
0.0783494
2.07045
1.37385
-0.590006
0.644041
-1.84468
-6.459
2.99443
0.0813205
-0.0759059
0.0527745
-0.134242
0.0826082
-9.66857
1.19908
0.259981
-0.0435008
1.20912
-1.18958
0.364431
-0.764689
0.0645969
0.0208707
-0.0363911
-0.450702
-0.273209
-0.0264264
1.17098
-0.213154
0.123197
1.19774
0.398793
0.0211409
-0.0925694
-0.997891
0.141654
-0.00319334
row 21:-1.12815
-0.211725
-0.0104188
-0.929255
-3.11187
2.88197
0.193129
-0.377578
-0.554945
0.0567103
0.205055
1.42901
-0.0313406
0.0297899
-1.46144
-0.795724
-0.0343861
0.183546
-0.431198
1.122
-0.0402935
-0.80284
-0.0380486
-0.58401
0.514844
-0.445922
-0.975327
-0.0296198
-0.484304
-0.451801
1.51166
0.145381
0.33878
1.63271
-0.146262
-0.0158804
0.69458
-0.0151036
-0.0714715
0.152626
0.15705
-2.18537
-0.157022
-0.249107
-0.382716
0.915961
-0.539907
-2.86483
-0.539245
-0.0744555
0.130668
-0.93826
-0.226438
0.558286
2.15434
-0.203704
-0.496274
0.831303
-1.52395
-0.125392
-0.0493472
-0.895948
-0.0888868
-0.205385
row 22:1.08529
-0.57895
-0.17589
0.0167451
0.56829
-1.11106
-0.125311
-0.633735
-1.71289
-0.0079164
-1.69831
4.82077
-0.0318805
0.0170302
-0.933311
-1.12918
-0.134201
-0.260233
0.343441
-2.02037
0.00130347
-0.681224
-0.142101
-0.848436
-1.50202
-1.35096
-4.06406
-0.0730504
-1.3168
0.151116
2.24194
0.0322592
0.397972
-0.296222
0.693128
0.0465195
0.6968
0.0673567
0.0684759
0.138029
-0.680512
1.19192
0.329076
-0.0770236
-0.478284
-0.670839
-1.89338
-0.950021
0.241174
-0.106355
-0.195469
0.125846
0.171289
-2.47747
0.0399914
-0.0232096
1.61111
-0.745458
-2.05666
-0.0155217
-0.132784
1.58571
0.3972
-0.415744
row 23:0.304306
-1.27571
-0.129407
0.938381
2.39594
-2.34085
-0.901411
0.0898458
0.454431
-0.100376
-1.67299
1.0265
-0.106863
-0.00321232
0.0771748
0.21013
0.0661834
0.00485916
0.324027
1.88854
-0.0539257
-1.14134
0.0568311
0.787318
0.0786721
-1.75259
-0.204963
0.178858
1.9901
-0.927834
-0.753213
-2.07258
-1.11186
-4.23283
-1.2022
-0.0432105
1.0697
0.0149134
-0.12195
-0.185669
-0.160006
-0.618964
-0.0790591
-0.316405
-0.0169872
2.0145
1.03744
-1.09119
0.547942
-0.104079
-0.145173
-0.0636106
-0.257723
-0.225661
3.64455
-0.0972018
-1.23863
-0.106603
2.319
0.0515412
-0.00224836
1.3648
0.545641
0.00135599
row 24:-1.83001
-1.48439
0.000293592
-1.43878
-1.8042
0.409765
-0.0886817
1.1798
0.24145
-0.104692
0.658558
-0.876609
-0.135975
-0.125732
0.0877035
-0.343638
-0.103444
-0.208369
0.219448
-0.493591
-0.284904
2.92679
0.0129356
-0.52656
1.43713
0.00861766
-1.83058
-0.271082
0.253345
0.283008
0.267977
-0.46738
0.144924
1.28534
1.91346
0.00062012
-0.680681
0.0242047
-0.0369388
-0.215069
-0.606154
-2.85744
1.20035
-0.182816
-0.693885
-0.586917
0.797005
-0.457686
0.00693859
-0.0169994
-0.00743409
-0.369428
0.0074085
1.66022
1.8448
-0.152931
0.738764
1.34484
-0.0882413
-0.165734
-0.0460395
-1.2168
-0.304006
-1.47784
row 25:3.69081
0.251501
-0.0750585
-1.08088
0.680243
0.641903
0.725525
0.186056
-0.845111
-0.0172584
1.55335
0.439768
-0.203163
0.00786785
-0.294433
0.330116
-0.14208
-0.400301
-0.540234
-0.568879
-0.188302
-4.6324
0.00132584
0.779377
-1.0464
0.0440993
-1.58729
0.114862
1.98188
-1.17409
0.416274
1.02454
0.200348
-0.241253
-0.0256067
0.0473699
0.211155
-0.0541736
0.0298226
-0.257645
0.114166
1.01141
-1.01791
-0.179145
-0.345941
-0.16608
2.37883
0.58852
0.413124
-0.0708734
-0.168975
-0.423291
-0.168927
1.18927
1.51708
-0.189118
-0.237343
0.841702
-1.06448
-0.140477
-0.112891
0.536948
0.470131
0.0329837
row 26:0.487787
0.109994
0.0361744
0.724346
0.304162
0.34833
-0.447089
-0.168826
1.52581
-0.0849433
0.704983
0.0584731
0.133067
-0.00385943
-0.201859
0.434238
0.00470531
0.0689325
0.207551
-0.377787
-0.0314338
-0.25845
-0.0943528
0.283741
-0.230015
-0.414033
-0.0343874
-0.38293
0.131307
1.50413
-0.812065
-0.630634
1.20624
-6.01108
1.50437
-0.114689
0.225178
-0.146323
-0.0679638
0.113761
0.842467
-0.590371
0.330857
0.00447244
0.18178
0.466462
0.337159
-1.91546
-0.286318
0.0968881
-0.0493451
1.61722
-0.173838
-0.133369
-0.691188
-0.317754
-0.32872
-0.149573
0.018045
0.0239372
-0.162092
1.05978
0.224449
0.0706232
row 27:-0.402765
-0.818582
-0.0240431
0.270762
-0.936525
-0.159049
1.074
0.17842
0.661517
-0.0654243
-3.18666
0.305464
-0.0831083
-0.0488985
-0.270059
-1.21123
-0.0277198
0.0269315
-0.48705
0.00466925
-0.0773024
-0.256162
0.0574212
-0.182843
-0.133542
0.301647
-0.394871
-0.404283
0.893043
0.0942843
0.860947
0.514385
-1.19429
-1.75506
-4.89744
-0.0874688
0.127582
-0.0793942
-0.0587935
0.132867
-5.83542
0.623734
-0.446227
-0.00725042
0.328719
-2.20717
-0.147248
3.0554
-0.596001
-0.00962319
-0.0657091
-0.103098
0.239636
-0.120518
1.34772
-0.339848
0.420533
0.297324
0.879788
-0.0927563
-0.0994491
-0.347318
0.292701
0.13773
row 28:-0.0702119
-0.00557871
-0.0215773
0.0346026
0.0527614
0.0448249
-0.0909103
0.054913
0.0798087
-0.077222
0.103215
0.0424116
-0.0417115
-0.0183904
-0.0223917
-0.0852524
0.0402478
0.0835912
-0.0646342
-0.0899153
0.086872
0.0184109
0.0175686
0.0897018
-0.0424268
0.0813181
0.0223225
-0.0961211
-0.0307952
0.0434985
-0.0440276
0.10803
-0.0313132
-0.0311825
0.10217
0.05834
0.106878
-0.0178223
-0.110004
0.0351463
0.0162171
0.0231046
-0.0433501
0.118225
0.096955
-0.0533163
0.0992413
-0.0368374
-0.0656526
0.0974499
-0.0603451
-0.00172864
-0.118824
0.0336242
-0.0666824
-0.118633
0.00177968
0.0251857
0.0701859
-0.00203084
-0.0112305
-0.0634382
-0.0592055
-0.0182755
row 29:0.582598
0.182183
0.0362928
0.148524
-0.830396
0.530156
0.398476
0.272254
0.946407
0.0143607
-0.829677
1.4491
0.0341835
0.125951
1.13736
-0.978157
-0.0539541
-0.163092
-0.104828
-1.23823
-0.181958
-1.20544
-0.226376
1.05642
1.01871
-0.452187
-2.13665
-0.149355
0.567477
-0.913226
-0.0796775
0.69817
-0.279651
0.491431
0.504453
-0.04721
-1.4422
-0.186527
-0.000267804
-0.279907
0.860113
0.677844
0.26839
-0.107586
0.294822
-1.19671
0.925635
-0.228264
-0.828044
-0.0867602
0.243198
0.169728
-0.0960316
-1.40422
1.8051
-0.269183
0.826553
1.83911
1.89552
-0.0851521
0.0308041
0.0435682
0.889602
-0.514706
row 30:-0.321994
-2.38394
-0.0580316
-0.755073
0.531857
0.953804
1.46606
-0.55
-1.02558
0.036233
1.30619
-0.334333
-0.0148214
-0.0610527
-0.340324
0.514619
0.010877
-0.241146
2.13032
2.03543
-0.120515
-0.0904142
-0.137026
0.771947
0.268406
-2.37775
-2.09496
-0.129999
1.47515
-1.23744
0.385948
-0.418273
0.455839
0.127787
0.332649
0.031753
0.375501
-0.0759642
-0.0829074
0.177819
1.17937
-1.1289
0.884619
0.187177
-1.35127
-2.08882
-2.15115
-1.53809
-0.356551
-0.081002
0.21268
0.0366746
-0.131532
-1.10699
-0.715034
0.0468226
-0.609004
-2.13152
-0.131965
0.0835918
0.0929858
0.589497
-0.0109353
-1.18942
row 31:2.29462
0.165696
-0.159984
-0.674946
-2.90612
-0.0251238
-0.173518
0.562716
0.763666
-0.0642606
-0.255416
1.52799
-0.0475596
0.0502907
0.181401
1.0825
0.120825
0.0294114
-0.0912089
-0.689409
-0.193217
-0.191848
-0.149474
0.0340984
0.109636
-2.83929
-0.439039
-0.0134513
-0.882272
-1.6015
0.115049
0.0988961
0.76848
-0.574713
-0.464683
-0.0194441
0.665773
-0.128528
0.0949558
-0.293703
0.269689
-0.563367
0.622754
0.118528
0.52388
0.828153
-2.67925
-0.325706
-0.232403
-0.0114907
-0.218439
-0.807531
-0.147047
1.63372
1.7961
-0.336903
0.676062
-0.115866
1.131
-0.107579
-0.0356928
-0.126764
1.00168
0.993695
row 32:-0.955353
1.9923
-0.00189289
-1.07603
0.754134
-1.13718
0.41513
0.439228
-1.05135
-0.140155
-1.50888
-0.0616289
0.0543387
-0.0804642
1.86546
1.0386
0.0203989
-0.352625
0.135009
-1.23484
-0.234088
1.01463
-0.125647
-0.0624642
-0.168104
0.494996
0.326756
-0.17728
-0.298418
1.03716
0.282904
0.195092
-1.17279
0.525312
0.850713
0.0255712
-0.917465
-0.0928118
-0.154233
-0.101032
0.75378
0.283124
-0.465913
-0.154231
-0.365346
0.832793
-0.282896
0.131885
-0.904718
-0.133389
-0.0817307
-0.389566
-0.167999
-0.509722
0.64116
-0.259164
0.00383781
-0.750143
0.0454648
-0.149513
-0.0557658
-1.64387
-0.315996
0.552368
row 33:-1.51165
0.221998
0.0155675
0.563891
-3.10887
2.03581
-0.256634
0.452526
0.470141
-0.191764
-1.44553
-0.6677
-0.169913
-0.0853255
2.24002
1.36358
0.015941
-0.34531
0.187612
0.412301
-0.276321
0.329448
0.00172211
-1.07907
1.88138
1.4012
0.714673
-0.169987
-0.211166
0.804369
-6.2298
-0.00614639
-1.52169
-0.170618
-2.45271
-0.00120252
0.226522
-0.153861
-0.136505
-0.140932
-1.00997
-0.123091
-0.560931
-0.0425892
-1.46897
0.0208629
2.10275
-2.41213
0.181513
-0.0380877
0.0331521
-1.02145
-0.285403
0.0666789
2.06476
0.0238345
1.08402
1.17152
-2.08546
-0.0117667
0.00266776
-1.34871
-0.870872
-4.50994
row 34:0.561647
0.340721
-0.0800993
0.302788
-1.43664
-0.72927
1.05976
0.993866
0.0854021
-0.0141778
0.437128
-0.105125
-0.143515
-0.0864329
-2.73483
-1.38098
-0.155816
-0.167798
-0.213373
0.0524869
-0.330298
0.908973
-0.114369
-1.13572
-0.461007
-1.00255
0.782654
-0.23095
-0.907576
1.77417
-1.01
-0.909328
-2.85978
-2.51749
-4.45209
0.0272403
0.0551511
-0.129859
0.00782208
0.0908614
-0.555392
0.357661
0.747067
-0.0136218
1.38901
2.93474
-2.02832
1.62868
-0.508695
0.0126776
-0.00303538
1.23164
-0.0610276
-0.217297
-0.278891
-0.0609539
0.400199
1.19626
-0.237506
-0.0799725
-0.0471991
-1.2158
0.658867
-0.346247
row 35:-0.587284
-0.56228
0.00180813
0.688661
-1.44275
-1.26063
0.799788
0.242682
0.587786
-0.0507222
0.94228
-0.487973
-0.142163
-0.0167151
0.811101
-0.670744
-0.0501473
-0.346788
-0.62466
-0.639812
-0.214823
1.07893
-0.0191978
-0.270794
-0.589446
0.336424
-0.383187
-0.33382
0.0326765
0.0560047
0.353298
0.92154
0.961003
0.670324
0.300764
-0.0143423
0.679747
-0.248055
-0.142933
-0.165058
-1.10058
0.0712134
-0.109873
-0.241288
0.141911
0.536896
0.00261697
-1.13513
0.131569
-0.184601
-0.0686231
-1.10993
-0.238609
-1.32657
1.41919
-0.453753
0.222735
0.15617
0.583566
-0.0882233
-0.00323747
-0.577714
0.523024
0.915851
row 36:-1.24087
-0.833162
-0.0745166
0.118084
-0.446556
-0.0996233
0.217158
0.435681
1.01889
0.0767634
-2.80239
-0.196209
-0.11831
-0.0988328
0.477194
-4.40462
-0.141447
-0.165526
0.00055192
0.0043407
-0.0792904
0.0429883
-0.0624923
-0.349851
-0.148542
-0.329123
-0.449255
-0.478621
0.772461
-4.04065
0.759002
0.0496914
-0.241778
-3.21275
-2.32342
-0.0265376
-0.538379
0.0530762
-0.0752535
0.288332
-10.8936
-0.14432
0.00823656
0.0728689
0.614705
-1.10542
-0.441652
-7.30456
-0.0903499
-0.0263141
-0.0776395
0.566109
-0.0636981
0.54717
1.06905
-0.121981
0.511049
0.888838
0.408676
-0.073768
-0.0277402
-0.795483
0.0990989
0.652932
row 37:-0.35547
-0.951957
0.0136017
1.51622
-1.55898
1.9785
-0.29175
-0.102512
0.882674
0.0692452
0.460265
2.73497
-0.187731
-0.0587201
0.196085
0.590245
0.039966
0.081814
0.292037
0.732419
-0.074793
1.01313
-0.123553
-0.77744
-0.0293645
-0.528999
-2.38245
-0.589779
-0.590375
0.752472
-1.09129
-1.36474
-1.49608
0.666559
-1.67599
-0.0604875
0.420632
-0.208219
-0.124111
0.240725
0.0123117
-1.21469
-0.635683
-0.0529635
-0.521176
0.255345
-0.023268
1.31631
0.571634
0.0396847
0.175228
-0.027707
-0.0687527
-1.00213
0.0896763
-0.261817
-0.932268
0.386735
-2.1092
-0.144401
0.026742
0.316083
0.781391
-1.23999
row 38:-0.731651
-0.034488
-0.10404
0.00254245
-1.74415
-0.528938
-1.09528
-1.09944
2.09744
-0.0770292
1.71931
1.03425
-0.0849309
-0.0208131
-1.78611
-1.68217
-0.0531985
-0.268016
0.635141
-2.04156
-0.128576
-0.0506565
-0.191083
-1.67941
-3.33301
-4.88556
-2.22054
-0.335254
0.988152
1.18695
-1.75935
2.43587
0.63658
-2.91117
1.85237
-0.0727105
0.892165
-0.0640414
-0.0423082
0.0864828
-7.93582
1.60818
1.23148
0.0371285
-0.415171
-1.6236
1.10373
-1.02832
0.533823
-0.0812805
0.165183
-1.46211
-0.270106
-1.52115
-1.69678
-0.108977
-0.133694
0.466138
-4.01108
-0.0662309
-0.118121
-0.982393
1.24972
-0.0856238
row 39:-0.521786
0.461647
0.0152228
0.0797537
3.02899
-0.467627
-1.65983
-0.299741
-0.163075
-0.150609
-3.03604
-0.499123
-0.17536
-0.0233513
1.66524
0.283226
-0.0590558
-0.307603
0.955531
2.98459
-0.139652
0.747882
-0.0946424
-0.00239868
0.291742
-2.20564
1.20749
-0.198465
-1.71903
0.587174
-0.463968
-5.00059
-1.69692
3.11679
-0.0986761
-0.135625
-0.44712
0.0490832
0.0486475
0.0592683
-1.47697
-0.982802
0.240473
-0.279223
1.19383
-0.330452
-0.262722
1.53091
-0.311491
0.0508391
-0.0331822
-0.559193
0.161049
-0.0591662
4.31387
0.0127115
-0.349263
3.03281
-0.236031
-0.140595
-0.078903
-4.3955
1.50646
-0.0316783
row 40:0.928908
-0.543614
0.0165956
-0.946692
-0.299201
1.02957
-0.134856
-0.516059
-0.412616
-0.143762
0.779509
-1.12664
-0.0228845
1.82356e-05
-1.02964
0.877624
0.059972
-0.189101
0.158429
0.327168
-0.148027
0.431938
0.0319331
-0.230062
1.1824
-1.10509
0.379589
-0.156808
-0.542089
0.747291
1.00805
0.844593
0.94162
1.69831
1.40644
-0.0785391
0.0293543
-0.00259302
-0.101836
-0.194417
-0.630034
0.767502
0.136086
-0.282757
0.0100355
-0.663325
-2.65563
-0.921885
0.291362
-0.00443888
-0.0922144
-0.412099
-0.123573
1.57579
0.536347
-0.32143
0.475591
-0.213647
0.876063
-0.182846
-0.212847
0.867501
-0.432523
-1.64756
row 41:-0.334138
-1.02384
-0.102981
0.0982799
-0.16288
0.20064
-0.398974
0.252858
-1.30013
-0.0536576
-0.472275
-0.0543588
-0.0676358
-0.0453836
-1.05608
-0.38021
-0.0619908
-0.324984
0.534539
0.192996
-0.0596216
-0.728632
-0.105004
-0.882304
-0.927536
3.28245
-0.311109
-0.0793765
2.44696
-4.18513
-1.54125
0.861989
1.57878
-1.50479
-0.532345
-0.0664178
0.721935
-0.143935
0.0932239
-0.131541
-0.0844873
-0.494507
-0.901005
-0.160071
0.371349
1.11044
3.20059
-4.05672
0.516358
-0.0886655
0.0491235
0.237992
-0.0619042
-0.542547
-0.361113
-0.0891181
0.104153
0.482345
-0.150536
0.0217224
-0.159128
0.861606
0.193863
0.392364
row 42:0.0543409
0.459995
-0.147418
-0.951513
-0.130618
0.119957
-0.306943
-0.256661
-0.564939
-0.0660609
-1.65367
-0.108897
0.0500109
-0.0242813
-1.56298
-1.51365
-0.0195917
-0.00756754
-0.260706
0.0532668
0.0155032
0.275439
-0.0489001
0.463932
-0.294743
-0.0445072
0.0518823
-0.277196
1.04629
-0.747024
0.338566
0.522265
1.13198
-2.4658
-0.104502
-0.0580626
0.18042
0.0183665
0.0934007
0.179361
-0.270101
0.679222
0.302721
-0.113408
0.490548
0.288077
-0.684125
-2.53216
-0.501128
-0.0693284
-0.105326
-0.351197
-0.211219
0.588573
0.836494
-0.216377
0.507717
0.494044
0.0367115
0.00158418
-0.0518662
0.624659
-0.15971
-0.413208
row 43:-0.00618023
-1.91314
-0.037212
0.413465
-0.547471
-1.44422
-0.835401
0.0132487
1.04976
-0.145382
-0.455616
-0.332134
0.0428657
-0.140563
-1.17503
-3.86444
-0.0377892
-0.308024
0.365353
-0.784896
-0.271644
0.227059
-0.124975
-0.159703
0.39007
-0.958343
0.701034
-0.120367
0.732937
-0.774606
0.918538
-0.646102
0.766461
-1.55519
-3.48288
-0.09335
0.495997
-0.047596
0.0522544
0.214841
-6.62636
-0.550131
-0.467597
0.123634
0.790646
-0.844379
-0.0208071
0.148598
0.00942795
0.020987
-0.135709
-0.0203596
-0.271827
-0.308409
0.654592
-0.214804
0.389703
0.350543
0.638844
-0.117368
-0.0976275
-0.507876
1.11518
0.61905
row 44:-0.0322764
-0.10704
-0.0340632
0.0698948
-0.0890159
0.0321128
0.0408642
0.0544503
0.134932
-0.0778084
0.0538474
-0.0866127
-0.0296611
-0.112183
0.0506972
-0.125536
0.119464
0.0354098
-0.00496604
0.0863008
0.108924
0.0684537
0.112666
0.108585
0.0465438
0.097215
0.0543223
-0.0908208
-0.0679865
0.0107721
-0.0817555
-0.0342134
0.0407011
0.00784564
0.0938286
-0.0553215
0.0743986
0.0727817
0.0674399
-0.110456
0.088935
-0.0835575
-0.00158018
0.107065
-0.0165474
-0.105361
0.055817
0.010276
0.0373681
-0.0297442
0.0327954
-0.0325869
-0.00499121
0.0212129
0.0585366
-0.0403009
0.100207
-0.0783511
-0.0870246
-0.0518502
0.0629527
-0.0144335
-0.0898243
-0.0575474
row 45:-0.444492
-1.17187
0.061934
1.10886
0.77761
-0.199148
0.167119
0.331117
0.464126
-0.0178848
0.599338
1.46808
-0.158324
0.0874297
-0.980066
1.48924
-0.0454407
-0.208339
0.138262
-1.50716
0.0206144
0.272097
-0.205338
1.58296
0.439664
-1.15877
-0.279238
-0.230307
-1.13838
0.202402
-1.06034
0.492896
1.21081
0.526459
0.695777
0.0111459
-0.130842
0.0295267
-0.0254088
-0.143307
1.13759
0.717213
0.900604
-0.0559313
-1.03057
-0.921464
0.231006
0.288704
0.343637
-0.116509
-0.00267674
-0.0466956
-0.256475
-2.1956
1.53716
-0.239402
-0.00026281
-0.918813
1.56108
-0.163406
-0.111374
0.0732612
0.412925
0.401698
row 46:-0.622755
-0.00753355
-0.120056
1.33299
3.36943
-0.561269
-0.814663
1.20765
-0.0978607
0.046855
-0.604142
-1.28922
-0.136217
0.0361661
0.179135
-0.621121
-0.00173951
-0.141703
1.07075
1.68382
-0.023619
1.38542
-0.157803
-1.4416
-0.781441
-1.28733
1.01108
-0.235418
-1.19427
-0.884202
-0.149009
-1.29795
-2.84885
3.53781
0.286488
-0.0284441
-0.456858
-0.0834088
0.0695531
-0.215228
0.399074
0.709028
-0.830831
0.332577
2.37277
2.47999
1.97947
3.09225
1.57377
0.0885232
0.179817
1.31681
-0.12192
2.2908
2.68312
-0.0375839
-0.25225
1.32096
-0.834719
-0.13978
-0.102507
0.619209
0.323793
-0.353233
row 47:1.63376
-1.60096
-0.129464
-2.0348
-1.3164
-1.68094
-1.62826
-0.524194
-0.779728
0.0420679
0.754983
1.16209
-0.130443
-0.0824346
0.525362
-0.198525
0.00527843
-0.193141
0.327655
-0.715578
-0.134338
-1.33533
-0.0206736
0.706584
-0.227837
-0.279865
-0.178116
-0.02701
-1.07252
0.824803
0.29106
0.627482
0.551275
-0.238428
-0.266439
-0.0629897
0.34959
0.00472615
-0.107811
0.00448056
0.0949528
0.931535
-1.76025
0.107104
0.673183
-1.75774
0.635755
-1.30281
0.469367
0.0596237
-0.153957
0.251993
-0.143016
1.12937
1.32124
-0.270016
-0.146192
0.531708
0.546165
-0.0161271
-0.0616391
-0.755324
0.0733073
0.769239
row 48:1.10563
0.617772
0.0291875
1.19119
-0.94146
-0.602679
-0.609283
0.256859
-0.106251
0.0344452
-0.693256
0.187922
-0.0321594
-0.0351696
0.572957
1.494
0.0391801
-0.322956
-0.0431903
-0.952225
-0.119739
0.0250542
-0.175512
0.544153
0.0787191
-0.442737
-0.961526
-0.0424157
-1.89602
1.65286
-0.569521
-0.126642
0.451532
0.634929
-0.084588
0.0768694
-0.0246659
-0.163752
-0.0232649
-0.129844
0.697043
-0.402728
-0.149265
-0.221679
-0.350804
-0.523051
-0.0479292
-0.717186
0.00483076
0.0144785
-0.281354
-1.17684
-0.256866
-1.17869
0.340448
-0.220753
0.60285
0.6465
1.10605
-0.149233
-0.174794
-0.363032
0.0572265
0.289938
row 49:-0.17591
1.57942
-0.15244
-0.092203
-0.700665
2.65419
-0.388189
-0.0705048
-0.203239
-0.126198
-0.896443
-0.962808
-0.174495
0.0277789
0.202766
0.564794
0.00224353
-0.132203
0.589159
-0.334504
-0.140273
1.24977
-0.00499708
-1.68523
1.50502
-1.69772
1.54033
-0.0203683
-1.98491
-0.382362
-3.08704
-1.11935
-0.829792
1.34967
-2.41472
-0.035844
1.92411
-0.129821
-0.0343949
-0.139463
-0.0705857
0.916303
0.631261
-0.205766
0.198321
0.8781
0.836036
1.0914
0.749342
-0.0096268
0.178076
1.391
-0.118774
-0.00522327
0.901695
-0.188394
-0.451956
1.06331
-0.269236
-0.141661
-0.0839409
0.074869
-0.255671
-4.58558
row 50:2.39604
-1.34725
-0.00646838
0.179374
0.628525
1.9761
-0.034844
0.465462
0.0571009
0.00993004
1.60488
0.446903
0.078352
-0.0653439
-1.48853
-0.407833
0.0587452
-0.235409
0.752232
0.334753
0.0927039
-2.43869
-0.152158
0.0349986
0.22149
-1.12593
1.46701
-0.28177
-0.206822
-1.13157
0.627391
-0.010726
-0.613553
-5.1049
-0.219655
-0.0475672
0.324574
-0.0894018
-0.0997911
-0.0793701
-0.279809
-0.225121
-0.429792
0.158977
0.0216547
-1.42711
0.202266
-0.710626
-0.325714
0.013379
0.15812
-0.060242
-0.195493
0.32932
-0.432298
-0.0360526
0.849783
-1.10844
0.353436
-0.165783
0.0329511
-3.77784
0.627122
0.625206
row 51:1.62361
1.37155
0.0636843
0.423656
-2.20057
-0.579833
-0.668347
1.16055
0.0371488
-0.188485
-0.936891
-1.01394
-0.189629
-0.00842423
-0.133465
-0.408085
-0.148651
-0.225296
0.849476
-0.462412
-0.171169
-0.692764
-0.0615299
-0.181692
-0.0210813
-0.138617
0.667541
-0.173273
-0.304312
-1.46667
0.526628
0.0750323
-0.1245
0.30478
0.249693
-0.139778
1.17368
0.001224
-0.251465
-0.251987
-0.968137
0.0571216
0.343743
-0.276251
1.41175
-0.080012
-1.30925
-2.55741
0.584833
-0.117573
-0.0823597
-0.778136
-0.135556
-0.958695
1.49052
-0.462409
0.401543
-0.0584307
0.597807
-0.0905428
-0.0805476
0.264229
0.207563
1.0518
row 52:-0.52341
-0.308763
0.0179106
0.140419
-0.330746
0.489949
0.0280272
-0.284243
1.38283
-0.135379
0.633774
-0.152445
0.0235163
-0.143575
-0.882997
-1.71657
-0.116227
-0.0812254
-0.293355
-0.106013
-0.0739028
0.0597608
0.00372485
0.00932695
-0.220678
-0.937472
0.42945
-0.29704
1.41417
-0.67575
-0.396959
0.167716
-2.85071
-9.58087
-6.84564
-0.0975858
0.429869
0.0450581
-0.106169
-0.125754
-9.54465
-0.524032
0.811967
0.0544378
-1.0545
0.627802
0.286782
1.62674
0.172986
0.0222294
-0.130902
-0.972297
0.11731
-0.247622
0.382874
-0.265538
0.098353
0.202415
-0.137763
-0.00415947
-0.0974296
-3.73547
-0.278046
0.11351
row 53:1.07365
-0.91527
-0.120297
0.461235
0.0493307
0.492646
0.129645
-0.291158
-0.312816
0.063141
1.64902
2.54205
-0.0773382
-0.138107
0.437574
-0.37413
0.0570465
0.162761
-0.394301
-0.770722
-0.253505
-0.147025
0.0466683
-0.508406
-0.301149
-1.56946
0.542343
-0.356804
-0.941823
-0.171509
1.0112
-0.374792
0.581992
-0.408089
0.0216387
-0.0217889
-0.504906
-0.0689906
-0.0836446
-0.0986401
-0.489428
-2.81593
0.95025
-0.118656
0.34615
0.392037
0.571852
3.89225
-0.703424
0.0111642
-0.0538888
-0.333985
-0.263418
0.17513
1.91754
-0.421254
0.660813
0.113757
-1.85224
0.0185822
-0.0861012
0.948926
1.31143
0.0239735
row 54:-1.46256
-0.520575
-0.0477307
-0.101419
0.128591
-5.54867
2.02725
-0.217082
-0.741049
0.0312225
1.30999
0.589825
0.0238418
-0.101433
0.794311
-1.16602
0.0389098
-0.294061
1.20917
-3.52865
-0.0899554
-0.646822
-0.221951
-0.941897
-1.06974
-2.0771
-1.16761
-0.1514
-0.898991
2.24938
1.97722
-3.94829
-1.57695
1.8277
2.79876
-0.0731792
0.14313
0.0295676
-0.0462746
0.133757
1.81815
0.902759
-2.79234
-0.104791
1.55756
-3.1538
-0.496264
-2.06218
-0.904613
-0.0654905
0.140938
-0.0871324
0.100228
0.438711
-1.59577
-0.221946
0.665297
-1.15337
-5.51043
0.0438099
-0.0779482
-0.215294
0.205595
-1.00817
row 55:0.863693
-0.707756
0.0125144
0.363762
1.66538
-5.40049
1.55985
0.339198
-0.559355
-0.0743929
1.18574
-0.228659
-0.0657615
0.0780973
2.12322
0.276139
-0.0140246
-0.193898
-1.09117
1.72835
-0.0931279
-1.15027
-0.103375
0.378436
-0.214224
-1.32692
-2.2126
0.0563963
0.987744
-1.04734
0.74241
-5.897
-0.273625
1.04194
-0.923012
-0.118796
0.326253
-0.0571991
-0.0330784
0.0598208
-2.05455
1.28415
-1.14847
-0.187841
0.402112
-1.61754
0.0815642
-3.11588
-0.336805
0.00810573
-0.00245583
1.18677
0.12423
0.445409
5.6294
0.033233
-0.611786
3.224
2.72377
0.0356337
0.004458
-0.00185866
-0.00849605
-1.07185
row 56:1.56733
-0.827067
-0.120008
-1.97968
-0.347599
2.24132
0.442852
-0.22204
0.443661
-0.176308
-0.789146
-0.531191
-0.091316
0.0384627
0.168389
0.196841
-0.072092
-0.238672
0.915932
-0.839335
-0.199975
-1.55772
0.00359689
0.034403
-0.291525
0.58312
-0.281588
-0.232656
0.288152
0.125655
0.847494
0.593135
-1.6649
1.42225
0.930173
-0.000222971
0.0800345
-0.100925
-0.198582
-0.16725
0.209195
-2.11801
1.5771
-0.285818
0.530007
-0.477704
-0.657794
0.538355
-0.0559193
-0.0850984
-0.0491276
0.573342
-0.141058
0.592619
1.28292
-0.147096
0.802635
0.924448
0.630263
-0.0579404
-0.205345
-0.434733
0.146281
-1.17983
row 57:-2.52115
1.30771
-0.0182476
-1.13632
0.697304
2.11129
-2.31219
-0.514341
-1.30018
0.0577847
1.91858
-0.504081
-0.111658
0.0378547
-0.75029
1.75061
-0.0881692
0.00703211
-0.049467
-1.05034
0.0379262
3.69632
-0.0857392
-0.350182
0.24171
1.25147
-1.60323
-0.1027
1.02658
-1.87381
1.1434
1.26612
1.89188
-1.97649
-1.59766
0.0035304
-1.57926
0.0265204
-0.0273865
-0.1371
-0.671048
1.48127
-1.34672
0.0783851
2.71843
-0.96203
1.77767
0.222914
0.292528
0.0151219
0.0944491
-0.654823
-0.185493
-0.390669
0.251209
0.0144218
-0.226221
-0.0972525
-0.277086
-0.0447728
-0.168828
-0.173398
-0.369546
-0.127931
row 58:-0.367271
-1.62869
-0.0594225
0.765049
-0.582195
-0.944118
0.306488
0.37405
-0.72645
-0.148256
-1.82141
-0.118227
-0.0219106
-0.0791221
-1.14658
0.491493
0.0578831
-0.113704
0.464112
-0.0667453
-0.0437541
0.199282
0.00469904
0.302282
0.40694
-0.238353
-0.253041
-0.08628
0.805174
1.82133
0.91402
0.0367591
-1.6691
-3.55279
-1.26175
-0.0781258
0.125843
0.0263907
-0.0961624
0.0220953
-0.355658
0.610144
-0.954401
-0.0707999
-0.0513669
-0.777826
-0.0537683
0.163236
-0.687404
-0.105834
-0.19631
0.730484
-0.0378324
-0.1885
0.130281
0.00553528
0.281454
0.68983
0.177457
-0.0871028
-0.0686498
-1.04673
0.404906
1.16367
row 59:-1.35327
-1.00928
0.0247436
-0.62536
-0.0612331
-0.874598
-0.191245
0.299793
0.454228
-0.1444
-1.25866
0.0699224
-0.0863585
-0.0684804
-0.581465
-2.33686
-0.106719
-0.287428
-0.358455
-0.502362
-0.253746
-0.426031
-0.113187
0.0924225
-0.215158
0.374247
0.138488
-0.0938526
0.709126
-0.240582
-1.90041
0.130215
-0.429022
-2.08595
-8.89255
-0.0861657
0.386095
-0.10479
-0.167501
0.0924196
-5.88535
1.0885
1.38095
0.148592
6.70975e-05
0.126435
0.0806454
0.747266
0.135504
0.0412639
-0.0941985
0.235919
0.0326668
0.590518
0.340099
-0.298802
-0.0908616
-0.960306
-0.301463
-0.0825459
-0.148171
1.00623
0.117278
0.506854
row 60:-0.064242
-0.0633958
-0.0917239
-0.0680341
-0.022102
-0.035955
0.0387178
-0.108926
-0.0621542
-0.0595704
-0.101172
-0.0216379
0.0518322
-0.07446
0.0987138
0.0919832
0.10462
0.00805699
0.0274433
0.0784803
-0.0869302
-0.00539608
0.108804
-0.0274457
0.116414
-0.025479
-0.104011
-0.0482618
-0.057249
-0.0598065
-0.0901012
0.0344054
0.111651
-0.0202702
0.0879372
-0.0198317
-0.0692745
0.0932156
0.0443035
0.0511606
-0.0868309
-0.00883475
-0.0523225
0.119985
0.0418211
0.0906265
0.0666185
0.120796
-0.105644
0.0690584
0.0257363
0.108977
-0.104518
-0.0881285
0.106223
0.029535
0.0550034
-0.0779304
0.0338719
0.0608817
-0.00483557
-0.0548346
-0.064774
0.01439
row 61:-0.834194
-0.320589
-0.0958924
-0.398333
-2.00679
0.679969
-0.368876
-0.203752
-1.64913
-0.0114585
-0.91122
0.943024
-0.0642657
0.0705464
-0.766416
-1.20889
-0.0795318
-0.284632
1.07948
-1.07672
-0.0448225
1.11549
-0.0497033
1.55132
1.14247
0.920886
0.822548
-0.261809
-0.678868
-0.39256
-1.53425
0.490096
-0.99149
0.0400191
0.323128
-0.0252066
-0.988249
-0.0961467
0.0636541
-0.0248574
0.435841
-0.24529
-1.21141
-0.0498621
-0.952569
0.568004
-1.15245
0.0461925
-0.526274
0.0328858
0.104334
-0.491206
-0.154527
0.734752
1.01611
-0.228063
0.148151
0.547212
0.989307
-0.174989
-0.0610835
-0.632005
-0.133032
-0.30704
row 62:1.35767
0.889448
-0.120938
-0.308139
0.398586
-2.0652
0.452685
-2.04832
0.385849
-0.0293614
-2.39323
0.62637
-0.124619
-0.0821373
0.601131
-0.785744
-0.0480865
-0.18199
1.55455
3.53628
0.132282
0.377466
-0.162184
0.302384
0.45636
-1.79797
-3.18969
-0.0926708
0.0813855
1.44135
-0.799782
-1.72379
0.0310974
3.96196
-1.983
-0.0591156
0.779901
0.00472968
0.0601612
0.118785
-1.36188
0.566298
0.332344
0.149328
-1.37424
2.31482
-0.743301
0.0677231
-0.703764
-0.000777659
0.155193
0.910506
-0.218049
-1.96984
1.23288
-0.195355
-0.343392
1.19732
-0.0726314
0.0588322
-0.145752
-1.58264
1.63876
-0.293626
row 63:-0.188322
-0.426257
0.0541889
-4.10449
0.102619
-1.01855
0.257801
0.260998
0.33201
-0.0875363
0.580905
0.354288
0.0536956
-0.0329176
0.508882
0.236513
-0.0088075
-0.0417965
0.394814
-0.150782
-0.24171
-0.139086
-0.0864039
0.81396
-0.0419575
1.68156
0.240113
-0.11448
-0.99635
0.62634
-0.328334
-0.432754
-0.20073
-0.0363062
-0.400273
-0.161607
0.226123
-0.148398
0.009098
-0.224265
0.205931
0.96612
-1.8477
-0.0985858
-1.2844
1.41085
0.854443
0.171027
0.549229
-0.0687731
-0.179056
-1.45899
-0.114781
1.09199
0.771251
0.015706
-0.202081
0.356361
1.04341
-0.137644
-0.137645
0.816486
0.0332476
0.524679
row 64:0.50491
-1.61878
-0.0249645
0.0448576
-0.26739
-0.725708
-0.729222
0.46009
-0.363775
-0.00170116
-0.432289
0.168101
-0.023638
-0.135202
-0.479215
-0.246569
0.00961555
-0.242802
-0.160092
-0.421722
-0.223492
-0.812313
-0.0580366
-0.0289037
0.42163
-0.811965
0.973465
0.0622176
-1.22844
1.34101
1.01033
0.0904357
-0.616483
0.0664522
-0.611211
0.0668032
-0.386575
0.00843362
-0.0531585
-0.155247
0.781527
0.236514
-0.426208
-0.179858
-0.600403
0.153279
0.182515
-2.68316
-0.116111
-0.0650218
-0.10519
0.116282
-0.110426
-1.3333
0.606549
-0.208857
0.547493
0.725341
0.658429
-0.0886467
-0.0939216
0.247669
1.01455
0.33778
row 65:1.35557
-0.777327
-0.0238611
0.180784
0.921181
3.01954
-0.904345
0.111783
-0.222228
-0.0221436
-0.817792
-0.605175
-0.0516146
0.0846387
0.961366
0.38463
0.0758013
-0.1515
-0.122569
-0.159888
-0.117816
-1.1285
0.0192473
-0.536759
1.03321
0.504805
-0.134778
-0.192815
0.964467
1.49542
-5.86048
0.515714
0.845426
0.3723
-1.42327
-0.0586494
1.20956
-0.0312934
-0.0748323
-0.0128012
0.164191
1.36052
-1.11659
-0.26896
-0.0524975
-0.92841
-0.973916
1.25651
0.384567
-0.138491
-0.030634
-0.0954413
-0.222931
0.16872
0.185124
-0.0608735
1.31093
-1.11729
0.513798
-0.000410642
-0.0559922
0.505304
0.0377363
-2.25096
row 66:-2.58701
-0.245008
0.00784621
0.0694769
-0.772388
-0.771139
0.684831
0.662047
0.230403
-0.140798
0.532273
-0.433668
0.0644019
0.0455306
-0.684403
-1.94017
-0.124556
0.195155
-0.00433565
-0.002051
0.0937493
-0.774084
-0.172948
-0.693367
0.23105
-0.0549904
-0.726535
-0.106381
-0.157852
2.09664
0.841722
1.34174
1.35003
-6.12778
-4.51953
-0.122393
0.841135
-0.0695492
-0.0617945
-0.0624127
0.0191962
0.491869
-0.614797
-0.00100464
0.419468
-0.214352
0.912278
0.612094
-1.02249
-0.00458369
0.241056
0.567004
0.20087
0.474605
-1.18439
-0.174761
-0.106401
1.17552
-0.312573
-0.0360207
-0.160596
-0.730803
-0.0383389
0.118355
row 67:-0.250666
0.990589
0.0223608
-0.0346477
-0.331817
-0.725399
-0.368148
-0.708108
-0.0826047
0.0112922
0.878254
-0.399958
-0.142501
0.0129229
0.687299
-0.479114
-0.0457746
-0.340201
0.691475
-1.10645
-0.235793
-0.188631
0.0360922
0.615752
-0.378255
0.168201
1.29812
-0.259225
0.278235
-0.111703
-0.50031
-0.228469
-0.313604
0.284931
0.647489
-0.0313963
-0.947368
-0.161702
-0.0927788
-0.0231616
-0.0789129
-0.640566
0.133137
-0.333229
0.507334
0.350965
0.332108
-0.655168
0.198267
0.0279805
-0.0524515
0.207192
-0.181418
-0.764688
0.712775
-0.361551
0.627507
-0.405945
0.826338
-0.109261
-0.188207
-0.208612
0.932973
0.125812
row 68:0.50475
-1.65049
0.0214308
0.204248
-0.265806
0.69335
-0.0512794
-0.328464
0.523914
-0.100603
-1.30975
-0.514062
0.0117199
-0.0237302
0.0807235
-3.82102
0.0937573
-0.136511
0.404096
0.0557006
0.013117
-0.714962
-0.0108957
-0.632467
-0.174082
-0.808419
-0.923695
-0.132431
-0.370756
-3.32523
0.146796
-0.0455889
-0.286095
0.777619
2.33993
-0.125952
1.08104
0.0689683
0.0376737
0.148537
-9.93349
-0.273183
0.18943
-0.0512243
0.117789
-0.749715
-1.04837
0.431014
-0.321329
-0.186643
-0.295577
0.0222378
-0.300418
0.609315
0.589609
-0.0461736
0.26539
0.465326
-0.739317
-0.0552558
-0.164402
0.588504
-0.287701
0.281163
row 69:1.05283
0.66634
-0.103561
0.956693
0.0150411
-0.295082
0.218591
-0.24308
-0.595122
0.0980827
-3.22177
1.49042
0.00477257
0.0141797
-1.4395
1.92456
-0.162932
-0.020386
0.526487
0.989033
-0.245672
-0.375065
-0.0614206
-0.436822
0.903711
0.333766
-1.32177
-0.0270324
0.211063
-0.347841
-1.79861
0.115169
-1.2118
0.070783
1.14912
0.124564
1.33197
-0.00245449
0.102312
0.00691822
0.506469
-0.0085081
2.03697
-0.201638
-0.216941
-0.773053
-0.591974
-1.52284
0.0375755
-0.0300772
-0.112285
0.0671188
-0.229046
-0.482992
0.60435
-0.368761
-0.787703
1.39488
-1.27312
-0.0385471
0.0612493
1.18796
1.18727
-0.598636
row 70:1.14135
-0.262951
-0.112244
-0.0483619
0.615399
-3.9305
-0.144819
0.883465
1.05922
0.060938
-0.912279
3.216
0.0425494
0.116283
0.391145
-1.95466
-0.137054
-0.189465
-2.3318
-2.93472
-0.0376459
1.82476
-0.0416323
-1.41479
-1.59523
-2.02663
2.13435
0.162166
1.57144
-2.02308
1.48913
-2.09283
0.877054
0.811865
1.49653
0.0049534
-0.602373
0.0666888
-0.0572642
-0.185675
1.49097
1.1261
2.22858
-0.188876
0.771313
1.07542
-0.38189
2.37607
-0.0445946
-0.0452689
-0.0229282
1.06614
-0.189328
-3.66466
0.280915
-0.249009
1.36561
-1.56392
-3.08412
-0.0587141
-0.056224
1.88464
1.42149
0.271531
row 71:0.024392
0.726152
0.0656563
0.00422701
1.4093
-3.34775
-2.25352
-0.641707
2.29482
0.0385625
2.65139
-1.13317
-0.0320466
-0.0591895
1.77418
-0.234736
-0.125055
-0.244162
0.943969
3.19102
-0.0693859
1.93976
0.048171
2.52381
0.667606
-2.99121
0.668844
0.083989
-1.34034
0.407608
-1.52641
-5.24703
-0.230175
0.186343
-2.61754
-0.0426362
0.586468
0.0861261
0.0322802
0.109832
0.372326
-0.236538
0.712044
-0.0837126
-0.246289
-0.766398
1.07284
-0.355628
0.21544
-0.112428
0.0907363
-2.44739
-0.164748
-1.1226
3.60545
-0.18506
-0.504415
3.18696
-0.701293
-0.00248521
-0.126982
1.70823
1.62903
-3.17767
row 72:-0.748281
-0.205725
0.000469971
0.41982
-0.114072
1.55426
0.318515
-0.0575784
-0.85383
-0.122558
0.986269
0.534238
-0.0279617
-0.0418865
-0.0991575
0.198923
-0.108604
-0.0931332
-0.0299372
-0.75662
-0.276037
-1.39599
-0.144742
-1.37178
0.321064
0.0478658
-0.278422
-0.091323
0.0431454
0.00354681
0.774557
-0.51392
-0.837254
1.14725
0.526883
0.0282208
-0.508041
0.00953001
-0.161487
-0.258944
-0.45394
0.386631
-0.151957
-0.0431136
0.759536
0.0415646
0.968469
-0.944687
0.0123784
-0.0374401
-0.0116751
-0.56327
-0.278425
-0.606047
0.0373282
0.0341584
0.0727386
-1.44939
0.176893
-0.0470422
-0.0926635
0.293166
0.643393
-0.6365
row 73:2.28076
1.40962
0.0219208
-0.444335
-0.963484
-2.08153
1.42596
-0.538732
-0.249877
-0.030045
-0.732396
0.34736
-0.0139525
0.00390899
-0.198665
-1.35274
-0.0502669
-0.0821018
0.413639
-0.762167
-0.105307
1.00601
-0.0507773
-0.519556
0.374058
1.27115
1.60252
-0.143451
-0.418657
-2.49035
-0.992331
0.0613503
0.914373
-0.0401262
-0.140783
-0.011631
-0.87964
-0.106315
0.0612813
-0.0587026
1.44623
0.748743
0.0935097
-0.0970473
0.493189
1.36809
-3.53489
-0.289873
0.162042
-0.0226241
-0.0326609
-0.109578
-0.0805212
-0.978087
0.412006
0.0642173
0.0964341
-0.104662
0.286147
-0.037269
-0.000367573
2.44471
1.07822
0.296615
row 74:-0.380779
0.290324
-0.0504124
0.770502
0.269812
-0.125936
1.04081
0.965504
0.487023
-0.0379834
-0.45237
0.498678
0.0337863
0.0938034
-1.23797
1.31803
-0.00722362
0.021478
0.413876
-0.139018
-0.119816
0.2054
-0.102979
-0.0692561
0.111752
0.350812
1.01938
-0.0473356
0.552857
-0.135834
-0.462661
0.343195
-0.459413
-10.2922
-1.87807
0.0346669
0.0481736
0.0853812
-0.137034
-0.227977
0.636848
-1.15336
-0.286404
-0.0945243
0.0880983
0.0850464
0.352826
0.936354
-0.358926
0.0580214
-0.253391
0.623349
-0.222385
-0.38652
-0.92798
-0.286067
-0.47633
-1.08021
0.196278
-0.0435791
-0.165074
0.256402
0.298189
0.0261921
row 75:-0.169495
-0.982906
0.0233948
0.252897
0.203587
-1.12941
0.328641
-0.216747
1.27812
-0.00970673
-0.394612
-0.429442
-0.0462304
-0.0120118
-1.14465
-0.990234
-0.139299
-0.162126
0.411723
-1.09723
0.0670188
1.09085
-0.0283743
-0.368596
-0.188835
-0.421088
0.0626351
0.0868571
0.649707
0.00247159
0.825412
-0.128686
0.482255
-2.94334
-6.86374
0.0636553
0.229922
0.00816101
-0.198397
-0.0985083
-10.1665
0.45173
-1.73428
-0.0999584
0.850245
0.0791575
-0.862949
-0.00884226
-0.516579
-0.0919806
0.024381
0.196455
-0.155835
0.656331
0.405978
-0.0886647
0.311838
0.0158369
-0.128816
-0.0675496
-0.0212272
-2.51064
0.302192
0.477481
row 76:0.0294935
0.0638944
0.00796041
-0.112957
0.0449991
0.000290419
0.125665
-0.069615
-0.019418
-0.0942902
0.0425658
-0.043199
0.0101552
0.0170743
0.100029
-0.0531732
-0.0659233
0.0467141
-0.0845419
-0.0562844
0.0688094
0.00815967
0.0199362
-0.0129698
0.0817294
0.0949041
0.0784131
0.0994116
-0.0596867
-0.0698082
0.0245369
-0.0585733
0.110241
-0.0768407
-0.00185548
-0.0732924
0.0405311
-0.039807
-0.00314998
0.00692032
0.0689518
0.00493402
0.114548
0.0186956
-0.0217248
-0.0540854
-0.0978729
-0.0327685
0.0119612
-0.0332688
0.043533
0.0375851
0.0122065
0.0237739
0.053872
0.0951869
0.00877805
0.0338351
0.0120362
0.0981904
-0.110662
0.0297659
0.109915
-0.045925
row 77:0.346596
-0.167199
0.0670156
0.473465
0.742869
0.726182
0.37386
-0.164474
1.08443
-0.0805528
1.17002
1.10458
0.0263727
-0.118151
0.0333545
-0.771478
0.00355357
-0.2156
0.101523
-0.898013
-0.234956
-1.07342
0.0239622
0.611834
1.06279
1.60798
-0.678244
-0.310546
-0.782237
-0.22016
0.639569
0.221716
-0.771642
-0.344645
0.332292
-0.107173
0.0104391
-0.177201
-0.0860404
-0.175985
0.309927
-0.0786221
-0.444145
-0.0300321
0.665564
0.14123
-0.303379
-4.43213
0.224083
-0.128354
0.0852253
0.0527442
-0.277229
0.418279
0.416371
-0.220049
0.934928
-0.240571
0.530909
-0.0397199
0.0534654
0.342293
-0.0543869
-0.438042
row 78:-1.17159
-1.18152
0.0782563
0.16499
1.9308
-0.195421
-1.25699
-0.549166
-0.314745
-0.125225
-2.10895
0.0720381
0.116183
0.0231169
0.637993
-0.745426
0.0372551
0.0839886
1.62681
2.17384
0.0139975
-1.03968
-0.00678008
-0.455499
-0.111308
2.26514
1.26398
0.0920797
-0.168023
0.925078
-0.480769
-0.419056
-1.67988
2.86612
1.31597
-0.10436
-1.36657
-0.102403
-0.0656053
0.00948437
-1.76446
0.198252
0.600901
0.197978
1.66088
-0.363057
-0.342634
-4.16071
-0.151309
-0.0188133
0.215549
-0.428866
0.183684
-0.259555
0.501781
-0.18848
-0.759601
2.19671
-0.869101
-0.0439999
0.0519362
-0.846769
0.911521
-0.666901
row 79:-0.869378
0.722378
0.0347105
-2.1083
-0.573922
-1.27038
-0.181358
-0.038804
0.00350793
-0.148522
0.0533185
0.523679
0.00916774
-0.0797163
0.0647297
-0.218305
-0.138184
0.0564736
0.472598
-0.901178
-0.200792
0.201911
-0.222882
0.398751
0.116215
-0.574268
0.56413
-0.11543
-0.0849948
0.901942
-1.49899
-0.577518
-0.300488
-0.0283744
0.454419
-0.115697
0.488872
-0.0526887
-0.0696183
0.30556
0.26949
0.608447
-0.622195
-0.138165
-0.345331
-1.23434
0.0833037
1.03128
-0.425602
-0.034658
-0.261513
0.441966
-0.109247
1.35738
1.07319
-0.0657126
0.342237
-0.487267
0.876363
-0.0191951
-0.0812932
-0.765383
0.437544
1.05795
row 80:-0.211204
-0.0342237
0.0331875
0.223257
0.720678
-0.898426
0.0522026
-0.236502
-0.246434
-0.181814
-1.13653
-0.0784051
-0.111116
-0.177561
-0.66576
0.332815
-0.104381
-0.271775
0.407452
-1.51218
-0.083934
0.284464
-0.134812
-0.0282103
-0.507219
-0.00336975
-0.931364
-0.116989
0.416399
1.80588
-0.169336
-0.685933
1.05194
-0.198789
-0.212828
0.0216301
0.534884
-0.0724284
-0.140068
-0.207418
0.662468
-0.0729854
-0.30472
-0.00919467
0.220115
0.204294
0.00754353
-0.000771958
-0.193265
-0.191687
-0.221813
0.483217
-0.157394
0.118655
0.0300264
-0.372384
-0.0594814
0.0890072
0.232368
-0.0778651
-0.00319889
-1.09607
1.11766
1.10859
row 81:-0.567077
1.14702
-0.0471157
1.62435
-0.375641
3.26381
-2.01894
-0.497165
-0.0848287
-0.214143
-2.04191
0.665068
0.0431845
-0.020632
0.594596
0.999528
-0.103027
-0.135494
-0.424691
-0.200161
-0.215341
-0.164928
-0.0409635
-0.588767
0.293223
0.293364
0.19503
-0.270025
0.279521
-0.923041
0.576342
-0.527086
0.149097
1.42707
-0.157911
0.0635235
0.785787
-0.239005
-0.022766
0.16148
0.973543
0.444966
-1.63992
-0.104898
-0.622038
-1.4517
-0.169141
-0.0287237
-0.0379485
0.0490887
-0.257697
-0.143176
-0.173793
0.692063
-0.277253
-0.185025
0.365561
3.16183
0.0736002
0.0808068
-0.0925573
-0.511008
1.12758
-3.81324
row 82:-0.825357
-2.65936
0.0398313
1.34364
0.416421
-1.72395
-0.672343
-0.194653
0.868706
-0.182299
1.75472
-0.101868
0.0168155
0.105685
-1.66619
-1.43772
-0.044302
0.248183
-0.0938033
-0.0303599
-0.122221
1.53768
-0.0436552
0.661321
-0.25193
0.332343
0.828312
-0.265219
-0.196549
0.542859
0.183625
0.737991
-0.232045
-4.15605
1.43846
-0.0561825
0.638654
-0.0194535
-0.0965584
-0.130308
-0.785518
-0.521023
0.2983
-0.175224
1.06173
0.507662
0.0747297
0.704368
-0.835109
-0.0378026
-0.0709634
0.479121
0.118912
0.105554
0.0443074
-0.235224
0.21856
-0.181778
-0.139295
0.000269746
-0.12125
-2.08892
1.05355
-0.0300367
row 83:-0.583296
0.111663
-0.167491
0.499297
0.880937
-0.568944
0.159156
0.476333
-0.213486
-0.0327762
0.621877
-0.0829017
-0.128224
-0.103461
1.14943
1.13405
-0.141445
-0.190321
-0.266369
-0.191136
-0.276776
-0.219016
-0.118343
0.318298
-1.00787
-0.204161
0.392694
-0.37582
-0.242344
-0.497837
-0.243636
-0.882231
0.119502
0.193808
1.28634
-0.136849
0.421538
-0.180487
-0.109811
-0.139413
-0.432141
-0.370925
-0.232226
-0.198945
-1.04052
-0.0477215
-0.091559
-0.0841183
-0.128683
-0.0610654
-0.254846
-0.192844
-0.175775
-0.342681
0.085427
-0.315298
-0.166398
0.311728
0.574962
-0.111289
-0.205536
1.17133
0.865904
0.310406
row 84:-1.4289
-0.498322
0.0438616
-0.443899
-0.609247
1.08656
0.154035
0.450284
1.09303
-0.0302642
-1.83048
-0.821979
-0.142454
-0.0989212
-0.310973
-2.57212
0.0620291
-0.189317
0.0865995
-0.288642
0.0118814
-0.379452
-0.0502399
-0.0438467
0.380758
-0.623637
0.847737
-0.416824
1.30773
-2.23173
1.0533
0.593579
-1.44455
-5.95399
-2.68469
-0.0968057
0.27197
-0.0890754
-0.119258
0.0881948
-10.9664
0.167528
0.0448152
0.0922977
-0.13194
0.770619
0.195464
3.09581
0.0785158
0.0267085
-0.104568
-0.179855
-0.233512
-0.389272
0.427061
-0.109069
-0.0707618
0.0825353
-0.241983
-0.112349
-0.138272
-1.58044
0.936361
-0.323663
row 85:-1.48508
-0.180331
0.0668157
2.15102
-1.87925
0.235381
0.554125
-0.305101
-0.0622833
-0.0440665
-0.244042
1.93527
-0.174096
-0.0935657
0.600767
-1.22011
0.00851656
-0.169233
-0.76271
0.391645
0.026191
-1.0151
-0.111209
1.20791
-0.277739
1.65006
2.16464
-0.0542247
2.2525
-1.04625
0.593737
-0.356653
-0.301653
-0.0204775
-1.81107
-0.0105025
1.19986
-0.158239
-0.0835506
0.00674859
-0.540073
-3.02279
0.762428
-0.167724
0.543544
0.792285
0.109547
-3.17431
0.119346
0.00744607
-0.0921815
-0.259904
-0.15609
0.291714
0.403149
-0.0362198
-0.489294
-0.447376
-2.17654
-0.0453258
-0.0667102
0.129075
0.697887
-2.60222
row 86:-1.7265
-1.64334
-0.105327
1.64418
0.296325
-9.24575
0.531438
-0.272854
-0.740587
-0.0909582
1.55951
2.22563
0.0767745
-0.036419
-0.856262
-0.170575
0.0311591
0.0424412
1.94676
-2.35097
0.0367386
-1.15158
-0.0419092
-3.06343
-1.33752
0.666009
-0.410458
-0.237159
-1.97547
-4.08936
1.13624
-0.986701
1.69638
3.05608
-0.591228
-0.093588
-0.287358
0.00936476
-0.0130186
-0.135697
0.761427
2.04779
-1.94523
0.0864899
1.35056
-2.36301
-0.32763
0.624758
-1.08079
-0.0753502
0.108789
2.22622
-0.187697
2.78998
-4.15816
-0.154858
1.47646
4.10877
-2.75775
0.0656436
-0.108582
0.418101
-0.219525
2.43622
row 87:1.40308
0.376571
-0.031237
-0.488235
2.99578
-3.00957
-0.71813
0.826754
0.074708
0.00197872
-2.37096
-1.3721
-0.0122478
0.0422851
3.06479
-0.977247
-0.0382785
-0.389029
0.599377
0.913262
0.108797
-2.47826
-0.147098
1.05971
1.06714
-0.672146
2.17912
0.0716416
0.306535
-2.03938
-0.277593
-4.81245
3.29248
1.2715
0.308248
-0.182844
-1.22965
-0.0943661
0.070583
0.0135179
0.166745
-1.308
-1.84237
-0.208871
0.544317
-2.1451
0.299633
-5.30477
-0.768973
-0.0211436
0.0601492
0.270252
-0.275445
0.887127
4.88716
-0.185324
-0.81035
1.71762
-1.46964
-0.0764602
-0.0662316
0.966825
0.0658363
-1.02231
row 88:-1.55347
0.398905
-0.0693416
-0.0371085
-0.0853061
2.33575
1.02653
-0.0598573
0.847065
0.0370933
-0.792898
-0.275414
-0.126293
-0.0914768
-0.249837
0.925278
-0.0715313
-0.256605
-0.107364
-0.487268
-0.260244
2.37105
0.0295558
-0.157254
0.280211
-0.414342
-1.27973
-0.0729515
-0.178031
0.959865
-0.448617
-1.06043
0.370504
0.89044
-0.416959
-0.126025
0.0822757
-0.0759651
-0.114982
-0.0108475
0.40924
-0.722749
-0.33728
-0.093678
-0.687569
0.424852
0.456347
-0.61337
-0.557013
-0.0866229
-0.123869
0.559656
-0.233443
0.796293
0.572651
0.102946
0.435709
0.426239
0.349035
-0.158587
-0.115241
-1.15582
-0.466864
-0.623026
row 89:1.75899
0.555755
-0.0248834
1.09379
-0.0953845
0.420787
-1.22566
0.375458
-0.294831
-0.0171262
1.07347
-0.199886
-0.117195
0.0821612
0.188366
1.51742
0.0592819
-0.193552
-0.235158
0.422007
0.00438768
-2.14943
-0.0890349
0.15293
0.450336
0.375191
-0.445547
-0.433697
2.6691
-1.81374
-0.316224
0.172665
1.26373
-0.532155
0.662358
0.0700298
0.0658435
-0.0904367
0.0970023
-0.176776
-0.787085
-0.411165
0.0659295
-0.0663813
0.780374
-0.539226
0.906411
-6.84592
0.0980473
0.00542653
-0.150017
-0.437669
-0.0789316
0.513468
0.1206
-0.17925
-0.401924
-1.22666
-0.39041
0.080308
-0.161376
0.310019
0.105985
0.596326
row 90:0.67655
0.773476
-0.17344
-0.598683
0.330544
-0.863723
-1.12711
-0.204877
0.297782
0.0522483
-2.14376
-0.150809
0.0277331
-0.0826873
-0.846926
-1.53092
-0.0453361
0.113131
-0.222793
-0.142477
-0.0762504
0.497939
-0.0466912
-0.0949424
-0.408093
0.246245
-0.833175
0.0966442
-0.386595
-0.0534405
-0.764785
0.230412
1.11568
-7.96069
1.00555
-0.0530781
-0.312037
-0.0472579
0.00266013
0.14203
1.46628
0.93917
-0.126739
0.081381
0.0881312
0.8967
-0.822826
-0.81545
-0.328779
-0.0762532
-0.0920374
-0.545591
-0.0874096
0.628057
0.337054
-0.299334
0.113394
-0.697667
-0.0929623
0.00947832
-0.144978
1.35632
0.0211952
-0.675918
row 91:0.319034
0.418134
0.0867555
-0.453925
-1.08475
-0.368967
-0.100784
0.111751
1.03202
-0.092513
-2.60686
-0.36772
0.0236912
0.0516894
-1.26354
-2.93317
0.046733
0.212517
0.232584
-0.157612
-0.135831
-0.873113
0.0377156
-0.0534569
-0.0546065
-0.687437
-1.37004
-0.134012
0.68128
-1.36225
0.848318
-0.049866
0.146804
2.12776
-3.04603
0.0684349
0.5373
-0.19125
-0.079986
0.21813
-8.76518
1.50458
-0.483904
-0.111136
0.579057
0.343496
-0.190404
1.50573
0.34395
0.0360372
0.211807
0.127061
-0.105767
-0.0603789
0.822098
-0.196963
0.107314
-0.240262
-0.490266
-0.0641167
-0.107101
0.740831
-0.0755177
0.0252883
row 92:-0.0380468
0.0035309
-0.0619291
0.0841278
0.0370541
-0.0291662
0.0969287
-0.00387504
0.105567
0.112551
-0.048591
0.00227694
-0.0501924
0.0778428
-0.125761
-0.0867394
-0.0294324
-0.0444444
0.108838
-0.0852451
-0.110191
-0.0209247
0.0366473
0.043191
-0.0429667
0.0221544
-0.0694162
-0.102656
0.0595355
-0.0474666
0.0812891
-0.104317
-0.0514663
-0.0210962
-0.119808
-0.0805795
-0.0436233
0.0866853
-0.0375036
0.00645484
0.099052
-0.0890195
-0.045215
0.095177
0.0277485
-0.0884628
-0.108666
-0.0782565
-0.0386087
-0.0409928
-0.0854108
0.0398923
0.095536
-0.0241808
0.0759062
-0.0923844
-0.000453115
0.0911996
0.0912434
0.0418937
0.0322223
-0.0800712
-0.105929
-0.0121601
row 93:0.288497
0.239891
0.000955467
-0.232264
0.54536
0.221787
-1.68709
0.202778
-0.320915
-0.101658
0.193518
0.650841
-0.0903065
-0.113314
-1.07808
0.614992
-0.0929472
-0.108986
0.401943
-0.57166
-0.0762383
-0.207932
-0.150124
1.49034
0.889115
-1.21194
-1.04167
-0.201193
-1.00128
0.726913
-0.0244973
-0.531303
2.48121
-0.300836
-0.139075
-0.0826374
-1.36261
-0.0738571
-0.0557467
-0.0464311
0.672255
0.157115
-0.0442483
-0.0787636
0.742445
-0.667778
0.771586
2.05687
-0.115571
-0.129032
-0.163339
0.396275
-0.15973
-0.284869
0.248915
-0.241595
0.0942142
-0.331965
0.913958
-0.0364721
-0.0959718
-0.581697
0.624333
-0.37292
row 94:1.21067
-0.884157
-0.0223732
-0.91197
0.535253
-5.43694
-0.0765073
0.0784668
-1.23793
-0.0651414
-1.65751
0.0115472
-0.05298
-0.0351147
-0.0859606
1.40658
-0.0240077
0.149672
0.587171
1.75145
0.0194621
2.68776
0.0358853
0.0171552
0.479111
-1.00601
1.18472
0.0427008
0.667786
-4.42681
1.66862
1.83676
2.55898
3.4464
-4.92167
-0.0952127
0.0144054
-0.0932576
0.07377
-0.0434489
-1.30546
-0.0492453
-0.335741
0.118569
-0.0329966
-0.138521
-2.1458
0.718849
-1.24986
0.0974669
0.0217365
1.00027
0.0758955
-0.0184192
3.22932
-0.336309
-0.0850911
-0.734644
1.50549
-0.00439511
-0.166892
-1.0871
1.8011
0.719189
row 95:0.560127
1.64449
0.0361286
0.424727
-0.394114
-0.827769
0.492731
0.475186
-0.118776
-0.181081
-0.222704
1.04716
0.0608904
-0.00329339
-0.035698
-0.384024
0.0261848
-0.018836
0.196523
-0.932454
-0.267376
-0.527008
-0.143196
0.787548
0.293971
0.4003
-0.416849
-0.188352
0.242261
-1.00017
0.0427721
-0.691727
0.374781
-0.19212
0.994203
0.0302469
-1.18452
0.0264775
0.0450983
0.337442
0.0196077
0.296316
0.963484
0.0379853
0.804171
-0.161043
-0.0169062
0.131837
0.428669
-0.13456
-0.122702
-0.200284
-0.109496
0.333388
0.678981
-0.384327
0.969379
0.169126
0.469767
-0.162048
0.00230556
-0.53039
0.894118
1.03405
row 96:-0.94583
-0.258865
0.0268794
0.6794
0.580669
-0.997025
-0.0712245
0.282121
0.665757
-0.0326009
-1.59577
0.406714
-0.0506222
-0.142369
-0.584596
-0.71775
-0.0498283
-0.14847
0.157382
-0.838737
-0.2011
-0.208596
0.0774837
-0.409486
-0.157843
-0.137198
1.10117
0.0155086
-0.108551
1.88148
0.116188
-0.936652
-2.24632
-0.632372
-0.564632
-0.115735
-0.17126
-0.211744
0.0502495
-0.146201
-0.0829832
0.711076
1.16793
-0.0918365
0.44018
-0.251871
0.34386
-0.9737
0.536779
-0.0501184
-0.270854
0.0197669
-0.0826143
0.790099
-0.164027
-0.306086
0.725648
1.13917
0.00784774
-0.0367546
-0.0861853
0.700682
-0.136198
0.213257
row 97:-0.964842
-1.0836
-0.0412142
-0.17925
-0.186339
2.85959
-0.469774
0.391491
-1.12593
-0.150719
0.850165
0.157516
0.146559
0.0285771
0.721443
-0.334954
0.0493962
-0.057751
0.310066
-1.55068
-0.100845
0.33865
-0.0277509
-0.751019
-0.673451
-0.186205
-0.0651623
-0.44428
2.01634
0.881217
-0.194903
-0.720948
-0.921779
1.37968
0.849861
-0.0280098
1.09796
-0.0362161
-0.0446336
-0.0806548
-0.00681822
-0.948411
1.17961
-0.171734
0.898705
0.144585
1.17107
-1.77652
1.01149
0.0621433
0.161684
0.578021
-0.0483219
-0.251854
0.00141563
-0.227959
-0.0484747
-1.28048
-0.505741
-0.0958685
-0.029358
1.33683
-0.477835
-2.09842
row 98:-0.323149
-0.453895
0.0323599
-0.279595
0.0620694
3.17122
1.45706
0.386286
0.16797
-0.18048
2.07656
-0.0972505
0.0426177
0.00159662
-1.34139
-0.261854
0.0448569
-0.0638318
0.356711
0.164773
-0.151876
-1.09917
0.0554191
-1.34492
-0.191973
-1.88839
-0.0590489
-0.128522
0.343165
0.562554
-0.711558
-0.846142
1.17838
-7.06015
-1.51572
0.0101194
0.182366
0.0457018
0.0574217
0.0931631
-1.34218
0.486803
0.380566
-0.0502147
1.48735
-1.29225
-1.22329
-0.913519
-0.299233
-0.0493805
-0.27859
0.163456
-0.0242179
0.520274
0.0747204
-0.287019
0.611892
-1.21558
-0.335626
-0.0287179
-0.124604
-3.80419
-0.742716
0.123255
row 99:-1.1924
0.279384
0.00122514
-1.10811
1.38715
-0.501368
-1.09694
-0.171853
-1.11993
-0.137188
0.876984
0.616899
-0.0584486
-0.0483745
0.583095
1.24898
0.021433
-0.367187
-0.420832
-1.04404
-0.252789
0.663899
-0.105447
-0.127623
0.11593
0.679347
-0.651172
-0.312716
-0.424436
-2.0966
0.00323777
-0.837518
-0.646688
0.124747
0.34022
0.0203064
-0.0173672
-0.125757
-0.207158
-0.0444759
0.901562
-0.804052
0.737144
-0.157576
-0.51848
0.0871393
0.141222
2.11725
0.303197
-0.129883
-0.182631
0.0515758
-0.133315
0.0643858
0.450652
-0.271687
0.0757012
-0.125794
-0.0431436
0.00198168
0.00406242
0.367633
0.230243
-0.430901
row 100:-0.702523
-3.06372
0.0194672
1.00979
0.714363
-0.507965
-0.0339405
0.0845137
0.852701
0.0502916
-2.84722
-0.175137
-0.0275788
-0.142527
-0.276453
-0.582657
-0.0715859
0.026347
-0.0784872
0.427265
0.0166677
0.576701
-0.0743462
-0.368582
-0.432567
-1.34775
-0.17164
-0.499495
0.284179
0.0702267
0.397494
0.00100195
1.81311
-0.765425
-9.02606
-0.0575499
0.432623
0.0176203
0.0655558
0.00528463
-8.76838
-0.708985
0.0705279
0.149555
0.294399
-2.87562
0.497712
1.44544
-0.27824
0.0164843
0.139811
-0.0703797
-0.0558663
0.263578
-0.443748
-0.225633
0.422024
0.147641
-0.00799356
-0.0815077
-0.0872377
0.0517238
0.100619
0.1526
row 101:-0.0387336
-0.0466858
0.0205851
0.804633
2.38452
-0.436167
1.03716
-0.0863507
-0.438656
-0.148743
2.19174
2.26463
-0.125086
0.0884646
0.648422
1.62549
-0.103257
-0.00974277
-0.491997
0.423414
-0.0339073
1.66414
-0.12224
-0.454925
0.0361556
-0.730871
-2.61772
-0.142712
-0.0512255
-1.56693
0.33603
0.847974
-0.153994
-0.583236
-2.05359
0.0308498
0.0932005
-0.0640254
-0.0560281
-0.0578253
-0.570545
0.582822
1.0257
0.0173346
-0.662373
0.611732
0.537052
3.38201
-0.365102
0.0372832
-0.0745059
1.0503
-0.222467
-1.47584
-0.420099
0.292609
0.254583
0.852155
-1.32152
-0.0417725
-0.0375115
-0.911756
0.0599665
0.0912608
row 102:-1.51497
-3.17414
-0.126295
0.635062
0.33027
-6.11701
-0.526487
-0.719805
0.562902
0.131948
-3.48938
2.05077
-0.10667
-0.0550693
-0.553398
-2.15233
-0.11991
0.194798
-0.0702494
-3.2538
0.055881
-0.850209
-0.13363
-1.08843
-1.75986
-0.0784782
-1.7664
-0.39102
0.459957
2.21294
1.07301
2.68914
-1.86842
3.15681
-1.86439
-0.132534
0.208834
0.0044765
-0.068991
-0.178508
5.52654
0.758842
-0.201147
-0.0234358
1.45867
-0.881757
-1.62563
-0.281757
0.687069
-0.00988018
-0.0258493
-0.54764
-0.133775
-0.254093
0.469149
0.289587
0.0757204
-0.12154
-3.72661
-0.0248307
-0.126524
2.35529
-0.340473
0.678907
row 103:-0.587164
-0.0764021
-0.0576955
-1.4185
-0.568567
-5.77367
-1.26825
1.70717
1.08852
0.0593355
-0.309772
-1.29118
0.0398866
-0.0308083
0.434514
-0.0541511
-0.0236482
-0.117493
1.10095
4.28193
-0.0986356
-1.29603
-0.168252
-1.74275
0.386423
0.31475
0.140742
0.245539
-1.85226
-1.79659
-2.98621
-6.5802
2.02723
-0.0624712
3.5617
-0.149438
-3.29328
-0.0717915
0.0192199
0.26253
-5.16054
-0.733091
-0.906619
-0.135855
-0.0376251
1.41685
0.848571
-1.11249
0.654928
-0.0730316
-0.00185498
-0.484163
-0.230419
0.667498
2.78063
0.124792
-0.981848
0.0244414
-0.2501
0.134663
-0.070637
1.01334
0.316185
-1.08713
row 104:1.44683
0.264454
-0.00350236
-1.40665
0.719281
2.14578
0.0854503
0.179137
0.152447
-0.158987
-1.12911
-0.633348
-0.201408
0.00284984
0.28119
-0.491575
-0.0141135
-0.107518
-0.133355
-1.30771
-0.185276
0.210216
-0.128969
-0.858367
0.232034
-0.113652
-2.29352
0.0225601
-0.848773
-0.935768
-0.135749
0.420465
0.436769
0.333538
-0.563894
-0.0845877
0.879731
-0.0336238
-0.233765
-0.0548511
0.387067
-1.04947
-0.476982
-0.150282
0.973582
1.50266
-0.46754
1.13214
-0.263574
-0.00217211
-0.0371645
0.377107
0.186058
-0.284755
0.446347
0.0984692
-0.00934571
-0.573985
0.589674
0.0495106
-0.123344
-0.572984
0.0398713
-0.431739
row 105:-1.36714
0.802416
-0.0984922
0.321214
0.248042
-0.377371
0.153159
0.049451
0.0236098
0.0486327
0.203208
-0.0713585
0.0228593
-0.00451828
-0.755265
-1.26394
-0.139162
-0.00239169
0.499295
-0.981109
-0.0921699
-0.559878
-0.0982508
0.0930113
-0.346334
3.17221
-0.728416
-0.182578
1.22528
-1.70247
0.561001
-0.0955485
-0.472089
0.219321
-1.43735
0.0587964
-0.381564
-0.110076
-0.0968871
0.240301
1.19507
1.71528
-1.13248
-0.0246626
0.125539
-2.15574
0.706131
0.389417
0.481394
-0.0164921
-0.142917
0.743013
-0.218225
-1.114
0.958773
-0.316839
0.805845
0.109897
-0.899811
0.0944896
-0.0696852
-0.0887107
0.520298
-0.407873
row 106:-0.184454
0.232483
-0.110283
0.0739825
0.557029
-0.790314
1.3894
0.726183
0.0945225
-0.117956
-2.26708
0.261207
-0.00773023
0.0010895
-0.140215
0.891701
0.0775074
-0.159167
0.122246
-0.485163
0.06547
-0.756272
-0.0150965
-0.314669
0.264962
0.950793
1.47073
0.201199
0.578341
1.68055
-0.647773
-0.818992
-0.243069
-8.24069
1.9644
-0.115441
-0.0859898
0.000125001
-0.0589675
0.137562
0.287682
-0.150171
0.133781
0.123535
0.495404
-0.366853
0.397357
-0.467251
-1.00021
-0.0936399
0.075297
1.66192
-0.0511288
-0.152839
-0.235901
-0.397798
0.252831
-0.147659
0.953501
-0.0156464
-0.029939
1.69746
0.758446
-0.0358028
row 107:-0.28388
-1.27786
-0.0246616
0.771252
0.291773
-0.0873299
0.505788
-0.123382
0.805624
-0.087898
1.01145
-0.0461334
-0.117225
-0.0914712
-1.16443
-2.24038
-0.0340093
0.144231
0.0243238
-0.588972
-0.0174864
-0.134617
-0.124803
-0.752436
-0.0660949
-0.88227
-0.297353
-0.342181
0.0315357
0.602357
0.548672
0.0981439
-1.06664
-0.691172
-2.61025
-0.121654
-0.30184
-0.0211263
0.0621665
0.136033
-6.31552
0.194583
-0.0102724
-0.174434
1.47642
-1.33163
0.0809854
-3.07154
-0.370829
-0.163939
0.074417
0.373015
-0.218156
0.0808514
0.100519
-0.458897
0.303842
0.00154641
0.662242
-0.0702699
-0.131731
-2.12634
0.359462
0.321157
row 108:0.0930668
0.104367
0.0145232
0.0551423
-0.0136086
0.0714169
-0.0679559
-0.123801
-0.00179823
0.055342
-0.0825383
-0.0505639
0.076661
0.0835038
-0.054734
-0.0239359
-0.0225778
0.112148
-0.0449713
-0.0718215
0.013224
-0.0854146
-0.0720987
0.0466586
-0.075307
0.0960314
-0.108269
0.0123898
-0.0211087
-0.0709466
-0.00532595
0.107528
-0.0413043
-0.0111093
-0.0629276
-0.0527691
-0.0179952
0.0166502
-0.0626612
-0.0724326
-0.00952293
0.0125446
0.115065
0.088082
-0.0796528
-0.0690364
-0.0545249
0.0193587
-0.0516403
-0.00288285
0.00569992
0.0578386
-0.030845
0.0538136
-0.118355
0.0675472
0.010716
0.00601607
-0.0604631
0.0970751
0.0878749
0.0817872
0.0217541
-0.0665021
row 109:0.0550958
0.10343
-0.060205
0.470763
0.600224
0.0477314
-0.330626
0.833452
0.642109
0.0115458
2.05539
0.99573
-0.128698
-0.0788317
0.344282
-0.492014
-0.018098
-0.0730173
0.436506
-0.51912
0.000800649
-0.399934
-0.195412
1.19341
-0.0144621
0.801106
0.796694
-0.228712
-0.172517
-0.78196
0.0517879
0.951567
0.0941983
0.469857
-0.322645
0.0138285
-0.478381
-0.162389
0.0426249
-0.0842546
0.557585
-2.55438
-1.02241
-0.07957
-1.09157
-0.645271
1.114
-2.54531
-0.841497
-0.0200803
-0.183713
-0.580214
-0.176702
0.40351
-0.144014
-0.247192
0.0523257
0.341671
0.74686
-0.122884
-0.0433419
0.761443
-0.401603
0.0600637
row 110:-0.145875
1.55497
0.0927445
0.394964
1.01665
-1.42273
-1.38178
0.759159
0.178775
-0.127778
-0.118353
-1.1315
-0.0705785
-0.0689962
0.272323
-2.93112
-0.14457
0.29176
1.80502
2.39222
-0.072642
-1.72591
-0.12117
-1.08761
-0.183079
-0.104688
-0.669253
-0.104531
-0.995188
0.0839407
-0.929367
-0.654644
-0.203866
1.1744
-1.36507
0.0918386
1.07697
-0.206438
0.042131
-0.0117311
0.437632
-0.114308
-0.920943
0.268023
-2.2656
0.994504
-0.116462
-0.0154415
0.526043
-0.0760461
-0.0635443
-1.54554
0.248269
0.5641
0.730848
-0.260181
-1.1086
1.73918
-0.888499
0.0220898
-0.162112
-1.73378
1.90319
-2.11451
row 111:1.40667
-1.11055
-0.0148843
0.0636005
0.422957
-0.27049
-0.771044
-0.905837
0.190506
-0.0734076
1.17133
-0.0467542
0.0301453
0.0170574
0.256553
-0.450796
-0.0136912
-0.16279
-0.768737
-1.28784
-0.132299
-0.558527
-0.070015
0.817512
0.593532
0.665311
0.478693
-0.171961
0.249378
0.53148
0.891008
0.818672
-0.940212
-0.0780215
1.56928
0.0413072
0.299068
-0.174985
0.0181176
0.356756
0.305084
-0.364099
-0.127159
-0.0803912
-1.02811
0.931321
-0.722668
-0.588424
0.683475
-0.130748
0.0340814
-0.0162358
-0.24345
-0.64122
-1.0414
-0.203163
0.153006
1.30582
-0.223182
0.00458963
-0.040017
-0.209518
-0.263997
0.398442
row 112:0.614324
-1.28665
0.0365003
-0.384808
-0.0244641
-0.691778
-1.11909
-0.500258
-0.561558
-0.24133
-1.00612
-0.11419
0.0414504
-0.0477054
0.542048
-0.0640127
-0.112916
-0.396616
0.109975
-0.985005
-0.195662
0.0352483
-0.109581
-0.417559
-0.465117
0.183423
0.683468
0.0402669
-0.698154
0.387392
0.713989
-0.189654
-0.756301
-0.459483
-0.395476
0.00124975
1.16396
-0.00376929
0.088726
-0.171942
-0.421011
-0.399123
0.368722
0.0286652
0.0483524
-0.442124
-0.783059
-2.21874
-0.0581733
-0.0601571
-0.132491
0.595588
-0.0510857
0.135841
-0.622455
-0.236312
0.221204
0.143023
-0.346169
-0.165683
-0.215809
0.462674
-0.91141
0.172509
row 113:-1.12058
1.5485
0.045068
-0.680234
1.58705
3.27025
-0.802936
0.259433
-0.543519
0.029735
0.193743
-0.539405
0.07276
-0.0425288
-0.403803
1.12768
-0.0445513
-0.211649
0.24666
-1.35224
0.00588525
1.20878
-0.00749453
-1.54416
1.12727
0.371293
0.204606
-0.455135
-1.31033
-0.805043
-4.06995
-0.169415
0.468163
2.39566
1.93536
-0.0317233
0.664207
-0.0713209
-0.0442971
-0.21018
-0.92292
0.41745
-0.311083
-0.0734916
0.802827
-0.30941
0.430579
-0.578247
0.164616
-0.127514
0.170138
0.45336
-0.203714
-0.170876
-1.12692
-0.32364
-0.299996
0.0699055
0.632223
0.0441961
-0.0253599
-1.92428
0.439459
-0.669138
row 114:2.54362
-0.756378
-0.0220738
0.715808
0.567932
-1.83251
0.480855
0.976664
1.02483
-0.0925004
0.420207
-0.467942
-0.0462941
0.0780453
-1.74448
-1.57901
-0.106559
-0.394296
-0.0790346
-0.334232
-0.186954
-1.21691
0.0752683
0.485057
-0.313203
-0.0461056
0.0126301
-0.0653462
-1.14926
1.24828
0.401364
0.393259
-0.835456
-3.88015
-1.48993
-0.05359
0.82544
-0.0546321
-0.155933
-0.00201152
-0.492292
0.855994
0.43531
-0.202657
0.218635
0.0867216
0.211504
-2.65847
-0.233206
-0.0213261
-0.176899
0.60583
-0.26648
-0.958328
-0.991176
-0.184644
-0.438661
0.704593
-0.352709
-0.127169
-0.0810748
-1.00696
0.921768
-0.51791
row 115:0.241219
0.0397736
-0.0639995
0.297587
0.940031
-0.219722
0.56375
-0.809137
0.108909
-0.181236
0.763231
0.0948453
-0.0077971
-0.0780811
-0.0647622
0.549179
-0.0883305
-0.334614
0.273418
-1.90059
-0.314302
-0.647726
0.00741412
-0.307688
0.381437
-0.630428
0.0888374
-0.209196
-1.37927
1.86731
-0.171405
-0.540729
-0.0297335
0.0657718
0.459422
-0.0373555
1.04883
-0.115295
-0.190826
-0.132432
0.123318
1.01331
-0.112645
-0.251415
-0.305771
0.670449
0.216843
-0.47158
-0.431227
-0.117597
-0.0058421
-0.758902
-0.0292086
0.0204208
-0.931379
-0.320143
0.6663
0.722884
-0.0556183
0.0120723
-0.101182
1.34522
-1.25916
0.157542
row 116:-0.26564
-1.39992
0.0413574
0.402663
-0.291556
0.197433
0.0680048
-0.259382
0.657048
-0.0661622
0.698832
-0.463494
0.111201
0.10565
-0.202314
-2.52405
-0.107895
-0.299536
0.221596
-0.300041
-0.0956558
-1.00484
-0.145372
0.546075
0.191306
-0.109058
0.216262
-0.240399
0.0236064
-1.41739
-0.236429
0.23881
-0.669263
-9.63575
-9.80194
-0.0740795
1.05612
0.0676715
-0.0308522
0.0793938
-9.87276
-0.338903
1.26571
-0.129406
-0.335449
-0.773248
-0.896871
2.04685
0.115751
-0.00298668
-0.109298
-0.163264
-0.105073
0.109215
0.534874
-0.00927875
0.305677
0.493913
-0.476326
-0.179335
-0.0382846
0.0961382
0.658542
0.0181368
row 117:0.371005
1.01935
-0.122489
0.0236132
2.33527
0.463857
1.83674
-1.00646
-1.25792
-0.00689047
-1.21623
0.899223
-0.100647
-0.0584427
-0.583859
0.660035
-0.159233
0.236281
-0.223182
-0.773053
-0.0219824
-0.608326
-0.143119
-1.4101
0.118508
-0.936575
-0.876206
-0.0592227
-0.449223
0.233983
0.292414
-0.565055
-1.28664
-2.16989
-0.316712
0.0938726
0.0252136
0.0478574
0.0303337
0.0619201
-0.275089
-0.790624
-1.15077
-0.108639
-0.589814
0.24315
-1.39647
1.38768
-0.975672
-0.0724664
-0.0806002
-0.412448
0.154822
-0.58277
-0.407941
-0.222226
0.555591
-0.64531
-1.004
-0.0825283
0.0349947
-1.33507
0.653696
-0.185953
row 118:-0.291165
-1.63349
-0.162624
1.41282
-0.538679
-1.54704
-0.033715
0.0674296
1.12092
0.0228143
-3.30096
1.7757
0.0169795
0.0750072
-1.84187
-0.911981
-0.105696
-0.199467
0.687516
-1.70994
0.0101723
0.855844
-0.0123071
-3.44116
-2.0097
-0.597561
-4.30516
-0.355804
0.727364
4.64376
-1.11224
-1.86115
1.61957
-3.40767
-2.16164
0.112573
-0.636339
0.0957268
0.0449046
0.205281
-0.216195
-1.27428
1.31301
-0.153921
-1.21444
0.192066
-0.303339
-2.51412
-0.321777
-0.0713649
-0.17506
0.76877
0.147201
0.760043
-3.13386
-0.0779458
0.420877
-0.800514
-0.95351
-0.0396369
-0.0210403
-0.874139
0.952172
1.91679
row 119:-1.08626
0.174382
0.0682121
-0.515812
-0.514957
-2.61038
2.06642
-0.255091
0.166318
-0.0277525
0.520623
-1.77448
-0.0777883
-0.0649449
1.15481
-1.25534
-0.0669184
-0.133423
-0.508102
1.61607
-0.0202896
-0.796628
0.0167354
3.68937
0.224002
-2.74803
-1.13559
-0.0143959
0.614873
-3.746
-0.813011
-6.05839
-0.223595
4.0908
-6.26187
0.0755954
-0.427849
-0.0528417
-0.0795033
0.0902812
-1.69554
0.955239
-0.62377
0.00884143
-0.559563
-2.24093
-0.700069
-2.85927
-1.01137
0.106768
0.0536896
0.0604942
-0.124986
-0.734928
2.35172
-0.0371196
-2.2326
1.83956
0.352187
0.0121318
0.085669
-0.0402074
0.798531
-1.63014
row 120:1.18969
-0.00800358
0.0269227
-0.188892
-0.320798
1.32614
0.504249
-0.659451
-0.480796
-0.157203
-0.369832
-0.122311
-0.0444559
0.0485245
-0.589783
0.343432
-0.05693
-0.289694
0.920561
-0.651016
-0.25636
-0.663468
-0.0819501
0.409039
0.581036
0.672049
-0.37375
-0.126296
0.269279
0.44135
-0.304436
-0.043017
-0.557448
-0.0815933
-0.715122
-0.121592
-0.306787
0.00323603
-0.0793201
-0.0050242
0.0150736
0.980581
-0.62813
-0.102943
0.445317
-0.483826
-1.0561
-3.66078
0.0795432
0.025378
-0.140731
0.0322975
-0.306583
0.351487
-0.0021086
-0.156958
0.235848
-0.184059
-0.484233
-0.139057
-0.124552
0.101976
0.970751
-1.09907
row 121:-1.71846
0.659539
-0.00434668
0.651328
0.934385
0.779244
0.91721
0.0943618
-0.477894
0.122519
0.291758
-0.18734
-0.04437
-0.0122618
0.596683
-0.387958
-0.128117
-0.0387133
0.850337
1.33364
-0.119231
1.13236
-0.0896125
-0.403379
-0.296059
0.318282
-0.279945
-0.0397062
0.354812
-1.92994
1.10369
0.824155
-1.74825
0.25078
0.881594
0.0751773
0.850017
-0.112722
-0.0293504
0.0441517
-0.247124
0.627132
0.438292
-0.131279
0.366492
-1.0414
1.96871
0.51214
0.365572
-0.131589
0.0952351
-0.181074
-0.131446
0.189606
-0.238026
-0.133619
0.72636
-0.0133681
-0.829526
-0.105965
-0.167269
0.583445
-0.708916
-0.279302
row 122:0.588141
0.0298213
0.0916364
-0.405343
-0.992161
-0.229742
0.766384
-0.530856
0.132712
0.107012
-3.95801
0.316705
0.0461337
0.0890099
-1.8387
0.321958
0.0327733
-0.0884096
0.395822
0.126163
0.0395775
-0.00421296
0.054977
0.761739
0.257662
-1.86213
0.37895
-0.0452988
0.0176892
0.854306
0.992804
0.935816
-1.3324
-6.59874
-3.59958
-0.0928128
0.716591
-0.0259382
0.075566
-0.155515
0.854447
-0.574772
-1.35421
-0.0645483
-0.161381
-0.794881
0.368862
0.700917
-0.118701
-0.132641
0.00465068
-0.480728
-0.129684
-0.0302956
0.415992
-0.12048
-0.519879
-1.24979
-0.544093
-0.133098
0.00488061
0.225979
-0.975245
0.566107
row 123:-0.618341
0.466836
-0.0073429
0.0910853
0.530587
-1.64984
0.118461
0.722582
1.33267
0.0846476
-1.48978
-0.195868
0.0114724
-0.0326154
-0.395391
-1.46312
-0.0859269
-0.185648
0.443492
-0.345913
-0.162986
0.245059
-0.00776995
0.0697235
0.0852008
-0.505717
0.0669963
-0.123073
0.945732
-0.51553
0.686574
-0.699274
1.21452
-1.33442
-2.82481
-0.0632333
-0.239367
-0.0756555
-0.0888238
0.124976
-9.8985
1.23628
-1.20551
0.0652891
-0.196039
0.846052
-0.193798
-2.3564
-0.332312
0.0305962
-0.214837
0.61181
0.0932324
0.0816927
-0.181085
-0.326039
0.781324
-0.624945
-0.388923
0.0114028
-0.096246
-0.868444
0.157305
0.584837
row 124:-0.109322
0.104708
-0.0884119
0.00533152
0.0508602
-0.108361
-0.0242681
-0.037617
0.0987824
-0.0335904
0.0230815
-0.103399
0.00833205
-0.108872
-0.00338635
-0.109905
-0.00453482
-0.0181886
0.0389738
0.0895598
-0.0142203
-0.00307017
0.0059936
-0.0145718
0.0847938
-0.09717
-0.0252067
0.0202615
-0.0862944
0.100528
0.098375
0.0652044
-0.123062
-0.0149761
-0.062425
-0.0487306
0.126642
0.106109
-0.00100615
0.0354961
0.116001
-0.00220842
-0.112204
0.101244
-0.0502006
-0.101641
-0.0316786
-0.0152889
-0.0422314
0.029677
0.081083
0.106172
0.0554104
0.026222
0.0246276
0.0263151
0.00293989
-0.0826547
0.0481878
-0.0573124
0.0644375
-0.0276417
-0.0243812
-0.00472323
row 125:-0.615265
0.724043
-0.067042
1.4865
1.06708
0.760204
0.111528
-0.532578
0.557687
0.0322552
-0.498722
0.943172
-0.0691086
-0.0326665
-0.718196
0.948778
-0.171514
-0.174737
1.11727
-0.0568038
-0.233809
1.04729
-0.0104293
1.0785
0.857554
0.0818241
0.0677692
-0.28753
0.979351
0.572376
-0.0172464
0.61035
0.252885
0.618446
-0.910375
0.051751
-0.636432
-0.207499
0.0669235
-0.121621
0.747356
-0.726291
-0.418523
-0.00863489
0.0950159
-0.777255
-0.405593
-6.92537
0.269828
-0.103566
0.190575
0.431121
-0.253913
-0.303742
-0.862393
-0.533643
0.684462
-0.29372
1.38235
0.0327555
-0.0311214
0.648586
0.407763
0.877012
row 126:0.31417
0.262238
-0.0929516
0.172879
0.0746961
-2.30987
0.940308
-0.21442
-0.972587
0.0066304
1.25844
-0.579178
0.0262816
-0.0988955
0.532271
-1.82232
0.0788622
-0.000505189
-0.366969
2.42103
0.0324804
0.484169
-0.0597712
0.440292
0.625908
1.83391
0.92609
-0.306881
0.700887
1.32489
0.0820296
-0.286458
-1.13601
5.45629
-1.41366
0.0170464
0.0369973
-0.194853
-0.00553674
-0.100557
3.68072
0.799932
1.27672
0.181843
0.062983
0.843941
-0.738215
-3.90649
-0.439254
-0.15019
-0.103025
2.70933
0.0464041
0.731735
4.29586
-0.226139
0.497913
0.873586
-0.205009
-0.0769404
0.0158754
-2.06209
2.3844
-0.275073
row 127:-0.65086
-0.374411
-0.135427
-0.351695
2.63165
-0.41801
-0.28401
-1.22899
-0.0660599
-0.0498127
0.417975
0.60949
-0.0238049
-0.104224
0.480818
0.0346375
-0.0836501
-0.0925635
-0.276802
-1.276
0.0121164
-0.256389
0.0577561
0.141291
-0.0453493
-0.023823
-0.0543474
-0.453749
-0.134852
0.569184
-0.198403
-0.0794376
1.5182
0.305236
1.70636
0.0205493
0.0796439
-0.105497
-0.0789474
-0.224074
-0.127188
0.392112
0.220844
-0.109711
-1.33612
0.39533
0.979254
0.276292
-0.890487
-0.100966
0.00692064
-0.0198658
-0.286039
0.257046
-1.13646
-0.281945
0.672966
1.09896
-0.595839
0.0235803
-0.177474
-1.18825
0.311775
-0.272116
row 128:0.260432
-0.648157
0.0800154
-0.0161963
0.392378
-0.117281
-0.47857
0.44706
-0.344468
-0.254624
-1.38737
-0.404376
0.00686191
-0.0289026
0.184051
-0.376246
0.0542694
-0.239548
0.923907
0.0773689
-0.260473
-0.714698
-0.120977
0.13512
-0.39198
-0.383618
0.453591
0.0476246
0.280094
-0.0594848
-0.550144
-0.033061
-2.99256
-0.709058
-0.773439
-0.051387
0.297528
-0.096859
-0.054709
-0.195281
-0.489584
-0.856795
-0.567507
-0.103878
-0.13091
0.974963
-0.122517
-1.218
0.248505
-0.0849204
-0.300213
0.039655
-0.162092
-0.0885723
-0.444988
-0.200048
0.0827823
-0.60985
-0.470524
-0.13153
-0.105192
0.831044
0.10144
0.270739
row 129:0.851579
-0.103542
0.0452317
-0.473733
0.604645
3.14687
-1.09138
-0.862179
-0.751597
0.0474811
2.35115
-0.229328
-0.0916895
0.0880492
-0.0118444
0.139219
-0.0483645
-0.0829318
-0.413945
-0.213461
0.00919027
-0.75209
0.0128681
0.530792
1.88903
0.0615362
-0.166504
-0.306202
-0.203424
1.31868
-1.05284
-0.322125
0.105071
2.59031
2.15736
-0.0702975
-0.17905
-0.0537225
-0.0276066
-0.244632
0.25483
0.411835
-1.95338
0.0745869
0.822981
-0.590472
-1.27294
-1.87435
-0.31563
-0.0866466
-0.0481545
-1.3255
-0.254887
0.673597
0.195774
-0.338383
-0.256424
-0.469808
-1.02531
-0.0922282
-0.0859517
1.11699
-0.00695955
-1.96631
row 130:-2.259
-1.77208
-0.113987
-0.122251
-0.203986
0.780602
0.281959
-0.0618231
0.319312
0.0383945
2.78272
0.564564
0.0181961
-0.00338432
-1.4648
-0.324651
-0.119826
-0.394482
0.307824
-0.43117
-0.157728
-1.70613
0.0360224
-0.812495
0.0751024
-1.17868
0.069329
-0.0636875
-0.850941
0.0326892
0.422685
1.33376
-0.984691
-3.36814
-1.08782
-0.103444
-0.164876
0.0299531
-0.114839
0.115476
-0.0866542
1.28553
-0.368987
0.0640003
1.19417
0.585768
2.33308
0.487429
0.0753434
0.0663558
-0.154922
0.691932
-0.102116
0.452538
-0.147224
0.110312
0.862364
1.15704
0.575199
0.0368527
-0.149243
-2.30733
-0.547116
0.656443
row 131:-0.413727
0.986663
-0.034063
1.01302
0.206663
-0.39699
0.0399095
0.648889
-0.77495
-0.103535
0.353041
-0.353837
0.0295601
-0.107816
-0.28699
0.529845
-0.153241
-0.179794
0.136519
-0.066672
-0.331725
-0.272118
0.0245686
0.255706
-0.416608
0.248038
1.03337
-0.216392
-0.278097
-0.0898665
1.19837
0.162403
0.278363
0.328605
-0.109793
-0.0689827
0.113408
-0.243452
0.000890543
-0.252301
0.715314
-1.19945
-0.891752
-0.194433
-0.24122
-1.03367
0.317963
-1.07032
0.486816
-0.0757533
0.0281804
0.0432818
-0.177016
-1.65238
-0.891291
-0.406732
0.226762
-0.153041
0.0581328
-0.145768
-0.15239
0.0185477
-0.232856
0.954106
row 132:-0.357847
-0.437896
0.0249012
0.655208
-0.444724
-0.377511
0.30191
0.551711
1.5072
-0.130418
-2.2177
-0.626544
0.037377
0.048262
-0.00640088
-2.76201
-0.0393569
-0.226725
-0.0615736
0.400296
-0.153772
0.26461
0.046735
-0.488237
-0.22153
-0.352427
-0.904749
-0.22426
1.15222
-1.97241
0.185315
-0.0308546
-2.08541
-2.46342
-2.91201
0.040415
0.528191
-0.102283
-0.0562944
0.127307
-10.7476
-0.417981
-0.0489292
-0.127247
-0.103687
0.174592
0.151782
1.79636
0.183146
0.0872564
-0.0935654
0.117642
-0.198151
-0.19367
0.0737365
-0.0783231
-0.142061
-0.889337
0.324163
-0.0749217
-0.12764
-0.68269
0.110741
0.0648704
row 133:0.558063
-0.582996
-0.00197612
-0.136454
-1.78768
-1.14315
-0.272252
1.18988
0.241507
0.0798952
-0.04855
2.58374
-0.0611849
-0.0210005
-0.0258569
0.590742
-0.0127255
-0.130723
-0.376354
-0.569605
-0.103239
0.197044
0.0517528
-0.554463
1.26412
0.326078
0.578492
0.117532
-0.130467
-0.145566
-1.20744
-0.500161
-1.30704
-1.19495
-2.89328
-0.0596429
-0.7468
-0.0711387
0.0333707
-0.20107
-0.0695688
-1.46318
2.48141
-0.100516
-0.867668
0.358256
-0.68395
1.63644
0.861098
0.101554
-0.224156
-0.924096
0.201814
-0.0330407
-0.380346
-0.250803
-1.12818
-1.66217
-1.89402
-0.117752
-0.100809
-0.26258
0.710501
0.108588
row 134:-0.538892
-3.27058
-0.00757277
2.22648
1.46975
-0.904751
0.0486041
1.26476
0.795065
0.00391407
0.928234
2.78171
-0.0250998
-0.0232741
-1.41925
-0.83359
-0.134698
-0.286216
0.753099
-2.05541
-0.269965
-3.41985
-0.043987
-3.57129
-3.26891
2.00833
0.288225
-0.059433
1.87762
2.13291
1.72437
0.799746
0.210233
-0.0706823
-2.11793
-0.0301935
-0.302313
-0.13706
-0.0413179
0.190425
2.17035
-1.86542
-0.322522
-0.0617387
0.837197
-0.502455
-0.422576
1.42447
0.816898
-0.0630313
-0.0913029
0.206231
-0.0763976
0.845744
-2.57558
0.0332789
0.496226
-0.335398
-2.48776
-0.132748
0.0742037
0.21336
0.344953
-0.0558625
row 135:0.976834
-1.9563
0.083742
-0.907499
1.35299
-2.90999
-0.884342
-0.597362
0.414852
-0.0153798
1.0042
-0.783773
0.0104761
-0.0508912
-0.245095
1.78593
-0.0318981
0.0476795
0.492291
2.24005
0.0201568
0.107944
0.0207016
1.0834
0.983133
-4.16429
-1.26653
-0.0359416
0.319446
1.3353
0.386913
-5.70117
1.01389
-5.12762
0.983541
0.0657613
-0.0662787
-0.0365771
0.0391873
0.199491
0.553123
-0.977198
-0.897373
-0.0102108
0.774148
1.25674
0.0224643
-0.580365
-0.26449
0.0591986
-0.0156128
-0.54356
-0.170437
-0.155005
2.95039
-0.0401877
-1.79201
1.44478
1.09014
-0.0814023
-0.0863134
0.0466149
0.883571
-0.063684
row 136:0.132485
1.52639
-0.164437
-0.802912
1.08444
1.57138
0.154373
-0.36683
0.0416401
-0.183585
0.47256
-0.35071
-0.0610747
-0.0439603
0.178866
0.876425
-0.0223955
-0.299998
0.789358
-0.230586
-0.198087
-2.33017
-0.0254993
-0.342482
0.179712
-0.116468
0.85941
-0.0763518
-0.218968
-1.2833
0.154035
0.849779
-0.184442
0.0118271
-1.63836
0.100591
-0.0290737
-0.00767513
-0.248317
-0.10103
-0.196653
-0.721843
-0.538099
-0.130756
0.607418
0.694374
0.978584
-0.474437
0.121533
-0.0365043
-0.176622
0.149356
-0.137428
0.471256
-0.781765
-0.0895471
-0.452436
1.03682
0.171992
-0.00734259
-0.0375003
-0.0801536
-0.20394
-0.151804
row 137:1.23923
-0.983065
-0.106856
-0.860268
1.00333
1.00767
0.705743
-0.164398
-0.734363
-0.150059
-1.54355
-0.355619
-0.0575238
-0.0303216
-1.98642
-0.798104
-0.103182
-0.222226
0.549332
0.204775
-0.0502036
2.69389
-0.029054
-0.232248
-0.590121
2.30763
0.83312
-0.0967354
2.62877
-2.29855
-0.784853
-0.0495472
1.65981
0.344197
-0.307468
-0.056147
-1.47636
-0.0170479
-0.0385085
-0.0545175
-0.638977
-0.201995
0.0313279
-0.137085
0.364997
2.68837
-3.74692
3.53378
0.217791
-0.0438967
0.207922
-0.219667
0.0340888
0.115254
0.494829
-0.0962557
0.512461
0.435709
-0.910397
-0.0627034
0.0294004
-0.40523
-0.480227
-0.0121478
row 138:-0.807101
0.465835
-0.0855836
0.419438
1.52697
2.33854
1.29989
0.539435
-0.345883
-0.117506
0.490275
-0.152863
-0.00249537
-0.0321683
-1.15315
0.38693
0.0422633
0.18663
0.327382
0.203258
-0.0523119
0.32347
-0.0228538
0.0509121
-0.301432
0.865582
0.0601376
-0.12419
1.35211
0.22813
-1.13676
0.710348
-0.551116
-12.1691
-1.13123
-0.0415046
0.126547
-0.0567758
0.0350544
-0.216001
0.891401
0.265213
0.447988
-0.0168407
-0.721749
0.140838
-0.475983
0.745231
-0.435155
0.0152053
-0.0984995
0.460894
-0.16445
0.250368
0.0464997
-0.179413
0.726417
0.0614505
0.04703
-0.02436
0.0584711
-0.540399
-0.4785
-0.537791
row 139:-0.369707
-1.16983
-0.0553268
-0.455057
0.323323
0.568107
0.389068
-0.642112
0.905571
-0.195049
-2.1164
-0.278315
-0.0861176
0.0670016
-1.29818
-0.975395
-0.0594668
-0.337937
0.387954
-0.603313
-0.182215
-0.19082
-0.0585336
-0.138481
-0.521362
0.12114
0.167501
0.0221806
0.192083
-0.615582
0.484019
0.706516
0.0968889
-3.73275
-2.76575
-0.123267
0.499516
0.0547436
-0.0141308
-0.081711
-9.82946
-0.596629
-0.692154
0.0511694
0.590919
-1.87224
-0.356139
1.76852
-0.42076
-0.0135207
0.101164
-0.779466
0.167183
0.0225928
0.39094
-0.357801
-0.157837
-0.874346
0.174341
-0.15861
-0.0331347
0.787751
-0.0569657
0.192363
row 140:-0.0229922
0.000902279
0.0168021
0.0636935
0.117
-0.0661506
-0.0525726
0.0443451
-0.0354747
-0.102887
-0.0282253
0.0443096
0.0118065
0.0367906
-0.127059
0.065259
0.0346599
0.0294141
-0.0200816
0.071239
-0.00944797
-0.00914746
0.0103678
-0.0981119
0.0901361
0.0465727
0.0110113
-0.0248234
0.0222709
0.0505125
0.0664557
0.0282617
0.0959361
-0.0700041
-0.0828196
0.0972989
-0.128021
-0.049574
0.0434631
-0.0359774
-0.093399
0.109149
0.0281598
0.0196636
0.0372626
0.0422759
-0.0940487
-0.106919
-0.0587279
-0.0999648
-0.0390724
-0.0426085
-0.0991649
-0.0269619
-0.107107
-0.059147
0.0731406
0.0241312
-0.0669273
0.0221995
0.0426208
0.0912677
-0.0510054
-0.113804
row 141:0.81038
0.200621
0.102611
-0.441754
0.895146
0.318161
1.31854
0.0378811
0.830867
-0.067113
0.208207
0.984606
-0.122264
-0.0414831
0.838034
-0.50031
-0.0897096
-0.0775023
0.940387
0.649351
-0.214884
0.403008
-0.176092
0.885221
0.26655
-1.30349
0.634826
-0.242872
-1.33309
0.249087
-0.040979
0.478171
-0.872593
-0.0836609
-0.922971
0.0564635
-1.23626
-0.0554678
-0.0980338
-0.087092
0.233217
-2.01269
0.00862494
0.128531
0.39454
-1.24404
0.248338
-0.69948
-0.779142
-0.0376349
0.0807554
-1.22043
-0.189471
-0.64974
-0.679132
-0.278784
-0.426351
0.20855
0.780981
-0.161308
-0.036441
-0.428746
0.142829
0.749572
row 142:-1.19939
-2.17387
-0.139921
-0.651703
1.11614
-1.01895
1.28774
-0.117729
-1.00448
-0.00779051
0.376092
-0.432943
-0.0165571
0.00122994
0.489103
3.32469
-0.10569
0.0457733
2.11929
1.28688
0.0714038
-0.0460895
-0.0440154
-0.077637
0.0230015
-1.93703
-3.03036
-0.300449
0.450555
0.453938
0.473641
-1.01235
-1.52854
6.33238
-1.32905
-0.00820319
0.997869
0.0522762
0.00337529
-0.0225012
-3.91405
0.853788
0.544187
0.152437
-0.260406
-3.44084
-0.512396
1.53938
0.135839
-0.0291006
-0.126926
-0.428358
-0.274349
-1.17895
0.598385
-0.400999
-1.44876
0.962049
1.21052
-0.117543
0.0249383
2.27631
-0.591979
1.58805
row 143:-0.994188
0.0942739
-0.00890648
-2.14593
1.09218
-0.957253
0.114254
1.34804
0.97761
-0.208294
1.1955
1.68796
-0.131783
0.00977924
0.628048
-1.6029
0.00805398
-0.0137532
0.629925
-1.43589
0.0503184
0.331126
0.0974183
0.428728
-0.807302
-0.028932
1.25942
-0.345406
0.825164
0.373799
-0.525576
0.592512
0.174616
0.0265613
1.8087
-0.104443
-0.127814
-0.0915394
-0.0665859
-0.0685593
0.621871
0.848486
-1.51046
-0.191839
0.556275
0.392181
0.450211
-0.211137
-0.0361104
-0.0219063
-0.0623993
-1.1133
-0.0989453
0.0313705
-1.1022
-0.260415
0.0536474
-0.0436923
-0.357481
-0.0165287
-0.0779276
1.00006
0.852803
0.469677
row 144:0.0213509
0.175682
0.00266606
-0.227787
0.893419
-0.0234116
-0.289947
0.613046
-0.248
-0.226777
0.636644
-0.251518
-0.00863085
-0.165975
0.805108
0.834668
-0.119938
-0.308247
0.374359
0.162688
-0.106782
-0.136815
-0.0923465
0.288562
-0.341699
0.249664
0.714002
0.0116851
-0.183737
-0.434473
0.0144663
-0.297349
-0.397153
-0.715297
-0.358778
-0.13059
0.0508767
-0.128999
-0.0940473
-0.151998
-0.543101
-0.0757874
-0.300926
-0.128254
-0.511107
0.285453
0.385227
-1.41048
-1.42881
0.049576
-0.195468
-0.902974
-0.246324
-1.21107
-1.46887
-0.240728
-0.401027
0.106506
0.160022
-0.124539
-0.106527
2.26787
0.335125
0.744775
row 145:0.711891
-0.84986
0.0568761
0.196453
1.50298
2.37837
1.15025
-1.52653
1.08975
0.0348157
0.922057
-0.397857
-0.0358956
0.00552349
0.729892
-0.42865
-0.0529556
-0.0408858
0.534067
-1.28455
-0.0775682
-1.63571
-0.118284
-0.834619
0.391091
-1.21806
1.86679
-0.129851
-0.543866
0.45189
-1.86556
0.420087
-0.850041
2.45932
1.8034
-0.128159
0.369444
-0.142544
-0.0445915
-0.183504
-1.46561
-0.680111
-0.131779
-0.122059
0.130772
-1.14507
0.453943
-0.914665
0.163245
0.0857234
-0.0558175
-2.67917
-0.0883541
-1.77378
-0.128882
-0.538515
0.343074
-0.15989
-1.26576
-0.142031
-0.0511381
1.14382
-1.12199
-2.94874
row 146:-1.78251
-1.06196
-0.096717
0.571948
0.91567
-0.914311
0.49447
0.035586
1.41192
0.0214373
1.06454
-0.395938
0.156987
-0.124755
-1.22241
-0.42557
0.0189093
-0.145917
-0.259191
0.146047
-0.0458406
1.5677
-0.0950082
-0.26887
0.387102
0.516922
0.499569
-0.339766
-0.350887
-1.6753
-0.186734
-0.457959
-0.556232
-7.80987
3.69695
-0.0144597
0.482137
-0.104547
-0.0272108
-0.0252257
-0.967449
-0.0200734
0.519424
0.00757594
0.429519
0.182536
-1.21574
-0.776914
-0.601725
-0.100003
-0.136423
0.818268
0.157764
-0.435861
0.0480816
0.182237
0.676536
0.302344
-1.01657
-0.0417095
-0.171273
-1.00525
0.965077
0.0756369
row 147:0.571125
0.517424
0.118157
0.476956
0.691967
-1.12433
0.22807
0.243651
0.838132
-0.167821
1.43189
-0.446904
-0.0949055
-0.00452723
0.845276
-0.03402
-0.117872
-0.284434
0.709779
-1.05871
-0.133017
1.16498
-0.0654925
0.285212
-0.312485
-0.102138
0.964667
-0.0960059
-0.176514
0.859884
0.445858
-0.533186
0.852284
0.122736
-0.512351
-0.00600451
0.157732
-0.219072
-0.13182
-0.0673142
0.591405
1.62653
0.760462
-0.262291
-0.930428
1.11901
-0.280291
0.452188
0.98346
-0.0786186
0.0839607
-0.0101166
-0.0300839
-0.927696
-0.543463
-0.44408
0.399287
0.148252
0.777563
-0.120022
0.00710779
-0.0701658
-0.68526
-0.0170836
row 148:-0.605051
0.288648
-0.15807
-0.55855
0.0819071
0.221264
-0.965687
0.14993
0.677808
-0.103174
-0.199707
-0.211017
-0.0871594
0.0732562
-0.436538
-3.55694
0.0959
-0.220278
0.312182
-0.372151
-0.180017
-0.904543
-0.114695
-0.395864
-0.184173
-1.01302
-0.0872042
-0.289325
-0.0643686
-6.29206
-0.0654403
-0.289276
-1.41717
-6.5591
-1.88218
0.0242482
0.834742
0.0844393
-0.0335004
0.0293336
-11.4654
0.574101
0.613371
-0.119428
0.213732
0.151151
0.444312
-3.34362
0.492657
-0.0611706
-0.0264965
-0.0577718
-0.139896
0.347222
-0.00715211
-0.116244
-0.123435
-0.184704
-0.386811
-0.100477
-0.175197
-1.05531
-0.477565
-0.285098
row 149:-1.66666
2.48742
-0.0717251
0.42325
1.38913
-0.82683
-0.975517
0.251486
-0.084636
0.0483611
-0.187782
1.99318
0.14521
-0.143708
-0.499932
-0.0498633
-0.0518475
-0.275112
0.531872
0.402821
-0.00803593
-0.792748
-0.131916
-0.817132
-0.806671
-0.281377
-1.30762
0.184259
1.29896
1.62943
1.51027
0.450224
-0.0826659
-1.63917
-2.37423
-0.0833291
0.66868
-0.144471
-0.0882843
-0.116644
0.804796
-1.59433
-0.681265
0.0666083
0.152373
0.543552
-0.0341476
0.531855
0.104067
0.00414394
0.0800617
0.413722
-0.17271
-0.134778
0.706115
0.123802
-0.564203
-0.915442
-0.99149
-0.0538997
-0.0260264
0.925553
0.839926
-1.44032
row 150:-3.14922
0.352062
-0.188417
0.991095
0.573965
2.44142
0.574663
-0.715375
1.11247
0.0707951
-0.477276
2.33833
0.107731
0.00730966
-1.10616
-0.499342
0.0707883
0.0772137
-1.11874
-2.18724
-0.194478
-0.0854705
-0.0416737
-0.833555
-1.23331
-0.0637446
-4.90152
-0.16422
0.0812931
-1.79608
0.249484
-1.40909
-0.477957
0.0629523
-3.94049
-0.0251587
-0.487564
0.112257
-0.0270961
-0.0590357
-0.361845
0.552366
-0.244578
0.0419146
0.648911
0.239668
0.977783
0.604718
-0.22979
0.000740381
0.0703123
0.591325
-0.0276435
0.0275783
0.12652
0.101127
0.947438
-1.77245
-3.3646
-0.0873379
0.0945697
0.383504
2.89438
1.05089
row 151:0.0240597
-0.337765
0.126569
0.713691
0.875427
-3.11518
0.127565
0.258995
-0.0014639
0.0126269
-0.208849
-0.680419
-0.100972
-0.0802466
1.27908
0.551698
-0.0555782
-0.238327
-1.42725
0.288539
-0.0820385
0.46589
-0.161484
1.17066
0.671461
-0.821303
-1.21636
-0.070121
-0.75935
-2.52727
-0.137783
-5.67954
0.591986
1.36891
0.776179
-0.0834365
0.0539977
0.124917
0.0118443
0.0656833
1.46959
-0.219557
-0.600887
-0.19339
0.54419
0.106055
-0.93449
-0.0996044
-0.893973
0.0153816
0.0125275
-0.00349622
0.228036
-0.145367
4.27688
-0.14677
-1.66258
3.57571
0.615677
0.0391483
0.00290046
1.09541
2.546
-0.847523
row 152:-1.4538
-0.612199
-0.00942739
-1.36535
-0.0795404
0.743842
0.59735
0.213391
-0.224767
-0.0932117
1.03855
-0.516624
-0.0992868
-0.0282283
0.627252
0.660488
-0.0585943
-0.188625
0.363615
0.0874679
-0.191346
0.128257
-0.0448829
-0.258981
0.581744
0.140929
-1.69021
-0.0977518
-0.149598
-0.310164
1.65687
0.310908
0.923259
0.300267
-1.99293
-0.0964729
0.407504
-0.152815
-0.0790525
-0.0731389
-0.207493
-1.30474
1.51186
-0.111554
0.306126
0.143174
1.30337
-0.108319
-0.938584
0.0402348
-0.141505
-0.468505
-0.182002
0.842966
-0.55849
-0.11826
0.261338
0.45861
-0.130207
-0.13706
-0.0222258
1.27078
-0.795273
-1.02176
row 153:2.86133
1.01382
-0.0147549
0.601351
-0.271646
-0.60096
-0.416735
0.824595
-0.884028
0.0810258
0.986216
0.586174
-0.0649217
0.111813
1.2513
1.18751
-0.143877
-0.136798
0.118073
0.162942
-0.00520563
-1.33074
-0.0106153
-0.327682
-0.0449766
1.02987
0.763965
-0.203458
1.07687
-3.72349
-1.22576
0.669031
1.22782
2.65113
-0.913306
0.0324695
0.223186
0.0833388
-0.123342
-0.117828
0.579313
0.482522
0.317497
0.115407
0.684336
-2.59214
1.17325
-2.25471
-0.45892
-0.113722
0.0378929
0.483603
-0.108625
-0.186814
-0.417339
-0.0493524
0.61914
1.39109
0.437256
0.0513432
-0.177527
0.426169
0.369862
0.809411
row 154:0.27267
0.542013
-0.0029215
0.522127
0.392358
-2.21491
-1.14797
0.414375
-0.000307207
-0.00471667
-0.474961
0.189239
-0.140444
-0.036242
-0.811096
-0.635987
-0.166782
0.144194
0.332432
-0.111888
-0.132999
0.159814
-0.159998
0.32255
0.53788
0.361922
-0.174045
-0.0876456
-0.696264
0.157483
-0.155305
-0.480287
0.213686
-7.74169
0.706275
-0.0544735
0.214086
0.00739484
0.0467619
-0.211753
-0.178737
0.819546
0.0185408
-0.108306
0.269551
0.685435
0.742129
-2.30005
-0.227879
0.0346536
0.121171
-0.046054
-0.125615
0.16878
-0.26116
-0.218741
0.372646
-0.977993
-0.0614655
0.0338303
-0.0137375
1.58279
0.987312
0.58906
row 155:-0.391836
-0.627572
-0.151419
-0.588975
0.174174
-0.556892
0.320944
0.444746
0.186565
0.0170383
-1.0109
0.116176
-0.118673
0.0626767
-0.801921
-2.61546
-0.105352
-0.16481
0.703763
0.02399
-0.0902504
-0.41583
0.0774473
-0.503515
-0.0195073
-1.41595
0.583714
-0.221133
1.19057
-0.44046
0.448783
-0.357635
-0.258993
-0.776751
2.52227
-0.125282
-0.160376
0.0298099
-0.181689
-0.139032
-8.25657
0.373604
-0.761906
-0.188462
0.379473
0.0414127
0.0204894
-1.49379
0.086282
-0.155606
-0.0355627
-0.0678844
-0.0716312
0.682159
-0.473998
-0.0758867
0.467132
-0.271019
-0.226145
-0.0803596
0.0364773
-2.04138
-0.325243
0.573107
row 156:0.125495
0.0737767
0.0108566
0.112377
-0.116043
0.128076
-0.0486331
0.077355
0.0980071
-0.026783
-0.0950915
0.0394559
-0.10516
0.0310671
-0.102735
-0.0378111
-0.0449944
-0.0430282
0.0827812
0.0996036
-0.0963252
-0.100678
-0.0777968
-0.0594598
0.0480231
0.0282337
0.0355971
0.00736187
-0.0402187
-0.0974892
0.015839
0.00554168
-0.100425
-0.0361465
-0.0904342
-0.0652494
0.0481356
-0.0193533
0.11103
0.10672
0.0252904
-0.0196593
0.0576342
0.110769
-0.0691501
0.0764693
-0.0313796
0.0126447
-0.105402
0.0704232
0.0148161
-0.0529848
-0.127283
-0.0658795
0.0979888
0.00826403
-0.11887
-0.0802264
-0.0180605
0.125998
0.0930253
0.00382601
0.0552105
-0.0122112
row 157:-0.742129
-0.732288
-0.115067
0.372903
1.09
-0.329738
0.363287
-0.105347
0.570259
-0.0661932
0.778703
1.14208
-0.12741
0.0859911
-0.400479
0.0744169
-0.00380863
-0.31071
1.24051
-0.527065
-0.108237
-0.264899
-0.0911634
0.737189
0.408128
-0.662218
1.04017
-0.161886
-0.0619071
-0.0367756
1.63827
0.298155
1.02747
-0.257116
-0.889001
-0.11602
-0.0008048
-0.206466
-0.0538358
-0.120424
0.932448
-1.215
-0.579845
0.026553
0.776506
-0.593212
-0.755422
0.444344
0.237786
-0.136003
-2.59985e-05
0.709986
-0.251511
-1.19465
-0.351021
-0.368127
0.111755
0.841792
1.06851
0.0105327
-0.142491
-0.638187
0.275326
-0.488868
row 158:-0.826316
1.5483
-0.0993558
-0.751875
1.92255
0.726009
-0.0287372
-1.041
1.31445
0.0198405
0.771088
0.807874
0.0659697
-0.110606
-0.199355
-1.23448
-0.0315361
0.0358961
0.363093
1.79705
-0.28511
0.602784
0.121448
-0.610765
0.128807
0.195089
0.663709
-0.0878765
0.37342
1.30567
0.634559
0.356365
-0.994889
3.16383
-5.15086
-0.0783671
0.4186
-0.0507139
-0.0327389
0.149857
3.18798
0.894777
-1.04864
-0.140631
-0.657394
1.82577
0.862092
3.04221
0.360393
-0.021153
0.0480723
-1.09364
-0.0841339
-0.384546
3.62306
-0.299438
0.0155217
-1.04478
1.01803
0.0429227
0.0381415
-0.872709
3.06246
-1.43801
row 159:0.119932
1.11267
0.0386487
-2.15223
1.20155
-0.50066
-0.625722
1.03382
-0.206085
-0.290546
0.395569
1.03793
-0.0712356
0.0721973
0.258763
1.13507
-0.0466752
-0.13867
0.671301
-0.339151
-0.0823057
2.07711
-0.0152091
0.0139387
-0.8912
-0.610799
-0.530875
-0.419693
-0.708498
-0.23977
-0.374181
0.514096
0.253618
0.0522838
1.47367
-0.00601507
-0.579737
-0.129772
-0.00881177
-0.0784267
0.319518
0.378474
-1.13701
-0.0701233
-0.4249
-1.22928
-1.61982
-1.10248
0.122123
0.0748731
0.177722
0.826007
-0.0815636
1.41659
-0.662338
-0.237847
0.0544757
-0.784482
0.52081
-0.0865956
-0.0516995
-0.00732146
0.408019
0.611117
row 160:-0.597735
-0.113997
-0.143472
1.23628
0.563192
-0.310147
-1.30993
-0.836823
0.440957
-0.220657
-0.41734
-0.642493
-0.0977894
-0.00662057
1.52449
0.504625
-0.147015
-0.24866
0.916048
-0.848746
-0.311767
0.619786
-0.158774
0.307247
-0.674771
0.838004
0.0986523
-0.299503
0.4482
-0.420694
0.0991304
-0.118959
-2.21103
-0.296932
-0.429103
-0.0333353
0.823993
-0.0889677
0.0819676
-0.0676007
-0.411963
-0.235458
-0.244772
0.0636273
-0.428235
-0.104043
-0.343873
-0.507113
-1.76588
0.019007
-0.286301
-1.32181
-0.264272
-0.946698
-0.601921
-0.131638
0.661257
-0.695503
0.396265
-0.175569
-0.160191
0.274612
0.393039
0.371692
row 161:-0.0263478
0.795685
0.0569068
-0.227796
-0.255063
1.47376
-0.402829
-0.303198
0.225102
-0.257654
-0.27033
0.361343
-0.121099
-0.030103
0.874495
0.443036
0.114134
-0.192607
0.254822
0.299435
-0.225223
-0.255948
-0.0711393
-1.47509
