column 0:0.80754584074
-1.28074061871
-0.95535337925
1.10562777519
0.504910230637
-0.211204051971
-0.945829868317
0.614324092865
0.260432183743
0.0213509108871
-0.597735285759
0.366260051727
0.0400866568089
-0.42616429925
0.380955934525
1.20473015308
-0.182874217629
-0.00295843277127
-0.753978610039
-0.0404890030622
-0.239593282342
0.0302169043571
0.0188047811389
0.475788146257
-1.51164937019
-0.175910413265
1.35556983948
-0.567077457905
-0.964841902256
-1.12057685852
0.851579248905
0.711891233921
-0.0263478364795
0.623279631138
0.232546180487
-1.18818807602
-0.444674551487
-0.616811156273
-1.06158089638
1.05282855034
0.479332566261
0.0664028674364
-0.870009720325
0.921569466591
-0.643049359322
-2.0053691864
0.561646878719
2.39604401588
-2.58701205254
-0.825357019901
-0.323149085045
2.54361987114
-2.25899815559
-1.78250801563
0.322042495012
1.73942780495
-2.04901504517
-1.08046627045
1.04514074326
1.87657046318
-2.37027835846
-1.31539106369
0.501736998558
0.741399466991
column 1:6.37572336197
2.29743528366
1.99230194092
0.617771744728
-1.61878275871
-0.0342237204313
-0.258865267038
-1.28665316105
-0.648157000542
0.175682023168
-0.113996744156
0.872723698616
1.51396906376
1.91397750378
0.429676085711
-0.102825812995
-0.229219853878
-1.65550982952
-0.813589632511
-0.841143846512
-2.20102834702
-4.97963476181
1.77388346195
-0.335217416286
0.221997827291
1.57941567898
-0.777327358723
1.14702129364
-1.08359837532
1.54849946499
-0.103541776538
-0.849859893322
0.7956854105
-0.688676834106
0.60541009903
0.311628401279
-0.442074686289
0.801022469997
-0.161605268717
0.270534873009
0.230553671718
1.47942376137
-2.22787547112
-1.36861097813
-0.369833350182
-1.79234075546
0.340720981359
-1.34724843502
-0.245008125901
-2.65935778618
-0.453895449638
-0.756378114223
-1.77207541466
-1.06196057796
-1.801825881
-0.676104366779
-1.36790764332
-1.82856237888
-0.332052022219
-2.24419045448
0.450266063213
-1.1159889698
-1.66680121422
0.0210414957255
column 2:-0.00285994284786
-0.0983090102673
-0.00189289124683
0.0291875060648
-0.0249644517899
0.0331874899566
0.0268794409931
0.0365003272891
0.0800154283643
0.00266606197692
-0.143471732736
-0.0302962586284
-0.071737319231
-0.109843581915
0.0371258482337
-0.0246301386505
-0.0679398998618
0.10124193877
0.0738157629967
0.0472226142883
-0.00200393958949
-0.0284932218492
0.0343160778284
-0.123042061925
0.0155675308779
-0.152439683676
-0.0238611046225
-0.047115739435
-0.0412142090499
0.0450679659843
0.045231744647
0.0568761266768
0.0569067895412
-0.0659206956625
-0.0220161899924
0.0458818525076
-0.0136469881982
0.0856859385967
-0.0165968295187
-0.0373847149312
0.0170100070536
-0.104166217148
0.0354101993144
-0.102996565402
-0.0931548774242
-0.0496035665274
-0.0800992920995
-0.00646837847307
0.0078462138772
0.0398312881589
0.0323598645627
-0.022073848173
-0.113986521959
-0.0967170223594
-0.0674787163734
-0.08785559237
0.0800287872553
-0.0304187294096
0.00937296822667
0.0660472437739
0.0153404278681
0.082219414413
0.00974407605827
-0.138449877501
column 3:1.49483144283
0.736123204231
-1.07602751255
1.19119119644
0.04485764727
0.223257437348
0.679399728775
-0.38480758667
-0.0161962937564
-0.22778724134
1.23627912998
0.413621217012
1.23871672153
-0.0896614715457
0.425526171923
0.0706913247705
-0.129098117352
0.2851600945
0.0652728676796
0.438609719276
0.632346272469
1.89073741436
0.962986290455
1.16292929649
0.563891112804
-0.0922029688954
0.180783644319
1.62434923649
-0.179249748588
-0.680233955383
-0.47373303771
0.196453422308
-0.227796018124
1.48669993877
0.42055657506
-0.0654304102063
-0.802931010723
-0.0132356137037
0.193532094359
0.929380774498
-0.0238270256668
1.40389859676
0.998229265213
0.568935453892
0.0746670439839
0.440307587385
0.302787989378
0.179374396801
0.0694769397378
1.34363639355
-0.279594928026
0.715808153152
-0.122251130641
0.571947813034
-0.351735204458
-0.201783716679
0.791432023048
-0.283640235662
-0.69822281599
0.453535497189
0.383826315403
-0.457310557365
0.690224885941
0.540488004684
column 4:-3.37792062759
-1.40864574909
0.754134476185
-0.941459774971
-0.267390072346
0.720677852631
0.580669462681
-0.0244641322643
0.392378240824
0.893418669701
0.563192307949
0.525504291058
-0.137457832694
-0.58126938343
-0.955744087696
-0.517204463482
-0.0549359731376
-0.522299766541
-0.149108886719
-0.207478642464
0.693399906158
0.887573182583
0.0195919517428
-0.665356397629
-3.1088745594
-0.700665056705
0.921181499958
-0.375641316175
-0.186338871717
1.58704829216
0.604645133018
1.50297546387
-0.255062788725
0.0625511780381
-1.0430393219
-1.34417152405
-0.393574625254
-1.42427945137
0.639793038368
0.998938679695
0.573852837086
0.840286970139
-0.691718399525
1.10830283165
-0.327952772379
-0.0432812012732
-1.43663954735
0.628525137901
-0.772388219833
0.416421413422
0.0620693527162
0.567932426929
-0.203986108303
0.915669679642
-0.0173777323216
-0.24726626277
-0.295764833689
-0.961208939552
-0.0134914824739
0.179977446795
0.17928263545
-0.318507254124
-0.286518871784
-0.490093737841
column 5:-0.0142868719995
-0.755288362503
-1.13718235493
-0.602679133415
-0.725707709789
-0.898426175117
-0.997024595737
-0.691778421402
-0.11728092283
-0.0234116055071
-0.310146540403
0.242963373661
0.630641818047
0.499724537134
0.482036501169
0.581529974937
0.660536289215
0.868583917618
0.560807466507
0.625832617283
0.438194364309
0.330090105534
-0.609160244465
0.321354359388
2.03581094742
2.65418744087
3.01954030991
3.26380634308
2.85958909988
3.27024626732
3.14686536789
2.37836885452
1.47376024723
0.616634786129
-0.174867287278
-1.38718545437
-2.17943811417
-3.27031493187
-3.88082242012
-3.7878677845
-4.13791656494
-3.10634589195
-2.37747788429
-0.385228067636
0.399801820517
0.0862738117576
-0.729269683361
1.97609722614
-0.771139025688
-1.72395384312
3.17121911049
-1.83251440525
0.780602216721
-0.914310932159
-0.526001691818
0.823985219002
-0.620165586472
-0.00837694760412
0.466147989035
-0.692876338959
-0.21224874258
0.810338973999
-0.975913226604
1.56101846695
column 6:-0.679889976978
-0.0547575354576
0.415130198002
-0.609282851219
-0.729222357273
0.0522025637329
-0.0712244585156
-1.11909341812
-0.478569567204
-0.289946734905
-1.30992877483
0.0543501600623
-0.851042032242
0.696136295795
0.110842861235
0.0286814384162
-0.0359987169504
-0.454414576292
-0.576796114445
-0.247565329075
-0.283418506384
-0.125468507409
-1.0653949976
1.05603170395
-0.256634026766
-0.388188898563
-0.904344677925
-2.01893925667
-0.469773620367
-0.802936136723
-1.09137570858
1.15024840832
-0.402828514576
-0.503593087196
0.427634835243
-0.826555490494
0.659913182259
-1.32851374149
-0.995684921741
0.0909916758537
0.0528658777475
0.486555159092
-0.496112138033
-0.201044410467
0.381880879402
0.610158741474
1.05975794792
-0.0348440408707
0.684831321239
-0.672342598438
1.45705640316
0.480855047703
0.28195887804
0.49447029829
1.68491637707
0.727321922779
0.465613871813
-0.34874111414
0.258020073175
0.868580460548
0.425639539957
0.506926476955
-0.0945337414742
-0.444661527872
column 7:0.932160973549
0.158859118819
0.439228087664
0.256859242916
0.460089504719
-0.236502498388
0.282121121883
-0.500258147717
0.447060406208
0.613045752048
-0.836823165417
0.423721343279
0.0730889812112
0.121456742287
0.199945792556
0.0922582671046
0.351380825043
0.255388468504
0.166385397315
0.51809746027
-0.149264842272
0.621093153954
-0.46144682169
-0.555743813515
0.452526152134
-0.0705048441887
0.111783050001
-0.497164696455
0.391490578651
0.259432882071
-0.862178504467
-1.52652668953
-0.303197711706
-1.24950909615
-0.7520788908
0.672638475895
-0.235979527235
0.369544714689
0.468177855015
0.0199391748756
0.0609107688069
-1.24523711205
-0.34453612566
-1.12749123573
-0.207660064101
0.184699222445
0.993866324425
0.465461581945
0.662046670914
-0.1946529001
0.386286348104
0.976664185524
-0.0618231035769
0.0355860069394
-0.566584944725
1.13376653194
0.0331075899303
0.599294126034
-0.349119395018
0.124004244804
0.456887573004
0.111352421343
0.847115933895
0.533503353596
column 8:0.664527416229
-0.666601717472
-1.05134654045
-0.106250725687
-0.363775223494
-0.246434032917
0.665757417679
-0.56155782938
-0.344467997551
-0.247999921441
0.440957009792
0.473400950432
0.0510947555304
-0.824079811573
-0.308979213238
0.113477051258
-0.343836963177
-0.643466949463
0.359596252441
-0.104666113853
0.26157528162
-1.28960430622
0.257903933525
0.574066102505
0.470140814781
-0.203238591552
-0.222228437662
-0.0848287343979
-1.12592542171
-0.543519496918
-0.751597285271
1.08975112438
0.225101917982
-0.556136727333
0.57249212265
0.144630774856
0.890028119087
-0.900565385818
0.106291748583
-0.900509178638
-0.0255709830672
0.924695193768
-0.282323747873
-0.253104954958
1.26716983318
-0.547857582569
0.08540212363
0.057100918144
0.230402797461
0.86870610714
0.167969629169
1.02482616901
0.319311738014
1.41191935539
-0.292244434357
1.37880206108
-0.601796329021
0.597382307053
0.468132197857
0.91998142004
1.49137961864
-0.480172455311
1.21903300285
-0.222416773438
column 9:-0.021924553439
0.0866947695613
-0.14015544951
0.0344452485442
-0.00170116103254
-0.181813567877
-0.0326008759439
-0.241329729557
-0.254623651505
-0.226777076721
-0.220656752586
-0.156080558896
-0.224721163511
-0.171514689922
-0.104769669473
-0.0726297348738
-0.159020856023
0.0112068168819
-0.0674153119326
-0.340892881155
-0.243978500366
-0.119186349213
-0.171169728041
0.0141523107886
-0.191764071584
-0.126198276877
-0.0221435502172
-0.21414335072
-0.150718569756
0.0297350008041
0.0474810563028
0.034815736115
-0.257653564215
-0.299481868744
-0.0551447719336
0.024686332792
0.0663960799575
-0.110170826316
-0.147913604975
-0.196387022734
0.0720197632909
-0.0321426466107
-0.0259342417121
-0.142765566707
-0.14536651969
-0.017721073702
-0.0141777843237
0.00993004161865
-0.140798449516
-0.182298779488
-0.180480062962
-0.092500410974
0.0383945293725
0.0214372519404
-0.0626198276877
-0.0455309301615
-0.164262011647
-0.171326994896
0.0730011314154
0.0911547243595
-0.152941569686
-0.19094350934
-0.179680988193
-0.226529538631
column 10:2.28935718536
-1.16604983807
-1.50887691975
-0.693255543709
-0.432289034128
-1.13653206825
-1.59576511383
-1.00611639023
-1.38737165928
0.636643707752
-0.417340159416
0.393058687449
0.820363342762
0.775855064392
-1.2862765789
-1.51340222359
-1.97182548046
-0.518679440022
0.577394783497
-0.196010529995
1.86000478268
5.02307844162
0.714313924313
0.491594165564
-1.44553291798
-0.896443128586
-0.817792117596
-2.04191422462
0.850165069103
0.193742707372
2.35115242004
0.922057390213
-0.270330399275
1.63523364067
0.266488522291
-0.520268082619
0.369919151068
-0.120373405516
-1.2087072134
0.130375474691
0.736535608768
-1.50038671494
0.0389180742204
-1.08354508877
1.01570487022
1.70577061176
0.43712836504
1.60487508774
0.532273113728
1.7547236681
2.07656407356
0.420207351446
2.78272366524
1.06454157829
1.17882215977
-1.01628363132
0.744697570801
-1.37957727909
1.39611291885
1.41358602047
-1.84152507782
0.809047281742
0.713064789772
0.187533482909
column 11:-1.19736206532
-0.702152967453
-0.0616288892925
0.187922328711
0.168101325631
-0.0784050822258
0.406714051962
-0.114189527929
-0.404375880957
-0.251517862082
-0.64249330759
-0.87593716383
-0.490534216166
-0.46713873744
0.162143170834
-0.135352358222
0.312214702368
-0.342232853174
-0.955725491047
-0.234793677926
0.222543209791
0.202667102218
-0.116415522993
-0.250056236982
-0.667700052261
-0.962808430195
-0.605174958706
0.66506844759
0.157516211271
-0.539405047894
-0.229328215122
-0.397857278585
0.361343294382
0.12199421972
-0.578677117825
-0.36586239934
-0.236421450973
-0.788961052895
0.109603047371
-0.477314502001
-0.458998799324
-0.206048727036
-0.138730928302
-0.497095584869
0.135081261396
0.0369414351881
-0.105125300586
0.446902692318
-0.433668315411
-0.10186766088
-0.0972505137324
-0.467941582203
0.564564466476
-0.395938366652
0.353807687759
-0.123318232596
-0.327759236097
0.102832205594
-0.372168213129
0.159782290459
0.00611238833517
0.287607103586
0.0279250890017
0.069582015276
column 12:-0.00907905865461
0.0132777085528
0.0543387457728
-0.0321594327688
-0.0236379560083
-0.111116364598
-0.0506221950054
0.0414504148066
0.00686190510169
-0.0086308484897
-0.0977893844247
-0.0757580026984
-0.124360732734
-0.0712905749679
-0.0601024925709
-0.0986787453294
-0.110962755978
-0.0651967525482
0.055374186486
-0.100153118372
-0.065661214292
-0.0908923596144
-0.0916726514697
-0.173185408115
-0.16991341114
-0.174494877458
-0.0516146346927
0.0431845374405
0.146558508277
0.0727599710226
-0.0916895195842
-0.0358956418931
-0.121098957956
-0.0924060642719
0.0951884761453
0.0065517979674
0.00810163095593
-0.0430535152555
-0.135898470879
0.152320101857
0.0231269001961
-0.151418685913
-0.160519570112
-0.0173443537205
0.0810342356563
-0.0602889209986
-0.143515408039
0.078351996839
0.0644019022584
0.0168154686689
0.0426177196205
-0.0462941452861
0.0181961096823
0.156986936927
0.124644935131
0.071967408061
0.0688323676586
-0.0889503583312
-0.161859482527
0.0203576292843
0.0830877348781
0.126542374492
-0.0579508692026
0.00810406636447
column 13:0.0537667497993
-0.142872542143
-0.0804642364383
-0.035169608891
-0.135201871395
-0.177561432123
-0.142368853092
-0.0477054268122
-0.0289025586098
-0.165975391865
-0.00662056682631
0.0334213189781
0.103234350681
0.00180732132867
-0.0391876995564
-0.058095511049
0.0874723121524
-0.133098483086
-0.0975571200252
-0.0392885543406
-0.0457499586046
-0.0691653117537
0.0598857104778
-0.0867085158825
-0.0853255093098
0.0277788564563
0.0846386775374
-0.020632006228
0.0285770855844
-0.0425288341939
0.0880491882563
0.00552348652855
-0.0301029831171
0.0341154038906
-0.0468314476311
-0.0177654046565
-0.0427101701498
0.058840110898
0.0624874457717
0.0620747283101
-0.063279747963
-0.0297948438674
-0.119886294007
0.101372279227
-0.160008087754
0.00524044036865
-0.0864328742027
-0.0653439164162
0.0455305799842
0.105685219169
0.00159661809448
0.0780453160405
-0.0033843240235
-0.124755054712
-0.0418547168374
-0.0214407816529
-0.0744506642222
0.00519072450697
0.0348532572389
-0.0654769018292
0.0500558875501
-0.0287629775703
0.0541937686503
0.0143232122064
column 14:3.32653331757
1.57715892792
1.86545538902
0.572956502438
-0.479215204716
-0.665760219097
-0.584595561028
0.542047798634
0.184050574899
0.805107951164
1.52449369431
1.12438261509
1.60831260681
1.12381112576
-0.126471295953
-0.279665797949
-0.263710319996
0.337557137012
0.42758667469
0.590262532234
1.14611577988
3.79461503029
1.34948635101
1.11370325089
2.24001526833
0.202766314149
0.961365520954
0.594595611095
0.721442639828
-0.403803437948
-0.0118444049731
0.729892253876
0.874494671822
1.20544862747
0.645005464554
-0.242243885994
0.74454587698
0.64818584919
0.355540066957
0.580706894398
0.884786844254
-0.14696136117
1.1213927269
2.05180215836
-2.21733164787
-0.0214830711484
-2.73482584953
-1.48852741718
-0.684402883053
-1.66619348526
-1.34138989449
-1.74448466301
-1.46480071545
-1.22240686417
-1.69098424911
-1.10946524143
-1.83806407452
-0.925358474255
-1.68165886402
-0.49788287282
-1.96200931072
-1.55461394787
-0.857656955719
-1.78036928177
column 15:-0.43655064702
0.282327413559
1.03859519958
1.4940032959
-0.246569469571
0.33281493187
-0.717750012875
-0.0640126913786
-0.376246184111
0.834667980671
0.504624783993
0.659905672073
0.80192220211
-0.267886310816
-0.114872694016
1.52658617496
0.260950058699
-0.497925490141
-0.228703811765
0.217221349478
1.1745493412
1.5438734293
0.686756014824
-0.125933974981
1.36357712746
0.564794301987
0.384629964828
0.999527513981
-0.334954321384
1.12768447399
0.139218971133
-0.428650408983
0.443035572767
1.1462726593
0.656098484993
-1.13576674461
1.24285960197
-0.775557994843
1.42312335968
-0.717421293259
1.25210464001
0.980501711369
-0.442604601383
0.156206026673
-2.26942133904
0.240887343884
-1.3809773922
-0.407833337784
-1.94017159939
-1.43771648407
-0.261854112148
-1.57900941372
-0.324651360512
-0.425569981337
-1.18205356598
-1.56712710857
-1.44207954407
-0.517494082451
-0.86501955986
-0.789179444313
-2.06339049339
-0.500946104527
-0.061637815088
-2.96793985367
column 16:0.0505852997303
-0.0955686718225
0.0203988868743
0.0391801334918
0.00961554516107
-0.10438106209
-0.0498283095658
-0.112915508449
0.054269362241
-0.119937755167
-0.147014528513
-0.0159351658076
0.0419619530439
-0.0143365114927
-0.124555513263
0.00225711963139
-0.129737436771
-0.0793713629246
-0.140289112926
-0.141313746572
0.0567437559366
-0.208896800876
-0.0936065092683
0.022377980873
0.0159409511834
0.00224353163503
0.0758013129234
-0.10302695632
0.0493961684406
-0.0445513054729
-0.0483644939959
-0.0529555678368
0.114133782685
-0.0647559762001
-0.00108572316822
0.084803968668
-0.0250402893871
0.0563226826489
0.107872210443
0.0515473373234
-0.0933003649116
-0.0743982717395
-0.125672727823
0.0175036061555
0.0328623726964
0.0341927446425
-0.155816465616
0.0587451942265
-0.124556005001
-0.0443019978702
0.0448569431901
-0.106559172273
-0.1198258847
0.0189092904329
-0.02977540344
-0.122122332454
-0.0924544259906
0.0223419480026
-0.0723637491465
-0.0299166850746
0.00341705256142
-0.057698816061
-0.0932108163834
0.0854517221451
column 17:-0.158319428563
-0.139030739665
-0.352625012398
-0.322955995798
-0.242802232504
-0.271774530411
-0.148470431566
-0.396616101265
-0.239547759295
-0.308246612549
-0.248660176992
-0.0958551093936
-0.0954843237996
-0.245697811246
-0.331304073334
-0.131457582116
-0.217307150364
-0.452586144209
-0.418534368277
-0.241023570299
-0.249603405595
-0.181149020791
-0.172516509891
-0.251746207476
-0.3453104496
-0.132202625275
-0.151500433683
-0.135494440794
-0.0577509850264
-0.21164944768
-0.0829317867756
-0.0408857874572
-0.192607209086
-0.0888519883156
-0.228263199329
-0.356471925974
-0.129746377468
-0.0560171976686
0.17429086566
0.113855652511
-0.221613571048
-0.0972610488534
-0.0805319994688
0.123789139092
-0.0195394195616
-0.202469334006
-0.167798146605
-0.235408887267
0.195155486465
0.248183384538
-0.0638318136334
-0.3942964077
-0.394481867552
-0.145917356014
-0.0265888608992
-0.00869109481573
-0.107140272856
-0.0760031491518
-0.149469166994
-0.0597957484424
-0.182503923774
-0.385442018509
0.12952773273
-0.0397262498736
column 18:-1.04670405388
-0.141119033098
0.135009288788
-0.043190293014
-0.16009183228
0.407452434301
0.157381758094
0.109974741936
0.923907220364
0.374359458685
0.916048169136
0.860797226429
1.21071875095
0.562583684921
0.458646535873
0.0500114299357
0.450362503529
0.28791230917
-0.101649828255
-1.0780210495
-1.5251057148
-2.600461483
-1.70310878754
0.774883389473
0.187611937523
0.589159071445
-0.122568622231
-0.424691110849
0.310066491365
0.24665980041
-0.41394546628
0.534066677094
0.254821717739
1.06075203419
1.67931890488
0.412240087986
1.41151058674
0.504700064659
0.0310711059719
-0.529539883137
-0.745680272579
-1.34594893456
-0.00454120151699
-2.424274683
0.096384383738
0.549888789654
-0.213372558355
0.752232134342
-0.00433565396816
-0.0938032865524
0.356710940599
-0.0790345594287
0.307824403048
-0.259190887213
0.718189656734
0.396706521511
-0.222401753068
0.0697119832039
0.285476773977
0.0813183784485
0.708358228207
-0.370761662722
0.23866096139
-0.618382930756
column 19:-0.262321442366
0.0701215192676
-1.23484241962
-0.952225208282
-0.421722263098
-1.51218295097
-0.838736653328
-0.985004842281
0.0773689448833
0.162687972188
-0.84874600172
-0.198041170835
0.791636228561
-0.419380217791
0.494352430105
-0.0820866152644
0.961372733116
1.68997168541
1.3414131403
1.15951693058
0.388780534267
0.0563813634217
0.407055467367
-0.888714373112
0.412301152945
-0.334503889084
-0.159887850285
-0.200161352754
-1.55067908764
-1.35224413872
-0.213460817933
-1.28454709053
0.299435436726
-0.79675090313
-0.327297955751
1.22437489033
-0.199841812253
0.391719400883
0.7609629035
0.620144546032
0.655271530151
0.654271245003
0.187417536974
0.99428832531
-0.543552100658
0.00719773443416
0.0524868965149
0.334753155708
-0.00205099908635
-0.0303598623723
0.164773419499
-0.33423152566
-0.431169807911
0.146046593785
0.0376065485179
0.142077729106
1.1104581356
-0.00921856053174
-0.0794443786144
0.179877609015
-0.0973669216037
0.04060023278
1.40565431118
0.204870402813
column 20:-0.168776229024
-0.249688133597
-0.234087869525
-0.119739226997
-0.223491623998
-0.0839340463281
-0.201099663973
-0.195661574602
-0.260473042727
-0.106782145798
-0.31176713109
-0.299233734608
-0.169288828969
-0.0976136997342
-0.104842975736
-0.182628020644
-0.169302284718
-0.133248344064
-0.245675310493
-0.229308694601
-0.0396145284176
-0.238157406449
-0.27660921216
-0.264456242323
-0.276321291924
-0.140272527933
-0.117815934122
-0.215341210365
-0.100845068693
0.00588524993509
0.00919027160853
-0.077568218112
-0.22522290051
-0.109312400222
-0.00959365442395
-0.153444051743
-0.161462590098
-0.120832689106
-0.31856328249
-0.119685970247
-0.200472429395
-0.0513888970017
-0.113568224013
-0.213170602918
0.00878517050296
-0.153992772102
-0.330297738314
0.092703923583
0.0937493219972
-0.122221238911
-0.151876121759
-0.186954259872
-0.157728046179
-0.0458406098187
0.00224678241648
-0.110221460462
0.000267687137239
-0.131302937865
-0.139986395836
0.0916316956282
0.0507126823068
-0.117829814553
0.0697447657585
-0.225031837821
column 21:-0.864708423615
0.930515110493
1.0146291256
0.0250542089343
-0.812313437462
0.284463554621
-0.208596408367
0.035248272121
-0.714698255062
-0.136814653873
0.619785666466
0.0465510226786
-0.166878789663
0.118979223073
0.748047828674
-0.185449138284
-0.0955839529634
-0.856234908104
0.0502461716533
0.70087659359
-0.453257292509
0.45626744628
-1.26812684536
-1.5909268856
0.329448491335
1.24977064133
-1.12850213051
-0.164927765727
0.338650166988
1.20878350735
-0.752090275288
-1.63571298122
-0.255948096514
0.42485204339
-0.314581781626
-0.157867282629
-0.954938173294
1.07391047478
0.827519476414
-1.94595551491
0.07321690768
-0.848107218742
0.863147139549
-0.611270070076
-0.813064217567
0.676764786243
0.908972799778
-2.43868613243
-0.774084091187
1.53767848015
-1.09916996956
-1.21691167355
-1.70613098145
1.56769573689
0.49176299572
-2.01219463348
-1.50134623051
0.801655113697
0.0349158830941
-2.00669050217
0.121848784387
0.261935353279
0.731563150883
-0.853218376637
column 22:-0.120854943991
-0.127868950367
-0.125647112727
-0.175512373447
-0.0580366142094
-0.134811908007
0.0774836689234
-0.109580934048
-0.120976567268
-0.0923464819789
-0.158774450421
0.0518876723945
-0.0680929124355
0.0141777899116
-0.0997918620706
-0.121872231364
-0.128730744123
-0.0684060156345
-0.201358959079
-0.171358838677
-0.118095599115
-0.0714297965169
-0.0632926598191
-0.0272802505642
0.00172211497556
-0.00499707600102
0.0192473102361
-0.0409634709358
-0.0277509354055
-0.00749452505261
0.0128681156784
-0.118283681571
-0.0711392983794
-0.110610708594
-0.174681738019
-0.192555382848
-0.164855122566
0.0580545701087
0.0545922555029
0.0628033876419
-0.0215434506536
-0.19169048965
0.0710963085294
0.0693332329392
-0.0687769651413
-0.143063470721
-0.114368550479
-0.152157858014
-0.172948241234
-0.0436551831663
0.0554191060364
0.0752683058381
0.0360223501921
-0.0950082167983
0.0484022498131
0.0586628876626
-0.167192906141
-0.0248115714639
0.0237085558474
0.0600637197495
-0.0829342454672
-0.196083068848
-0.0426136441529
0.0183071885258
column 23:1.88812208176
0.361000418663
-0.0624642297626
0.544153094292
-0.0289036557078
-0.0282102581114
-0.409486055374
-0.417559236288
0.135120481253
0.288561731577
0.30724722147
0.203157767653
1.07277154922
0.151040151715
-0.502018690109
0.0998547151685
-0.503014028072
-0.470996290445
0.522202432156
0.579338848591
1.19472789764
1.66466033459
-0.981592953205
-0.525416195393
-1.07906997204
-1.68523228168
-0.536758601665
-0.588767468929
-0.751018941402
-1.54416453838
0.530791699886
-0.834619224072
-1.4750931263
-0.39894631505
-0.273520559072
-1.10078549385
-0.709331929684
-0.515519618988
-0.791677772999
-0.538978815079
-0.380753487349
-0.712982714176
-0.424790292978
-0.860669434071
-0.837651968002
0.523270785809
-1.1357216835
0.0349986404181
-0.693367421627
0.661321163177
-1.34492301941
0.485057175159
-0.812494516373
-0.268869817257
-0.586825549603
-0.924025654793
-0.0627008602023
-0.910420119762
-0.239566668868
-0.260163813829
-1.27956044674
0.207183897495
-1.26593947411
-0.329781383276
column 24:-0.891670525074
-0.236294642091
-0.168103858829
0.0787190571427
0.421630382538
-0.507219493389
-0.157842755318
-0.465117156506
-0.391979545355
-0.34169948101
-0.67477118969
-0.455116868019
-0.649145781994
0.0810977444053
-0.0857683718204
-0.0494729578495
-0.0476824343204
-0.315772414207
-0.768359363079
-0.120173282921
0.0692240223289
-0.857929885387
5.32934617996
0.45852959156
1.88138484955
1.50501978397
1.03320860863
0.293223381042
-0.673451185226
1.12726795673
1.88903200626
0.391090661287
1.90334606171
1.89095687866
2.67951512337
2.08230447769
-0.487482398748
0.881998181343
0.502638041973
1.65540862083
2.00977396965
0.853230476379
1.97379791737
5.05082416534
0.416471987963
0.330511003733
-0.461007446051
0.221489593387
0.231049790978
-0.251929879189
-0.191973134875
-0.313203215599
0.0751023665071
0.387101829052
0.0109497541562
-0.462920129299
0.20399479568
-0.388332486153
0.0212542153895
0.17951066792
-0.244180738926
-0.11427372694
-0.233139514923
0.193396657705
column 25:2.07886481285
2.08418297768
0.494995772839
-0.442736953497
-0.811965286732
-0.00336974696256
-0.137198194861
0.183423310518
-0.383618474007
0.249664068222
0.838003754616
1.02398216724
1.378734231
-0.567033052444
-0.283187836409
-0.188875451684
0.0793685764074
-0.713635265827
-0.292608231306
-0.493718832731
1.73720026016
2.26350998878
-0.692423939705
-1.08866012096
1.40119731426
-1.69772481918
0.504804670811
0.293364405632
-0.186204582453
0.371292769909
0.0615361966193
-1.21805822849
0.0856820568442
-2.00337648392
0.529118001461
0.984827697277
-0.0774698629975
0.0864829719067
0.486389458179
-0.981824338436
-0.134040459991
-0.00661374488845
0.699227690697
0.931697666645
-2.42057204247
-0.450224995613
-1.00255477428
-1.12592899799
-0.0549904257059
0.332343280315
-1.88839185238
-0.04610555619
-1.17868030071
0.51692211628
-2.57043528557
-0.285049408674
0.350518733263
-1.11020493507
0.0590529963374
-2.27228832245
-0.359017044306
-1.35129535198
-1.48001253605
-1.21044588089
column 26:-1.28947269917
0.84284299612
0.326756238937
-0.961525917053
0.973464727402
-0.931364178658
1.10117149353
0.683467507362
0.453590542078
0.714002251625
0.0986523032188
-0.786990344524
-1.56095373631
-0.262759745121
-0.66279655695
0.557208955288
-0.0174270682037
-0.0339474603534
0.101553499699
0.299385160208
0.501662671566
-1.03940331936
1.79080557823
0.128411263227
0.714672684669
1.54032969475
-0.134778022766
0.195030033588
-0.0651622787118
0.204605907202
-0.166504219174
1.86678922176
2.22540831566
-0.390686929226
0.625327885151
0.870698928833
-1.12530088425
-0.356995612383
0.764927387238
-1.0741571188
0.0715620294213
1.02113521099
-0.309780925512
1.64876651764
1.75334990025
-1.29398655891
0.782654345036
1.46701073647
-0.726535260677
0.828311979771
-0.0590488575399
0.0126300649717
0.0693289786577
0.499568939209
1.48256921768
-1.73135876656
1.68072986603
1.41092765331
0.28584164381
-0.588227212429
1.19025325775
0.867797732353
2.2149772644
0.239181131124
column 27:-0.132059559226
-0.00726507836953
-0.177279859781
-0.0424156636
0.0622175745666
-0.116989441216
0.0155085977167
0.0402668826282
0.0476246103644
0.0116851460189
-0.299502581358
-0.0738827511668
-0.154528290033
-0.0873841419816
0.082284361124
-0.0398305356503
-0.00883555412292
-0.0911933630705
0.0144011275843
0.0844426751137
0.086195781827
-0.0744620934129
-0.237034901977
-0.274941176176
-0.169986829162
-0.0203682836145
-0.19281463325
-0.270024985075
-0.444279819727
-0.45513522625
-0.30620226264
-0.129851087928
-0.00347977993079
-0.425744265318
-0.317593961954
-0.300549268723
-0.452440559864
-0.170410826802
-0.190586015582
-0.163253843784
-0.240040272474
-0.291463941336
-0.24928316474
-0.331607937813
-0.252884984016
-0.163848564029
-0.230949550867
-0.281770169735
-0.106380715966
-0.265219241381
-0.12852203846
-0.0653461739421
-0.063687518239
-0.339766174555
-0.121817499399
-0.225710809231
-0.254983782768
-0.391717106104
-0.569726347923
-0.37934550643
-0.0347142852843
-0.456252723932
0.0144832441583
0.24659948051
column 28:1.10415530205
0.875050544739
-0.298417627811
-1.89602315426
-1.22844457626
0.416398525238
-0.108551420271
-0.69815415144
0.280094325542
-0.183737382293
0.448199510574
0.282913804054
0.24814504385
-1.1500865221
-0.666684567928
-1.32498002052
-1.14060938358
0.957101404667
0.447232425213
-0.0562588423491
0.0131534924731
-0.169147923589
0.74918025732
1.23959112167
-0.211166486144
-1.98491251469
0.964466512203
0.279520660639
2.01634407043
-1.31032621861
-0.203424006701
-0.543866097927
0.672033190727
-0.971200883389
0.192396908998
0.628797888756
-0.297287762165
0.154086232185
0.286733716726
0.495674878359
-0.137918874621
0.4530415833
1.28429293633
0.244612678885
-0.316564440727
-0.597165465355
-0.9075756073
-0.20682220161
-0.157852247357
-0.196548655629
0.343164801598
-1.14926445484
-0.850941359997
-0.350887417793
-1.21442079544
-0.555977106094
-0.172490894794
-2.16931200027
0.242736369371
-0.527694582939
-1.2843285799
0.446153908968
-1.05435216427
-1.01693344116
column 29:-1.73068535328
-0.738604366779
1.03715622425
1.65285992622
1.34100747108
1.80588173866
1.88148498535
0.387392282486
-0.0594848021865
-0.434473007917
-0.420694053173
-0.319160997868
-0.229728043079
1.1834692955
0.517762839794
2.43663740158
0.338411569595
1.53994512558
1.32293331623
0.430819779634
-0.267309874296
-1.40025532246
-0.434642732143
0.0640598237514
0.80436873436
-0.382361978292
1.49542117119
-0.923040747643
0.881217181683
-0.805042564869
1.31867563725
0.451889663935
0.322650641203
0.108431488276
0.833240568638
-0.0945770591497
1.26109659672
0.802291452885
0.748804926872
0.197634443641
0.796759665012
0.455812186003
-0.673232555389
2.36653661728
0.243403658271
0.673408031464
1.77416729927
-1.13157224655
2.09664416313
0.542858600616
0.562554478645
1.24828219414
0.032689191401
-1.67530190945
2.54218697548
1.55540180206
-0.0257303770632
-0.374251931906
1.46967279911
-1.09361350536
0.851002156734
-0.184361249208
2.24008274078
-1.13219690323
column 30:0.365904390812
-0.133019283414
0.282904088497
-0.569521009922
1.01033377647
-0.169335901737
0.116187959909
0.713989496231
-0.550144374371
0.0144663443789
0.0991304144263
0.375464528799
0.492424607277
-0.17256256938
-0.175389692187
-0.156902417541
0.118882767856
0.076339200139
-0.408621579409
0.943870484829
0.106797277927
-0.192512735724
-10.2706413269
-2.8546693325
-6.22980070114
-3.08703899384
-5.86048173904
0.576342463493
-0.194902926683
-4.06994867325
-1.0528357029
-1.86556124687
-3.22298288345
-1.81270229816
-3.21234869957
-2.82245445251
-1.23041474819
-3.18771743774
-6.11512851715
-3.65852451324
-5.54483985901
-4.28930473328
-2.35537576675
-9.58406829834
-0.870970547199
1.01556396484
-1.01000010967
0.627391397953
0.841722369194
0.183624684811
-0.711557745934
0.401363998652
0.422685444355
-0.186733558774
0.610427618027
-0.0923040807247
-0.367043882608
0.269628077745
0.439637571573
-1.12627255917
-0.179064109921
0.598061442375
0.0901900753379
-0.668508172035
column 31:-0.902341008186
-0.653924882412
0.19509190321
-0.126641869545
0.0904356613755
-0.685933411121
-0.936652302742
-0.189654365182
-0.0330609641969
-0.297348856926
-0.118958696723
0.32731756568
-0.600622415543
-0.549388885498
-0.356005400419
-0.609180808067
0.688892066479
-0.727486610413
0.551155567169
-0.264847993851
0.170160219073
0.276153951883
0.819035589695
-0.586741149426
-0.00614639045671
-1.11934626102
0.515714406967
-0.527085959911
-0.720948040485
-0.169414624572
-0.322125256062
0.420086711645
0.160116776824
-0.0248703695834
0.816013872623
-0.279259413481
-0.396902233362
-0.714494228363
0.3362403512
1.7957495451
0.526762604713
0.118592679501
-0.165036529303
1.56449532509
0.523425519466
1.06954610348
-0.909328401089
-0.010725973174
1.34173595905
0.737990915775
-0.846142113209
0.393259078264
1.33376204967
-0.45795917511
0.93149626255
0.980194985867
0.00405258219689
1.20939576626
-0.890352129936
0.0677995309234
0.306368857622
0.803586363792
1.23152446747
0.163164973259
