column 0:2.06675362587
1.12555015087
0.552367508411
0.289937704802
0.33777987957
1.10858619213
0.213256523013
0.172509402037
0.270739108324
0.744774580002
0.371691644192
0.387305378914
0.200692802668
0.395516395569
-0.110484518111
0.0711930990219
0.704325735569
0.323658525944
1.22934746742
0.948344886303
0.595626175404
0.97795945406
-7.67479324341
-2.30537939072
-4.50994300842
-4.58557605743
-2.25096130371
-3.81324005127
-2.09842348099
-0.669137597084
-1.96630764008
-2.94874453545
column 1:-0.152214974165
0.442527651787
-0.315996140242
0.0572265312076
1.01455390453
1.117664814
-0.136197671294
-0.911410331726
0.10143956542
0.335124611855
0.393038839102
-0.685176432133
-0.716981232166
-1.1633452177
-0.210242331028
-0.3800098598
0.500047087669
0.249625757337
-0.327844917774
0.182372793555
-0.752486169338
0.395245432854
-2.39211511612
1.25663805008
-0.870871603489
-0.255670666695
0.0377363301814
1.12757694721
-0.477835178375
0.439458698034
-0.00695954961702
-1.12199115753
column 2:-4.69841527939
-1.85188663006
-1.6438729763
-0.36303165555
0.247668996453
-1.09607410431
0.700681507587
0.462673842907
0.831043541431
2.26786899567
0.274611800909
-0.299894541502
-0.335298597813
-0.161021739244
-1.8725425005
-0.386973321438
0.157013103366
-0.368458211422
0.635013759136
0.529897391796
2.15126347542
5.12224149704
0.342558175325
0.581983447075
-1.34871315956
0.0748689621687
0.505303680897
-0.511007964611
1.33682858944
-1.92428278923
1.11698520184
1.14382302761
column 3:-0.0405155494809
-0.163697168231
-0.0557657703757
-0.174793735147
-0.0939215943217
-0.00319888792001
-0.0861853063107
-0.215809479356
-0.10519246757
-0.106526710093
-0.160191327333
-0.192792743444
-0.0998489782214
-0.205355495214
-0.042728882283
-0.0394530333579
-0.0649437978864
-0.143954530358
-0.0528021343052
-0.133805140853
-0.0284857545048
-0.172753438354
-0.0843811035156
-0.154189199209
0.00266775651835
-0.0839409008622
-0.0559921860695
-0.0925572961569
-0.0293580386788
-0.0253599341959
-0.0859517306089
-0.0511381179094
column 4:-0.0868642553687
-0.0276382640004
-0.149513408542
-0.149233445525
-0.0886467397213
-0.0778650939465
-0.0367545671761
-0.165682941675
-0.131529644132
-0.124539405107
-0.17556913197
0.0101634692401
-0.158214211464
-0.0207596179098
0.0114806257188
-0.127904325724
-0.104374296963
-0.0990607514977
-0.192863285542
-0.0791428163648
0.0643801987171
-0.0932708755136
-0.0924135372043
0.0664664581418
-0.0117666544393
-0.141661345959
-0.000410642445786
0.0808067768812
-0.0958685129881
0.0441960692406
-0.0922281891108
-0.142030984163
column 5:1.57738697529
0.282213807106
0.0454647615552
1.10605323315
0.658429205418
0.232368409634
0.00784774404019
-0.346169441938
-0.470524251461
0.160022392869
0.396265387535
-0.347910970449
-0.0435021780431
0.344405114651
0.186186701059
-0.0653025060892
-0.0376351363957
-0.262579500675
-0.108728580177
0.541128993034
-0.0267790257931
0.0456828027964
-1.2875187397
-0.180149495602
-2.08545708656
-0.269235998392
0.513798475266
0.0736001953483
-0.505740523338
0.632223010063
-1.02531301975
-1.26575660706
column 6:-0.495917856693
0.667710483074
-0.750142753124
0.646500408649
0.725341200829
0.0890072286129
1.13917446136
0.143023401499
-0.609849572182
0.106506027281
-0.695503294468
0.656398594379
0.20371170342
-0.571367621422
-0.109394848347
-0.283516466618
0.484935879707
0.162284761667
0.194701075554
0.59065258503
-0.404039204121
-0.761298418045
-0.515081107616
0.75379294157
1.17151975632
1.06330645084
-1.11728847027
3.16183257103
-1.28047513962
0.0699055194855
-0.469807505608
-0.15988971293
column 7:1.09488880634
0.272658139467
0.00383781059645
0.602850019932
0.547492861748
-0.0594814009964
0.725647807121
0.221203640103
0.0827823132277
-0.401026666164
0.661257207394
0.202189698815
0.540744841099
0.734445691109
0.0581851266325
0.30142480135
0.139639511704
0.288022458553
0.0711168497801
0.749933600426
0.0324329510331
0.207223623991
-0.631943702698
0.537969946861
1.08402109146
-0.451955527067
1.31093072891
0.365561246872
-0.0484746955335
-0.299996435642
-0.25642362237
0.343074440956
column 8:-0.104428268969
-0.268080770969
-0.259163856506
-0.22075265646
-0.208856523037
-0.372383534908
-0.306086182594
-0.236312314868
-0.200048148632
-0.240728452802
-0.131638094783
0.0056773731485
-0.395588308573
-0.269416213036
-0.198133945465
-0.185945034027
-0.141970694065
-0.417924165726
-0.124334037304
-0.392156928778
-0.26232111454
-0.323174774647
-0.260328859091
-0.192031159997
0.0238345339894
-0.188393607736
-0.060873478651
-0.185025200248
-0.227958902717
-0.323639631271
-0.338382661343
-0.538515269756
column 9:2.03566479683
0.792347252369
0.641159594059
0.340448260307
0.606548607349
0.0300263669342
-0.164026871324
-0.622455060482
-0.444987505674
-1.46886861324
-0.601921081543
-0.242690011859
0.0663091689348
0.310718119144
-0.671511590481
-0.881642639637
-0.969152808189
0.0524631515145
-0.968682646751
-0.127370432019
-0.701231241226
-0.159890428185
1.47846496105
1.56748557091
2.0647649765
0.901694595814
0.18512378633
-0.277253240347
0.00141563080251
-1.12692308426
0.195774078369
-0.128882035613
