column 0:0.80754584074
-1.28074061871
-0.95535337925
1.10562777519
0.504910230637
-0.211204051971
-0.945829868317
0.614324092865
0.260432183743
0.0213509108871
-0.597735285759
0.366260051727
0.0400866568089
-0.42616429925
0.380955934525
1.20473015308
-0.182874217629
-0.00295843277127
-0.753978610039
-0.0404890030622
-0.239593282342
0.0302169043571
0.0188047811389
0.475788146257
-1.51164937019
-0.175910413265
1.35556983948
-0.567077457905
-0.964841902256
-1.12057685852
0.851579248905
0.711891233921
column 1:6.37572336197
2.29743528366
1.99230194092
0.617771744728
-1.61878275871
-0.0342237204313
-0.258865267038
-1.28665316105
-0.648157000542
0.175682023168
-0.113996744156
0.872723698616
1.51396906376
1.91397750378
0.429676085711
-0.102825812995
-0.229219853878
-1.65550982952
-0.813589632511
-0.841143846512
-2.20102834702
-4.97963476181
1.77388346195
-0.335217416286
0.221997827291
1.57941567898
-0.777327358723
1.14702129364
-1.08359837532
1.54849946499
-0.103541776538
-0.849859893322
column 2:-0.00285994284786
-0.0983090102673
-0.00189289124683
0.0291875060648
-0.0249644517899
0.0331874899566
0.0268794409931
0.0365003272891
0.0800154283643
0.00266606197692
-0.143471732736
-0.0302962586284
-0.071737319231
-0.109843581915
0.0371258482337
-0.0246301386505
-0.0679398998618
0.10124193877
0.0738157629967
0.0472226142883
-0.00200393958949
-0.0284932218492
0.0343160778284
-0.123042061925
0.0155675308779
-0.152439683676
-0.0238611046225
-0.047115739435
-0.0412142090499
0.0450679659843
0.045231744647
0.0568761266768
column 3:1.49483144283
0.736123204231
-1.07602751255
1.19119119644
0.04485764727
0.223257437348
0.679399728775
-0.38480758667
-0.0161962937564
-0.22778724134
1.23627912998
0.413621217012
1.23871672153
-0.0896614715457
0.425526171923
0.0706913247705
-0.129098117352
0.2851600945
0.0652728676796
0.438609719276
0.632346272469
1.89073741436
0.962986290455
1.16292929649
0.563891112804
-0.0922029688954
0.180783644319
1.62434923649
-0.179249748588
-0.680233955383
-0.47373303771
0.196453422308
column 4:-3.37792062759
-1.40864574909
0.754134476185
-0.941459774971
-0.267390072346
0.720677852631
0.580669462681
-0.0244641322643
0.392378240824
0.893418669701
0.563192307949
0.525504291058
-0.137457832694
-0.58126938343
-0.955744087696
-0.517204463482
-0.0549359731376
-0.522299766541
-0.149108886719
-0.207478642464
0.693399906158
0.887573182583
0.0195919517428
-0.665356397629
-3.1088745594
-0.700665056705
0.921181499958
-0.375641316175
-0.186338871717
1.58704829216
0.604645133018
1.50297546387
column 5:-0.0142868719995
-0.755288362503
-1.13718235493
-0.602679133415
-0.725707709789
-0.898426175117
-0.997024595737
-0.691778421402
-0.11728092283
-0.0234116055071
-0.310146540403
0.242963373661
0.630641818047
0.499724537134
0.482036501169
0.581529974937
0.660536289215
0.868583917618
0.560807466507
0.625832617283
0.438194364309
0.330090105534
-0.609160244465
0.321354359388
2.03581094742
2.65418744087
3.01954030991
3.26380634308
2.85958909988
3.27024626732
3.14686536789
2.37836885452
column 6:-0.679889976978
-0.0547575354576
0.415130198002
-0.609282851219
-0.729222357273
0.0522025637329
-0.0712244585156
-1.11909341812
-0.478569567204
-0.289946734905
-1.30992877483
0.0543501600623
-0.851042032242
0.696136295795
0.110842861235
0.0286814384162
-0.0359987169504
-0.454414576292
-0.576796114445
-0.247565329075
-0.283418506384
-0.125468507409
-1.0653949976
1.05603170395
-0.256634026766
-0.388188898563
-0.904344677925
-2.01893925667
-0.469773620367
-0.802936136723
-1.09137570858
1.15024840832
column 7:0.932160973549
0.158859118819
0.439228087664
0.256859242916
0.460089504719
-0.236502498388
0.282121121883
-0.500258147717
0.447060406208
0.613045752048
-0.836823165417
0.423721343279
0.0730889812112
0.121456742287
0.199945792556
0.0922582671046
0.351380825043
0.255388468504
0.166385397315
0.51809746027
-0.149264842272
0.621093153954
-0.46144682169
-0.555743813515
0.452526152134
-0.0705048441887
0.111783050001
-0.497164696455
0.391490578651
0.259432882071
-0.862178504467
-1.52652668953
column 8:0.664527416229
-0.666601717472
-1.05134654045
-0.106250725687
-0.363775223494
-0.246434032917
0.665757417679
-0.56155782938
-0.344467997551
-0.247999921441
0.440957009792
0.473400950432
0.0510947555304
-0.824079811573
-0.308979213238
0.113477051258
-0.343836963177
-0.643466949463
0.359596252441
-0.104666113853
0.26157528162
-1.28960430622
0.257903933525
0.574066102505
0.470140814781
-0.203238591552
-0.222228437662
-0.0848287343979
-1.12592542171
-0.543519496918
-0.751597285271
1.08975112438
column 9:-0.021924553439
0.0866947695613
-0.14015544951
0.0344452485442
-0.00170116103254
-0.181813567877
-0.0326008759439
-0.241329729557
-0.254623651505
-0.226777076721
-0.220656752586
-0.156080558896
-0.224721163511
-0.171514689922
-0.104769669473
-0.0726297348738
-0.159020856023
0.0112068168819
-0.0674153119326
-0.340892881155
-0.243978500366
-0.119186349213
-0.171169728041
0.0141523107886
-0.191764071584
-0.126198276877
-0.0221435502172
-0.21414335072
-0.150718569756
0.0297350008041
0.0474810563028
0.034815736115
