column 0:2.06675362587
1.12555015087
0.552367508411
0.289937704802
0.33777987957
1.10858619213
0.213256523013
0.172509402037
0.270739108324
0.744774580002
0.371691644192
0.387305378914
0.200692802668
0.395516395569
-0.110484518111
0.0711930990219
0.704325735569
0.323658525944
1.22934746742
0.948344886303
0.595626175404
0.97795945406
-7.67479324341
-2.30537939072
-4.50994300842
-4.58557605743
-2.25096130371
-3.81324005127
-2.09842348099
-0.669137597084
-1.96630764008
-2.94874453545
-2.50175738335
-1.36597490311
-2.36008453369
-4.25668668747
-0.980250358582
-2.56343770027
-3.23832321167
-1.15954828262
-2.10406732559
-4.71379756927
-3.45560622215
-7.00653171539
1.01418697834
-0.903630375862
-0.346246629953
0.625205993652
0.118355333805
-0.0300367418677
0.123254694045
-0.517909646034
0.656443297863
0.0756369009614
-0.0282297190279
-0.216515466571
0.779726266861
-0.328748971224
0.558179855347
-0.183826342225
0.208907693624
0.272799730301
0.0261932387948
-0.337010979652
column 1:-0.152214974165
0.442527651787
-0.315996140242
0.0572265312076
1.01455390453
1.117664814
-0.136197671294
-0.911410331726
0.10143956542
0.335124611855
0.393038839102
-0.685176432133
-0.716981232166
-1.1633452177
-0.210242331028
-0.3800098598
0.500047087669
0.249625757337
-0.327844917774
0.182372793555
-0.752486169338
0.395245432854
-2.39211511612
1.25663805008
-0.870871603489
-0.255670666695
0.0377363301814
1.12757694721
-0.477835178375
0.439458698034
-0.00695954961702
-1.12199115753
-0.200367242098
-0.132604315877
-0.301070809364
-0.454210042953
-0.361569523811
0.518306016922
0.180275529623
-1.2323384285
-0.335634917021
-0.536011755466
0.419811576605
-2.16854786873
0.354176074266
-0.0798571780324
0.658867180347
0.627121984959
-0.0383389033377
1.05355334282
-0.74271607399
0.921767652035
-0.547115921974
0.96507692337
-0.478456377983
-1.0369155407
0.800152480602
-0.283965349197
0.461172163486
0.657215952873
0.0831572562456
-0.499230593443
0.231828555465
0.0854617655277
column 2:-4.69841527939
-1.85188663006
-1.6438729763
-0.36303165555
0.247668996453
-1.09607410431
0.700681507587
0.462673842907
0.831043541431
2.26786899567
0.274611800909
-0.299894541502
-0.335298597813
-0.161021739244
-1.8725425005
-0.386973321438
0.157013103366
-0.368458211422
0.635013759136
0.529897391796
2.15126347542
5.12224149704
0.342558175325
0.581983447075
-1.34871315956
0.0748689621687
0.505303680897
-0.511007964611
1.33682858944
-1.92428278923
1.11698520184
1.14382302761
-0.230895370245
1.33338916302
-0.777116119862
-0.882633984089
0.73522144556
0.611612737179
1.21269595623
-2.07624745369
0.838764846325
1.61114382744
-1.07430064678
-0.464212268591
-1.93001770973
-0.35448256135
-1.21579539776
-3.77784490585
-0.730803489685
-2.0889210701
-3.80418920517
-1.00696122646
-2.30733299255
-1.00525307655
-3.31129074097
-3.68826580048
-0.185672298074
-3.78294038773
-2.70237445831
-2.14393281937
-1.69955694675
-1.3549362421
-4.54211568832
-2.51040482521
column 3:-0.0405155494809
-0.163697168231
-0.0557657703757
-0.174793735147
-0.0939215943217
-0.00319888792001
-0.0861853063107
-0.215809479356
-0.10519246757
-0.106526710093
-0.160191327333
-0.192792743444
-0.0998489782214
-0.205355495214
-0.042728882283
-0.0394530333579
-0.0649437978864
-0.143954530358
-0.0528021343052
-0.133805140853
-0.0284857545048
-0.172753438354
-0.0843811035156
-0.154189199209
0.00266775651835
-0.0839409008622
-0.0559921860695
-0.0925572961569
-0.0293580386788
-0.0253599341959
-0.0859517306089
-0.0511381179094
-0.106648735702
-0.115689538419
-0.141817376018
-0.184249132872
0.012241370976
-0.153114259243
0.0578325726092
-0.0863122269511
-0.0303662680089
-0.0380588546395
-0.0141994506121
-0.00303337676451
-0.074340544641
-0.157486051321
-0.0471990630031
0.0329511463642
-0.160596400499
-0.121249876916
-0.124604456127
-0.0810747519135
-0.149242773652
-0.171273082495
-0.182597056031
-0.127512946725
-0.0099280513823
-0.00877942331135
0.0244840737432
-0.0210483893752
-0.00156966224313
-0.136612817645
0.0400417745113
-0.129618108273
column 4:-0.0868642553687
-0.0276382640004
-0.149513408542
-0.149233445525
-0.0886467397213
-0.0778650939465
-0.0367545671761
-0.165682941675
-0.131529644132
-0.124539405107
-0.17556913197
0.0101634692401
-0.158214211464
-0.0207596179098
0.0114806257188
-0.127904325724
-0.104374296963
-0.0990607514977
-0.192863285542
-0.0791428163648
0.0643801987171
-0.0932708755136
-0.0924135372043
0.0664664581418
-0.0117666544393
-0.141661345959
-0.000410642445786
0.0808067768812
-0.0958685129881
0.0441960692406
-0.0922281891108
-0.142030984163
0.0807401463389
-0.0951032042503
-0.0856728777289
-0.0763820409775
-0.00929746963084
-0.0995885282755
-0.158817410469
-0.140593007207
-0.0328779034317
-0.0444643311203
-0.117550738156
-0.0943280905485
-0.110321708024
-0.194170311093
-0.07997251302
-0.165782511234
-0.0360207371414
0.000269746378763
-0.0287178531289
-0.127169147134
0.0368527248502
-0.0417095385492
0.0787816345692
-0.0676541775465
-0.0311096273363
-0.017549501732
-0.180433139205
0.0184528492391
0.0369081869721
0.0187209993601
-0.130418032408
-0.188952326775
column 5:1.57738697529
0.282213807106
0.0454647615552
1.10605323315
0.658429205418
0.232368409634
0.00784774404019
-0.346169441938
-0.470524251461
0.160022392869
0.396265387535
-0.347910970449
-0.0435021780431
0.344405114651
0.186186701059
-0.0653025060892
-0.0376351363957
-0.262579500675
-0.108728580177
0.541128993034
-0.0267790257931
0.0456828027964
-1.2875187397
-0.180149495602
-2.08545708656
-0.269235998392
0.513798475266
0.0736001953483
-0.505740523338
0.632223010063
-1.02531301975
-1.26575660706
0.0214288774878
0.118041373789
-1.04086875916
-1.34164559841
-0.447981506586
-0.405958205462
-0.0569085180759
-0.144779190421
-0.590571880341
-0.194582521915
-0.513039112091
-1.84531891346
-0.336337000132
-0.172511607409
-0.23750564456
0.353435993195
-0.312573164701
-0.139295354486
-0.335625529289
-0.352708607912
0.575198769569
-1.01657402515
0.582973480225
-0.88458698988
0.234541982412
-0.632675170898
0.592507004738
-0.646074414253
0.694447696209
-0.0541822463274
0.196259275079
0.0171658266336
column 6:-0.495917856693
0.667710483074
-0.750142753124
0.646500408649
0.725341200829
0.0890072286129
1.13917446136
0.143023401499
-0.609849572182
0.106506027281
-0.695503294468
0.656398594379
0.20371170342
-0.571367621422
-0.109394848347
-0.283516466618
0.484935879707
0.162284761667
0.194701075554
0.59065258503
-0.404039204121
-0.761298418045
-0.515081107616
0.75379294157
1.17151975632
1.06330645084
-1.11728847027
3.16183257103
-1.28047513962
0.0699055194855
-0.469807505608
-0.15988971293
-0.246422752738
2.23830580711
0.293559193611
-0.256488740444
1.25570106506
-0.995148777962
-1.37772572041
-0.124863982201
0.329342603683
-0.23557780683
1.21293032169
1.04003119469
2.91077828407
-0.500179350376
1.19625914097
-1.10843622684
1.17552018166
-0.181777969003
-1.21557724476
0.704592704773
1.15704035759
0.302343845367
0.0842485651374
0.030587779358
0.206507712603
1.15003013611
0.999769985676
-0.697010457516
1.04780697823
-0.975135326385
1.44363510609
-0.533354461193
column 7:1.09488880634
0.272658139467
0.00383781059645
0.602850019932
0.547492861748
-0.0594814009964
0.725647807121
0.221203640103
0.0827823132277
-0.401026666164
0.661257207394
0.202189698815
0.540744841099
0.734445691109
0.0581851266325
0.30142480135
0.139639511704
0.288022458553
0.0711168497801
0.749933600426
0.0324329510331
0.207223623991
-0.631943702698
0.537969946861
1.08402109146
-0.451955527067
1.31093072891
0.365561246872
-0.0484746955335
-0.299996435642
-0.25642362237
0.343074440956
-0.612710475922
-0.660482943058
0.0443541035056
-0.0383779779077
0.171739980578
0.322895884514
1.09615206718
0.0439185351133
0.0721073970199
-0.149902909994
0.698865115643
-0.347871989012
0.757516384125
-0.76874089241
0.400198638439
0.849782884121
-0.106400743127
0.218560233712
0.611892402172
-0.438661038876
0.862364351749
0.676535964012
0.0459813959897
0.336206167936
-0.0223162863404
0.195236951113
0.41186389327
0.537697970867
0.898681223392
-0.496683180332
0.611173927784
-0.0996410548687
column 8:-0.104428268969
-0.268080770969
-0.259163856506
-0.22075265646
-0.208856523037
-0.372383534908
-0.306086182594
-0.236312314868
-0.200048148632
-0.240728452802
-0.131638094783
0.0056773731485
-0.395588308573
-0.269416213036
-0.198133945465
-0.185945034027
-0.141970694065
-0.417924165726
-0.124334037304
-0.392156928778
-0.26232111454
-0.323174774647
-0.260328859091
-0.192031159997
0.0238345339894
-0.188393607736
-0.060873478651
-0.185025200248
-0.227958902717
-0.323639631271
-0.338382661343
-0.538515269756
-0.285191297531
-0.281911015511
-0.308278113604
-0.379136890173
-0.2700060606
-0.468586295843
-0.176204353571
-0.132551982999
0.0830466002226
-0.238298013806
-0.211358547211
-0.347082793713
-0.058044206351
0.049579475075
-0.0609539225698
-0.0360525660217
-0.174760758877
-0.235224127769
-0.287018954754
-0.184643536806
0.110311791301
0.182236984372
-0.516257464886
-0.320020139217
-0.201524496078
-0.0823391973972
-0.296098768711
-0.0882604420185
0.0366726890206
0.154453977942
-0.574321091175
-0.316493153572
column 9:2.03566479683
0.792347252369
0.641159594059
0.340448260307
0.606548607349
0.0300263669342
-0.164026871324
-0.622455060482
-0.444987505674
-1.46886861324
-0.601921081543
-0.242690011859
0.0663091689348
0.310718119144
-0.671511590481
-0.881642639637
-0.969152808189
0.0524631515145
-0.968682646751
-0.127370432019
-0.701231241226
-0.159890428185
1.47846496105
1.56748557091
2.0647649765
0.901694595814
0.18512378633
-0.277253240347
0.00141563080251
-1.12692308426
0.195774078369
-0.128882035613
-1.25548446178
0.0243269037455
-1.32517874241
1.0524597168
-0.968957602978
0.00445120222867
-0.56294721365
-0.244736894965
-0.341765493155
-1.08415102959
-0.409944117069
-0.32612195611
-0.111397087574
0.147422611713
-0.278890550137
-0.432298094034
-1.18439102173
0.0443073809147
0.0747204124928
-0.991176247597
-0.147223979235
0.0480816103518
0.169279903173
0.0682140439749
-1.01665210724
0.326523095369
-0.766239225864
0.180761739612
-0.00894463900477
-0.147435694933
-0.232597440481
-0.057273760438
column 10:-2.84978199005
-1.15776455402
-0.509722113609
-1.17868959904
-1.33330309391
0.118655405939
0.790098547935
0.135841414332
-0.0885723009706
-1.21106827259
-0.946698367596
-0.960566937923
-1.55469870567
-0.734861671925
0.412259221077
0.44642546773
0.587606430054
-0.49208214879
-0.435368388891
-0.904991805553
-1.16075289249
-2.86066889763
-0.91989505291
0.0387753546238
0.0666788816452
-0.00522326724604
0.168719813228
0.692062556744
-0.25185406208
-0.170876041055
0.673596858978
-1.77378082275
-0.200842186809
-1.01534545422
-1.01493036747
0.356548279524
-0.592445492744
0.897437810898
1.70152652264
0.182794824243
0.938559114933
0.452959477901
-3.10586690903
-2.02630472183
0.473105728626
0.356319725513
-0.217297062278
0.329320162535
0.474605411291
0.105553805828
0.520274043083
-0.958327531815
0.45253816247
-0.435860931873
0.197181895375
-0.305709987879
0.916505694389
-0.576662003994
0.514461100101
0.128451243043
-0.0468511916697
-0.547173440456
-0.636530160904
0.827278256416
column 11:-0.168037489057
-0.163489058614
-0.167999431491
-0.256866335869
-0.110426165164
-0.157393887639
-0.0826143398881
-0.051085665822
-0.162091717124
-0.246324211359
-0.264271706343
-0.0913032218814
-0.0828687772155
-0.0935393422842
-0.224239453673
-0.268517673016
-0.220410600305
-0.216022074223
-0.0870603397489
-0.185355976224
0.200932741165
-0.196726858616
-0.247711405158
-0.182686910033
-0.285403490067
-0.118773922324
-0.222931057215
-0.173792749643
-0.0483219362795
-0.203714355826
-0.254886984825
-0.0883540585637
0.0135623021051
0.178275316954
-0.220238447189
-0.143798604608
-0.115535229445
-0.14874240756
0.104245409369
0.273303240538
0.140866160393
-0.137658327818
-0.0543179921806
0.206285655499
0.0501537434757
-0.241365462542
-0.0610275641084
-0.195493102074
0.200869828463
0.118912398815
-0.0242178738117
-0.266480207443
-0.102115780115
0.157764047384
0.181125298142
-0.184396609664
-0.0711634010077
0.03923458606
-0.278182089329
-0.192372560501
-0.153565734625
-0.257799595594
0.00182410411071
0.125599265099
column 12:-2.2943520546
-0.149728104472
-0.389565706253
-1.17684078217
0.116281725466
0.48321685195
0.0197668597102
0.595587968826
0.0396549738944
-0.902974486351
-1.32180845737
-0.7839666605
-1.36181151867
-0.251636713743
0.564368784428
0.779128551483
0.161115542054
-0.861138284206
-1.07296180725
0.525413691998
-0.746167302132
-2.05635499954
-1.48662614822
0.152215242386
-1.02144706249
1.39099836349
-0.0954412817955
-0.143176451325
0.578020751476
0.453359901905
-1.32549500465
-2.67916560173
-0.784665584564
-0.891365468502
-0.679476857185
0.883949220181
-1.76994252205
0.588453650475
0.355962216854
-0.102796137333
-0.688601970673
-0.0294259078801
0.339754164219
-1.89541482925
0.209230080247
0.279439747334
1.23163855076
-0.0602419599891
0.567004084587
0.479120820761
0.163456141949
0.605829536915
0.691931903362
0.818268358707
-0.805292189121
0.810491085052
-0.74742692709
0.677968263626
-0.608611702919
0.746020197868
0.134755581617
0.835625886917
1.23519742489
0.310879647732
column 13:-0.192551895976
-0.0695462077856
-0.0817306563258
-0.281354397535
-0.105190321803
-0.221813440323
-0.270853996277
-0.132490769029
-0.30021250248
-0.195468470454
-0.286300987005
-0.284126758575
-0.266212463379
-0.0204872153699
-0.229689225554
0.0905864611268
-0.170980393887
-0.177853554487
-0.134205684066
-0.156621053815
-0.137803405523
-0.171078681946
-0.217752739787
0.24966686964
0.0331521295011
0.178076356649
-0.0306340064853
-0.257697045803
0.161684215069
0.170138448477
-0.048154450953
-0.0558174997568
0.0392028018832
-0.0258574280888
0.0404155887663
-0.0396852195263
0.079348385334
0.182314068079
-0.0837479680777
-0.240912288427
-0.082213871181
-0.147380933166
-0.0641010776162
-0.245517611504
-0.144172072411
0.179677262902
-0.00303537980653
0.158120468259
0.241056263447
-0.0709633752704
-0.278590172529
-0.176899343729
-0.15492247045
-0.13642296195
0.137936860323
0.119078233838
-0.0871587991714
0.188573181629
0.0157062932849
-0.179661661386
0.0702759698033
-0.00349330017343
-0.142941877246
-0.147502243519
column 14:-0.0113875996321
-0.0359132178128
-0.133389145136
0.0144784804434
-0.0650218427181
-0.191686749458
-0.0501184202731
-0.0601570755243
-0.0849203914404
0.0495759993792
0.019006954506
0.0568595118821
-0.0183608643711
-0.126168489456
-0.111103773117
-0.0686561018229
-0.104894094169
-0.00702899275348
0.00816602259874
-0.0717006772757
-0.0612138435245
-0.13907033205
-0.173130363226
-0.045364189893
-0.0380877256393
-0.00962679740041
-0.138490915298
0.0490886718035
0.0621433183551
-0.127513840795
-0.0866466164589
0.0857234075665
-0.101555109024
-0.0379199832678
-0.0609140321612
-0.180862382054
0.0362651273608
-0.0689302906394
-0.0254921913147
0.0202821251005
0.0469336807728
-0.077747695148
0.0662011504173
-0.0451504029334
-0.0778949335217
-0.163846164942
0.0126775763929
0.0133790215477
-0.00458369264379
-0.0378025993705
-0.0493804700673
-0.021326104179
0.066355779767
-0.100003316998
-0.107607200742
-0.0132787013426
-0.0286242179573
-0.114720366895
-0.101639330387
0.0629072934389
-0.13112924993
-0.0155803309754
-0.154755115509
-0.0268615223467
column 15:-3.74663877487
-1.22821199894
-0.904717624187
0.0048307646066
-0.116111420095
-0.193264916539
0.536779165268
-0.0581732578576
0.248505085707
-1.4288071394
-1.76587736607
-1.55229067802
-0.685079872608
0.073259241879
-0.570816397667
-0.390199661255
0.703716218472
0.07556656003
-0.320837110281
-0.604965209961
-1.14323616028
-4.22799348831
1.09590029716
-0.532862961292
0.181512966752
0.749342083931
0.384566962719
-0.0379485450685
1.01148676872
0.164615899324
-0.315629512072
0.163244917989
0.0812401771545
0.277596235275
-0.376378536224
0.77571862936
0.555965542793
-0.24375526607
1.06431615353
0.673557639122
-0.409592419863
0.265431970358
0.118271566927
-0.502827584743
-1.29655754566
-0.27187743783
-0.508694827557
-0.325714379549
-1.02248644829
-0.835108995438
-0.29923298955
-0.233206152916
0.0753434151411
-0.60172522068
-0.33985888958
-0.472320944071
-0.540788292885
-0.962866723537
-0.646689176559
-0.681020736694
-1.09899199009
0.327127993107
-1.14944553375
0.0662627592683
column 16:-0.051463663578
-1.53950071335
0.131885245442
-0.717186391354
-2.68316316605
-0.000771958380938
-0.973700284958
-2.21874332428
-1.21800422668
-1.41048026085
-0.507112801075
-0.0971212163568
0.3067317307
1.25095522404
-0.130524337292
0.174295976758
-1.4455820322
-0.889364004135
-1.12992107868
0.423322409391
0.500321745872
1.05124986172
-3.31635022163
1.52917945385
-2.41212940216
1.091401577
1.25651407242
-0.0287236571312
-1.77652430534
-0.578247189522
-1.87435019016
-0.914665341377
1.32520616055
3.5258102417
-0.844897687435
0.693219423294
-0.427311182022
0.291985154152
-0.503548264503
0.468928009272
-2.55722045898
-1.45601773262
0.450616896152
2.60725784302
-1.58279645443
0.578469455242
1.62868440151
-0.710626244545
0.612094402313
0.704367697239
-0.913518726826
-2.65847229958
0.487429380417
-0.776913821697
0.324235141277
-0.679873168468
-2.17481279373
0.196367740631
0.61488699913
1.4254887104
-1.72092175484
0.340365082026
0.173731103539
-0.0264217741787
column 17:0.236565634608
0.768474519253
-0.282896190882
-0.0479292497039
0.182514712214
0.00754353357479
0.343859821558
-0.783058643341
-0.122516877949
0.385227441788
-0.343873232603
0.576064765453
0.716776788235
-0.906275749207
-0.189778313041
-0.582744896412
0.149879738688
0.529612541199
-0.405648827553
0.160626128316
0.616478443146
-0.608285963535
-1.93748378754
0.383974045515
2.10275197029
0.836035907269
-0.973916471004
-0.169141441584
1.17106711864
0.430578589439
-1.27293586731
0.453942507505
-0.538722515106
-0.672104358673
-0.460201740265
-0.359998822212
-0.870524585247
-0.150234431028
1.16960835457
-0.913824975491
1.63845264912
0.625487864017
-0.745380342007
-1.47646665573
1.47238314152
-0.631547689438
-2.02831673622
0.202265933156
0.912278234959
0.074729681015
-1.22329056263
0.211504086852
2.33307552338
-1.21573543549
-0.775551974773
-0.11288779974
1.40942811966
-0.180984705687
-1.43537628651
1.06392240524
1.4150788784
-0.568926393986
-0.508277416229
-0.402930229902
column 18:-0.0837024226785
-0.166620880365
0.832792520523
-0.523051083088
0.15327937901
0.20429392159
-0.251870989799
-0.442124307156
0.974963307381
0.285453349352
-0.104043073952
1.22473323345
1.1371229887
0.32991951704
-0.0183134581894
0.504151523113
-1.30082130432
-0.00126168073621
0.806522011757
0.0139431366697
-0.102284029126
2.20924663544
-0.42744988203
1.54365885258
0.0208629015833
0.878099560738
-0.928409934044
-1.45169556141
0.144584923983
-0.309409707785
-0.590472340584
-1.14506900311
1.13539588451
0.686705470085
-0.785612523556
1.46108007431
0.0604893788695
-1.3836427927
0.0391950309277
1.47882211208
-0.0470666028559
2.02731275558
2.02039074898
1.55165970325
-0.202314466238
-0.223763152957
2.93473744392
-1.42711472511
-0.214351922274
0.507661581039
-1.29225242138
0.0867216363549
0.585767745972
0.182535722852
-0.470600962639
-0.29275983572
0.0197290591896
-2.42953395844
1.08690261841
-0.880904018879
0.240535780787
0.216731250286
0.593506157398
-1.89932215214
column 19:-0.196101129055
0.514323532581
-0.365346044302
-0.350804418325
-0.600402653217
0.220114931464
0.440179556608
0.0483523607254
-0.130909994245
-0.511106610298
-0.428235381842
-0.812750458717
0.811110138893
-0.44870620966
0.39843660593
-0.279449999332
-0.181365117431
1.88049995899
-0.475040614605
-0.747039794922
0.2429317981
-0.363318026066
-0.164349079132
-0.336984455585
-1.46897101402
0.198321148753
-0.0524974502623
-0.622037529945
0.898704528809
0.802827000618
0.822981357574
0.130772173405
-0.413665294647
1.53314840794
0.776869177818
-1.41957485676
0.291416853666
-0.759283363819
0.662337183952
-0.946252405643
-0.589572966099
0.0888643115759
0.172447711229
-0.0973451659083
1.61521196365
-0.135616347194
1.38901424408
0.0216546524316
0.419467926025
1.06172657013
1.48734557629
0.218635395169
1.19416701794
0.429518550634
2.05779004097
-0.259214878082
0.9326171875
-0.547341585159
0.855933189392
0.473419368267
0.68979537487
1.7712136507
-0.379762858152
1.74521350861
column 20:-0.314899742603
-0.11058472842
-0.15423104167
-0.221679091454
-0.179857775569
-0.00919466651976
-0.0918364971876
0.028665246442
-0.103878289461
-0.128254473209
0.0636273026466
0.0118250725791
0.0318560004234
0.015722360462
-0.0793222561479
-0.0680824443698
-0.00109662348405
-0.0246579889208
-0.0634238794446
-0.0766506195068
-0.135340869427
-0.115247905254
-0.139584615827
0.0655044838786
-0.0425892136991
-0.205766394734
-0.268960475922
-0.104897558689
-0.17173448205
-0.0734916031361
0.0745869278908
-0.122059173882
-0.102887995541
-0.220273271203
-0.0987776070833
-0.18777525425
-0.334886997938
-0.0542576052248
0.0397049747407
0.0937353521585
-0.0581877529621
-0.214133739471
0.00939796026796
-0.118335902691
-0.10902980715
-0.174489334226
-0.0136218219995
0.158976644278
-0.00100463721901
-0.175224080682
-0.0502146631479
-0.202657297254
0.0640003457665
0.00757594313473
-0.0317201688886
-0.0843986794353
-0.204446837306
-0.0694577768445
0.136582762003
0.00578720448539
0.0802256241441
0.119735561311
0.033836863935
-0.0099956439808
column 21:-0.00174377765507
-0.538672208786
-0.46591335535
-0.149265244603
-0.426207959652
-0.304719686508
1.16793203354
0.368722110987
-0.56750690937
-0.300925910473
-0.244772002101
-0.136901721358
-0.397284567356
-0.952057003975
0.532807648182
-0.554234623909
0.651882350445
0.72921872139
0.6556661129
-0.449264287949
-1.16051018238
-0.496486574411
-0.994001448154
-0.344760209322
-0.560930609703
0.631261229515
-1.11658871174
-1.63991975784
1.17961168289
-0.311082541943
-1.95337748528
-0.131778582931
-1.07293725014
-1.29319262505
0.0239980109036
0.263493686914
-2.54547166824
0.0714626684785
1.1893093586
-1.9804931879
-3.24617314339
-0.148176461458
-2.41242265701
-1.85965120792
0.760893881321
-0.535527944565
0.74706697464
-0.429792493582
-0.614797115326
0.29829993844
0.380566090345
0.435310304165
-0.368987411261
0.519424140453
-0.203166022897
0.641093492508
-0.160571590066
0.263939410448
0.48735755682
1.2236263752
-0.215370237827
1.41316986084
0.314837008715
0.312671363354
column 22:-0.633339226246
-0.821676254272
0.283124268055
-0.402727544308
0.236514180899
-0.0729854032397
0.711076021194
-0.399123489857
-0.856795489788
-0.0757874324918
-0.235457807779
0.105410926044
0.455198287964
-0.15721860528
0.297408521175
0.284900903702
-0.156468912959
-0.0419362299144
-0.38691303134
-0.320133566856
-0.406783282757
0.607377827168
3.27045726776
1.01598715782
-0.123091138899
0.916303396225
1.36052310467
0.444966077805
-0.948410868645
0.417449742556
0.411835223436
-0.680111408234
0.581773757935
0.208679795265
0.954350292683
0.733632862568
-0.205141544342
-1.06615900993
0.53822940588
0.860886693001
0.309319078922
-0.330447494984
1.82829713821
3.11656808853
-0.0411747731268
1.24378120899
0.35766145587
-0.225121423602
0.491869449615
-0.521023154259
0.486802637577
0.855993747711
1.2855348587
-0.0200734455138
-0.10039075464
0.403204470873
-0.259059101343
-0.0411598421633
0.551530480385
0.106354609132
-0.647878468037
0.79362154007
0.169049739838
0.711402237415
column 23:-1.6491818428
-0.0223674997687
0.75378036499
0.69704324007
0.78152680397
0.662467896938
-0.0829831585288
-0.421010732651
-0.489583879709
-0.543100774288
-0.411962687969
0.0404260642827
0.216445699334
0.455311179161
1.0504206419
0.58784455061
-0.243142843246
-0.368230223656
-0.701667487621
0.0713745728135
0.622581720352
-1.10161149502
0.789698839188
0.655689239502
-1.00996720791
-0.0705856606364
0.164190918207
0.973543465137
-0.00681821908802
-0.922920465469
0.254829645157
-1.46560955048
-0.101265929639
-0.058266337961
-0.72539883852
-0.642134428024
0.511845529079
0.137443765998
0.0360169559717
0.721096158028
0.831367909908
-1.11836588383
0.943893194199
-0.47691065073
-1.01969063282
0.836056470871
-0.555392026901
-0.279808700085
0.0191962402314
-0.785517692566
-1.34217536449
-0.492291510105
-0.086654163897
-0.967449307442
-0.934163630009
0.190020248294
-0.786497116089
-1.228297472
-2.62287521362
0.253249287605
-0.954107105732
0.420840919018
-1.56899154186
0.246026054025
column 24:-0.0687365084887
-0.189391002059
-0.101031951606
-0.129843890667
-0.155246660113
-0.207417562604
-0.14620141685
-0.171942085028
-0.19528067112
-0.151997685432
-0.0676006674767
-0.115612007678
-0.180240347981
-0.187114328146
-0.141396090388
-0.230175822973
-0.19990965724
-0.248537808657
-0.273235112429
-0.0595786087215
-0.138316750526
0.147003337741
0.365655183792
-0.0410752184689
-0.140932112932
-0.139462918043
-0.012801207602
0.161479905248
-0.0806548222899
-0.210180357099
-0.24463185668
-0.18350417912
-0.211626768112
-0.217996641994
-0.144753575325
0.0240956731141
-0.0825662761927
-0.241942614317
-0.168866604567
-0.0883516222239
-0.0919657200575
-0.146524786949
0.0596452094615
-0.119135685265
0.0039580706507
0.0571304149926
0.0908614099026
-0.0793700739741
-0.0624127313495
-0.130308270454
0.0931631177664
-0.00201151822694
0.115475699306
-0.0252256989479
-0.162334412336
-0.248632967472
-0.261214375496
-0.120615042746
-0.11769208312
0.00821556150913
-0.258624255657
-0.145275369287
-0.105667233467
0.0242545343935
column 25:-0.0189157072455
-0.199661463499
-0.154232755303
-0.0232649315149
-0.053158454597
-0.140068262815
0.0502494983375
0.0887259691954
-0.0547090210021
-0.0940472558141
0.0819675847888
-0.0187187213451
-0.158633485436
-0.0339647009969
0.0671136751771
-0.0151733541861
-0.253549307585
-0.0965214297175
-0.0286013130099
0.0641127824783
-0.0691411867738
-0.202333286405
-0.144379332662
-0.0304357670248
-0.136504620314
-0.0343948639929
-0.0748323425651
-0.0227659605443
-0.044633641839
-0.0442971400917
-0.0276065990329
-0.0445914976299
-0.217568486929
-0.146307080984
-0.0478947907686
-0.181250795722
-0.150563195348
-0.0513999089599
-0.14255617559
0.0375868789852
-0.173508912325
-0.0980480089784
0.00982454139739
-0.157052412629
-0.0426988825202
-0.169679790735
0.00782208051533
-0.0997911170125
-0.0617944821715
-0.0965583994985
0.057421721518
-0.155932664871
-0.114839076996
-0.0272108204663
-0.0872588455677
0.0933994501829
0.0468893162906
-0.0150750651956
0.0225249566138
-0.126188352704
-0.0580548197031
0.0446920990944
-0.067888520658
0.0460588596761
column 26:-0.137251168489
-0.134117737412
-0.092811755836
-0.163752317429
0.00843362137675
-0.0724284276366
-0.211744219065
-0.00376928690821
-0.0968589857221
-0.128999114037
-0.0889676660299
-0.142511874437
-0.0735986381769
-0.170407176018
-0.124779708683
-0.0659576058388
-0.0766137912869
-0.197714135051
-0.240648150444
-0.0655419975519
-0.214237198234
-0.195034340024
-0.167280122638
-0.0217046514153
-0.153860867023
-0.129820823669
-0.0312933847308
-0.239005059004
-0.0362160988152
-0.0713208690286
-0.0537224635482
-0.142543911934
0.0362460799515
-0.152283966541
-0.0638181045651
-0.116842262447
-0.135120004416
-0.0358582884073
-0.137059122324
-0.188888341188
-0.187730804086
-0.0499910600483
-0.0416891500354
-0.125294312835
-0.0223036054522
-0.0779214650393
-0.12985907495
-0.0894018262625
-0.0695491731167
-0.0194534510374
0.0457017794251
-0.0546321384609
0.0299531370401
-0.1045473665
0.0852670222521
-0.0703489407897
-0.107103072107
-0.0214095190167
-0.172283768654
-0.0304001774639
-0.048799932003
-0.168103426695
0.0363005921245
0.0552407950163
column 27:1.05660736561
0.427284896374
-0.917465150356
-0.024665877223
-0.386574745178
0.534883916378
-0.171260431409
1.16395759583
0.297527939081
0.0508766882122
0.823992609978
-0.110852055252
-0.0579473786056
-0.372190445662
0.140271827579
-0.295791089535
-0.0323849096894
0.777545213699
0.340632975101
0.063350841403
0.454475194216
1.14069521427
2.84815073013
1.45141613483
0.226521626115
1.9241091013
1.20956254005
0.785786569118
1.09795534611
0.664206504822
-0.179050266743
0.36944425106
0.733613371849
0.993948578835
0.284402102232
0.0525356344879
-0.44866707921
-0.484784573317
0.91953843832
0.525994420052
0.737497627735
1.5639013052
-0.387350410223
2.17158174515
0.339951455593
0.672625303268
0.0551510602236
0.324574261904
0.841135144234
0.638653874397
0.182365611196
0.825439631939
-0.164875552058
0.482137054205
0.776347637177
0.195756793022
0.148873925209
1.11125409603
0.500396728516
0.417069345713
0.0395782217383
1.01410627365
0.0121291568503
0.800986766815
column 28:-0.0462845414877
-0.140842884779
0.0255711581558
0.0768693909049
0.0668032169342
0.0216301362962
-0.115734562278
0.00124975363724
-0.0513870231807
-0.130589857697
-0.0333353281021
0.004179620184
-0.109172359109
0.0253303702921
-0.0137784788385
0.0317249931395
-0.0530668757856
0.0255288891494
-0.0569169856608
-0.0705206617713
0.00807774718851
-0.135820105672
0.0722016319633
-0.0544974952936
-0.00120252289344
-0.0358439944685
-0.0586494170129
0.0635235086083
-0.0280098188668
-0.0317233391106
-0.0702975168824
-0.128159373999
-0.0244658179581
-0.035351023078
-0.0825877636671
0.128903478384
-0.0421092286706
0.0455717407167
0.109624534845
0.0211047511548
0.124428212643
-0.050907690078
0.0599377714097
0.0365085266531
0.0237917583436
0.0979157313704
0.0272403396666
-0.0475671961904
-0.122392892838
-0.0561824887991
0.0101193888113
-0.0535899661481
-0.103444360197
-0.0144597357139
0.0384970493615
-0.0174770299345
0.135998129845
-0.0159413795918
0.112410217524
0.029034467414
-0.0204008482397
-0.10636767
-0.0139805469662
-0.0717058256269
column 29:1.7604227066
1.15294635296
0.850713253021
-0.0845879539847
-0.611210823059
-0.212827667594
-0.564632236958
-0.395476281643
-0.773439049721
-0.358777701855
-0.42910271883
-0.266497373581
-0.0978307873011
0.229296058416
0.474955826998
0.295540392399
0.166426435113
-0.0795223787427
-0.191623970866
0.0233931895345
0.0112050706521
-0.858152151108
-3.5268073082
-3.34885597229
-2.45271086693
-2.41472125053
-1.42327189445
-0.157910823822
0.849860668182
1.93535792828
2.15735840797
1.80340409279
1.61831092834
1.54765069485
2.00374674797
2.1114192009
2.53428411484
2.733035326
2.51340007782
0.693472743034
0.157240480185
-1.30454981327
-2.30952715874
-4.88736391068
-0.981749355793
-0.445031672716
-4.45208787918
-0.219655454159
-4.51953125
1.43846094608
-1.51571905613
-1.48993110657
-1.08782458305
3.69695496559
-3.76591682434
1.54680562019
-1.15904414654
-2.63528633118
-1.03948616982
0.315107882023
-3.31324100494
-2.28728508949
-3.87450957298
4.27811002731
column 30:1.41234898567
1.01828348637
0.525311768055
0.634929299355
0.0664521604776
-0.1987888515
-0.632371842861
-0.459483355284
-0.709057867527
-0.715297281742
-0.296932399273
-0.207888573408
0.517543852329
0.14995546639
0.262912064791
0.343066513538
0.743937134743
0.388091653585
0.265250682831
0.12368504703
-0.60224121809
-0.536980688572
-1.77816343307
-1.99123859406
-0.170618027449
1.34966599941
0.372299581766
1.42706596851
1.37967932224
2.39565777779
2.59030556679
2.45931911469
2.52164125443
2.61351752281
1.92736554146
0.857891380787
1.15658247471
0.427159160376
-0.771079480648
-0.429951697588
-1.59586524963
-3.70191001892
-3.51499271393
-4.26217126846
-12.94135952
-6.41681671143
-2.5174946785
-5.1048951149
-6.12777853012
-4.15605449677
-7.06015253067
-3.88015389442
-3.36813998222
-7.80986642838
-3.59014749527
-8.65139865875
-5.94681406021
-7.18095350266
-0.392389416695
-7.62707090378
-4.98547792435
-7.63228940964
-9.17499446869
-2.71976733208
column 31:-8.61602401733
-1.89650261402
-1.17279160023
0.451531797647
-0.616483151913
1.05193781853
-2.2463247776
-0.75630146265
-2.99256300926
-0.397153139114
-2.21102666855
-3.13382482529
-0.916198670864
-1.52466392517
0.0674993395805
2.70966339111
-2.67182040215
0.146505013108
0.424971193075
-0.679979681969
-4.5239982605
-10.9944858551
-1.0190217495
0.586767435074
-1.52169489861
-0.829791784286
0.845425724983
0.149096786976
-0.921778559685
0.46816316247
0.105071187019
-0.85004067421
-1.38411557674
1.04653716087
-0.168430700898
0.216081961989
-0.520905375481
0.617514312267
-1.93019282818
0.734641253948
-0.28750500083
0.277821719646
0.737581551075
-1.93215656281
-0.871358156204
0.841618418694
-2.85977935791
-0.613553106785
1.35003137589
-0.232045158744
1.17838311195
-0.83545589447
-0.984690964222
-0.556232392788
0.744935512543
-2.03774404526
0.230795443058
-0.297007262707
0.705353558064
-2.7640440464
1.23871707916
-1.50397288799
-0.633929729462
0.0371360369027
